
\data\
ngram 1=606
ngram 2=9614
ngram 3=34545

\1-grams:
-2.161808	'|S}Z	-3.572006
-4.305025	'}AH	-0.8117777
-5.319265	'}AY	-0.3865431
-5.796386	'}ER|EY	-0.3687475
-3.335489	'}IH	-2.201965
-5.319265	'}IH|Z	-0.3384174
-4.620295	'}IY	-1.073264
-5.796386	'}IY|OW	-0.3647113
-2.557588	'}_	-1.507864
-5.796386	(}AE|M	-0.3658049
-5.796386	(}AH|L	-0.368785
-5.194326	(}AH|N	-0.4152072
-5.796386	(}AH|T	-0.3658049
-5.796386	(}AY|N	-0.3658049
-5.796386	(}B|AH	-0.3658049
-5.796386	(}EH|R	-0.3658049
-5.319265	(}EY	-1.268318
-5.796386	(}EY|SH	-0.3658049
-4.565938	(}IY	-1.151214
-5.796386	(}R|JH	-0.368785
-5.796386	(}SH|AH	-0.368785
-5.796386	(}T|S	-0.3658049
-5.796386	(}Y|UW	-0.3658049
-2.1359	(}_	-3.518253
-5.495356	)}B|IY	-0.3591726
-5.495356	-|A}AA	-0.3244863
-5.097416	-|A}AE	-0.6659246
-5.018235	-|A}AH	-0.6383411
-5.796386	-|A}EY	-0.3676814
-4.620295	-|B}B	-0.373178
-5.495356	-|C}CH	-0.4150681
-4.495356	-|C}K	-0.5647896
-4.650258	-|D}D	-0.3982027
-5.796386	-|E}AA	-0.3686754
-5.097416	-|E}EH	-0.3462248
-5.495356	-|E}IH	-0.3513331
-5.796386	-|E}T	-0.3680939
-5.796386	-|E}UH	-0.3681224
-4.517632	-|F}F	-0.4402455
-4.842144	-|G}G	-0.5949655
-5.796386	-|G}JH	-0.358543
-4.541114	-|H}HH	-0.4384665
-5.796386	-|H}SH	-0.3685226
-4.893296	-|I}IH	-0.451008
-5.097416	-|J}JH	-0.3446251
-5.018235	-|K}K	-0.3355778
-4.951288	-|L}L	-0.3395556
-4.592266	-|M}M	-0.4698087
-5.495356	-|N}N	-0.357809
-5.796386	-|O}AA	-0.3447343
-5.097416	-|O}AO	-0.6682239
-5.319265	-|O}OW	-0.3881041
-4.682443	-|P}P	-0.4298618
-5.319265	-|Q}K	-0.368025
-5.796386	-|R}AE	-0.3681224
-5.796386	-|R}ER	-0.3606626
-5.319265	-|R}R	-0.3560629
-4.650258	-|S}S	-0.4774961
-5.319265	-|S}SH	-1.268174
-5.796386	-|T}DH	-0.3656602
-4.796386	-|T}T	-0.3462087
-5.194326	-|U}AH	-0.6509083
-5.796386	-|V}V	-0.3685018
-5.319265	-|W}W	-0.3542108
-4.842144	-|Y}Y	-0.6361333
-4.893296	-}AH	-0.3130496
-4.951288	-}EY	-0.3163885
-5.796386	-}EY|T	-0.368785
-5.796386	-}F	-0.3687836
-4.434659	-}IY	-0.3328843
-5.796386	-}L	-0.3681849
-5.796386	-}S|IH	-0.3687843
-4.893296	-}TH	-0.6765182
-5.319265	-}W	-0.3643201
-5.319265	.|'}EY	-1.262411
-5.796386	.|(}CH	-0.3658049
-5.796386	.|S}Z	-0.3097646
-5.796386	.}AH|B	-0.368785
-5.796386	.}AH|K	-0.368785
-5.194326	.}AY	-0.3200464
-5.495356	.}D|AA	-0.3687843
-5.495356	.}ER|EY	-0.3675805
-5.319265	.}IH	-1.268297
-5.796386	.}IH|Z	-0.3097646
-4.842144	.}IY	-0.9964721
-5.319265	.}K|S	-0.2960652
-5.796386	.}P	-0.3687829
-5.796386	.}S|AH	-0.368785
-5.796386	.}T|ER	-0.3097646
-5.097416	.}Y|UW	-0.3958991
-5.796386	0|0}UW	-0.3522693
-5.796386	1|)}N	-0.3097646
-4.893296	1|)}Z	-0.8952215
-2.164943	1|)}_	-3.178658
-5.194326	1}AH|N	-0.7733598
-5.796386	1}AO|N	-0.3097646
-5.796386	1}Y|UW	-0.3687843
-5.796386	2|)}AH	-0.3097646
-3.41078	2|)}_	-2.328369
-5.018235	2}T|UW	-0.4796251
-5.796386	2}UW|S	-0.368785
-5.796386	2}Y|UW	-0.3687843
-3.898759	3|)}_	-1.844069
-5.796386	3}R|IY	-0.3097646
-5.194326	3}TH|R	-0.8322613
-5.319265	4}AO|R	-0.3420663
-5.495356	5}AY|V	-0.3591726
-5.495356	6}K|S	-0.3097599
-5.796386	7}EH|V	-0.3687836
-5.796386	8|0}IY	-0.3097646
-5.495356	8}EY|T	-0.3591726
-5.796386	9}N|AY	-0.3687705
-0.8959536	</s>
-99	<s>	-3.136093
-5.194326	A|-}AA	-0.3911617
-5.194326	A|C}AA	-0.6574587
-5.018235	A|C}AE	-0.8771242
-3.586871	A|I}EH	-1.447523
-2.839738	A|I}EY	-1.328975
-4.277873	A|J}AY	-0.5518808
-5.796386	A|K}AE	-0.3632396
-4.398446	A|L}AA	-1.300507
-4.453964	A|L}AE	-1.031459
-4.056024	A|L}AO	-2.091115
-4.893296	A|N}AE	-0.6391628
-4.063993	A|O}AW	-0.7724146
-2.792065	A|R}ER	-0.9558382
-2.89821	A|U}AO	-1.458715
-3.098286	A|U}AW	-1.014051
-3.305025	A|U}OW	-1.054897
-5.018235	A|U}_	-0.7816648
-3.310665	A|W}AO	-0.8798841
-5.018235	A|W}AW	-0.2942759
-5.018235	A|Y}	-0.5514026
-5.097416	A|Y}EH	-1.117058
-2.853882	A|Y}EY	-1.219992
-3.368252	A}	-1.92396
-1.784435	A}AA	-1.910485
-1.69433	A}AE	-2.312142
-1.616662	A}AH	-2.159852
-2.839258	A}AO	-1.382841
-5.796386	A}AO|HH	-0.3496529
-5.194326	A}AW	-0.8160342
-4.162918	A}AY	-1.038091
-2.758164	A}EH	-1.913063
-4.754993	A}ER	-1.008155
-2.167997	A}EY	-1.836476
-5.319265	A}HH|AA	-1.252166
-3.241292	A}IH	-1.661589
-5.796386	A}IH|P	-0.3687809
-4.152934	A}IY	-1.172587
-5.796386	A}T|R	-0.368785
-5.194326	A}Y	-0.8199151
-2.816383	A}_	-1.019238
-3.316379	B|B}B	-1.30995
-4.754993	B|T}T	-0.2895302
-5.796386	B|Y}B	-0.3675165
-1.696257	B}B	-1.619545
-5.495356	B}N|D	-0.299568
-5.495356	C|.}K	-0.3083845
-3.706481	C|C}CH	-1.365469
-3.56339	C|C}K	-1.196325
-5.194326	C|G}G	-0.3725551
-2.47895	C|H}CH	-1.117577
-4.133628	C|H}HH	-0.6182014
-3.42903	C|H}SH	-0.9625657
-4.951288	C|H}_	-0.2503851
-3.970311	C|I}CH	-1.264107
-3.877308	C|I}SH	-1.673386
-2.431648	C|K}K	-1.533964
-5.194326	C|K}_	-0.3755479
-4.842144	C|Q}K	-1.259699
-5.495356	C|Y}S	-0.4020116
-3.614543	C|Z}CH	-1.141209
-4.842144	C|Z}_	-0.3795503
-4.10619	C}AE|K	-1.500973
-3.113339	C}AH	-2.152421
-3.281838	C}CH	-1.574746
-5.796386	C}JH	-0.3573169
-1.726238	C}K	-1.870993
-2.44459	C}S	-2.033482
-4.252318	C}SH	-0.9021255
-4.893296	C}T	-0.6297927
-5.796386	C}T|K	-0.3646153
-3.983473	C}T|S	-1.40577
-4.434659	C}Y	-1.410187
-4.495356	C}_	-0.4802366
-4.893296	D|-}D	-0.2909502
-3.332493	D|G}JH	-1.422595
-4.333988	D|Z}JH	-0.730705
-1.523802	D}D	-1.654733
-4.133628	D}JH	-1.021187
-4.650258	D}T	-0.3200659
-2.997736	D}_	-1.205826
-5.796386	E|(}AY	-0.3658049
-5.097416	E|-}AY	-1.136185
-2.792065	E|A}IY	-1.679029
-3.083737	E|D}T	-3.018754
-5.796386	E|E}IY1	-0.3097646
-3.64105	E|I}EY	-0.6807138
-4.592266	E|J}EY	-0.3417457
-5.796386	E|L}AH	-0.3097646
-5.796386	E|M}EH	-0.3523918
-5.097416	E|N}AH	-0.3557377
-5.194326	E|N}EH	-0.3210378
-1.70349	E|R}ER	-1.467726
-5.796386	E|U}AY	-0.3598981
-5.796386	E|U}ER	-0.3496529
-3.945128	E|U}OY	-0.5186089
-3.253561	E|W}UW	-0.5660857
-4.717205	E|Y}EH	-0.6227665
-3.553348	E|Y}EY	-0.6244148
-5.495356	E|Z}EY	-0.3061109
-3.672535	E}	-1.32627
-4.319265	E}AA	-1.077109
-5.495356	E}AE	-0.3388703
-1.994228	E}AH	-2.267255
-5.018235	E}AO	-0.6188085
-1.63248	E}EH	-2.347451
-5.097416	E}ER	-0.5618142
-2.867479	E}EY	-1.112008
-2.075235	E}IH	-2.09113
-2.13933	E}IY	-1.413522
-4.592266	E}W	-1.313626
-3.710027	E}Y	-1.925235
-5.796386	E}Y|UW	-0.3658434
-1.495487	E}_	-1.658325
-4.495356	F|-}F	-0.4101029
-5.796386	F|-}V	-0.3581583
-5.796386	F|.}F	-0.3675812
-5.796386	F|E}AH	-0.3447343
-2.815928	F|F}F	-1.159922
-5.796386	F|F}_	-0.3097646
-2.034534	F}F	-1.540969
-5.796386	F}V	-0.3581583
-5.319265	G|-}G	-0.3849266
-5.796386	G|-}NG	-0.3680841
-3.205322	G|G}G	-1.280217
-4.333988	G|G}JH	-1.070968
-5.495356	G|H}F	-0.3435884
-5.796386	G|H}OW	-0.3097646
-5.796386	G|H}P	-0.3523918
-5.796386	G|H}T	-0.3573169
-3.006806	G|H}_	-1.051248
-5.796386	G|I}IH	-0.3522693
-3.762963	G|I}JH	-1.517209
-4.183602	G|N}N	-0.6089609
-5.319265	G|N}NG	-0.3907385
-5.194326	G|T}T	-0.3153286
-3.45793	G|U}G	-1.664358
-1.896566	G}G	-1.66638
-4.717205	G}HH	-1.124536
-5.796386	G}IY|N	-0.3685628
-2.595262	G}JH	-1.998222
-4.541114	G}K	-0.5057429
-3.957537	G}ZH	-1.215868
-4.228185	H}	-0.8771524
-4.365023	H}AH	-1.12804
-4.620295	H}EY|CH	-0.3469559
-5.796386	H}F	-0.3538963
-2.04311	H}HH	-1.9989
-5.495356	H}TH	-0.4017997
-2.14443	H}_	-1.193663
-5.495356	I|-}IY	-0.3453941
-4.264907	I|G}AY	-1.864082
-4.565938	I|G}_	-1.256556
-5.796386	I|L}EY	-0.3097646
-5.796386	I|L}IH	-0.3522693
-5.796386	I|L}IY	-0.3097646
-3.117868	I|R}ER	-0.9542647
-4.893296	I|S}_	-1.148863
-5.097416	I}	-0.3998478
-4.453964	I}AE	-1.337676
-2.508361	I}AH	-1.869374
-2.081219	I}AY	-1.41034
-3.710027	I}EH	-1.295248
-5.495356	I}ER	-0.3990608
-5.319265	I}EY	-0.3442191
-1.47233	I}IH	-2.429401
-1.778227	I}IY	-1.399364
-5.796386	I}W	-0.3646153
-3.184663	I}Y	-1.75939
-3.611695	I}_	-0.6804814
-5.194326	J|O}W	-0.6503554
-4.398446	J}HH	-0.7769682
-2.642876	J}JH	-1.230216
-5.018235	J}JH|EY	-0.3351505
-3.386453	J}Y	-1.258196
-4.018235	J}ZH	-0.3479927
-4.453964	J}_	-0.3871807
-5.796386	K|-}K	-0.3673216
-5.319265	K|H}HH	-0.3856385
-5.796386	K|J}JH	-0.358543
-4.162918	K|K}K	-0.6236134
-3.672535	K|N}N	-1.214712
-5.796386	K|P}P	-0.3599166
-5.319265	K}G	-0.3975715
-1.835298	K}K	-1.459827
-4.682443	K}K|EY	-0.5186726
-5.796386	K}OW|K	-0.358543
-5.796386	K}S	-0.3573169
-5.495356	L|.}L	-0.3063234
-5.796386	L|D}D	-0.3643622
-5.495356	L|E}AH	-0.4020116
-5.796386	L|E}IY	-0.3581583
-5.194326	L|E}_	-0.3893577
-5.796386	L|F}F	-0.365598
-4.305025	L|K}K	-0.5251856
-2.140768	L|L}L	-1.598425
-5.495356	L|L}Y	-0.3476588
-4.650258	L|L}_	-0.6728828
-4.682443	L|M}M	-0.8506333
-5.495356	L|O}ER	-0.3941423
-4.277873	L|T}_	-1.573003
-5.796386	L|_}L	-0.355586
-2.702615	L}AH|L	-2.002546
-1.436816	L}L	-1.580934
-5.796386	L}L|Z	-0.3097646
-5.796386	L}M|IH	-0.3522693
-5.495356	L}P|AW	-0.4181922
-5.796386	L}T|S	-0.3667899
-5.796386	L}UH|L	-0.3686851
-5.495356	L}|EH	-0.4016772
-5.796386	M|-}M	-0.3687843
-5.796386	M|A}AE	-0.3523918
-3.837345	M|B}M	-0.7993033
-3.009635	M|M}M	-1.468842
-5.018235	M|N}M	-0.5114357
-4.650258	M|P}M	-0.6435092
-5.495356	M|P}P	-0.4100705
-5.796386	M|U}AH	-0.3656337
-1.583986	M}M	-1.531569
-5.194326	M}M|AE	-0.416464
-3.252318	M}M|AH	-2.386392
-5.796386	M}M|AY	-0.368785
-3.594989	N|-}N	-0.7218196
-5.319265	N|.}N	-0.3386298
-4.951288	N|D}D	-0.3657383
-5.796386	N|D}M	-0.3658434
-5.796386	N|E}_	-0.3097646
-5.319265	N|G}G	-0.3407237
-2.149101	N|G}NG	-1.679041
-5.319265	N|K}NG	-0.3760184
-2.644098	N|N}N	-1.520804
-5.796386	N}EH|T	-0.368785
-5.796386	N}M	-0.3599562
-1.268615	N}N	-2.097872
-2.629956	N}NG	-2.223371
-4.893296	N}_	-0.3482997
-5.796386	O|-}AW	-0.3673418
-5.796386	O|-}ER	-0.3496529
-4.565938	O|-}OW	-0.3027378
-5.495356	O|.}OW	-0.3063234
-5.018235	O|E}ER	-0.5381372
-5.796386	O|H}OW1	-0.3656602
-5.796386	O|H}UW1	-0.3097646
-3.325094	O|I}OY	-1.066276
-4.291236	O|I}W	-1.604784
-4.541114	O|J}OY	-0.5943128
-5.796386	O|L}AA	-0.355586
-5.319265	O|L}AH	-1.247248
-5.796386	O|L}AO	-0.3683913
-5.796386	O|N}AA	-0.3687836
-5.495356	O|N}AH	-0.3492734
-5.796386	O|N}W	-0.3546821
-3.076227	O|O}UH	-1.986606
-2.957537	O|O}UW	-1.199394
-2.638024	O|R}ER	-1.01241
-5.796386	O|R}EY	-0.3598981
-3.699476	O|U}AO	-1.704141
-2.85937	O|U}AW	-1.516949
-5.796386	O|U}ER	-0.3496529
-3.198691	O|U}UW	-0.6870968
-5.796386	O|U}UW1	-0.3097646
-3.082057	O|W}AW	-0.9533228
-3.020412	O|W}OW	-0.9766781
-3.248612	O|Y}OY	-0.8173831
-5.495356	O|Y}OY1	-0.2935693
-4.842144	O}	-0.4512765
-2.019685	O}AA	-2.04002
-5.319265	O}AE	-1.254783
-1.990478	O}AH	-2.131143
-2.128	O}AO	-2.1272
-4.277873	O}AW	-0.6100804
-5.194326	O}ER	-0.809921
-4.07211	O}IH	-1.293987
-1.732116	O}OW	-1.608993
-5.194326	O}OY	-0.3825312
-5.796386	O}T|AO	-0.3496529
-4.228185	O}UH	-1.158374
-3.927155	O}UW	-0.6504024
-4.893296	O}W	-0.3928378
-3.095683	O}_	-1.178501
-5.495356	P|.}P	-0.3083845
-4.097416	P|F}F	-0.5042855
-5.495356	P|F}P	-0.2820984
-3.042038	P|H}F	-1.191668
-5.018235	P|H}V	-0.5542248
-2.933064	P|P}P	-1.432835
-4.453964	P|S}S	-0.6692868
-5.796386	P|S}_	-0.3097646
-5.495356	P}F	-0.4170553
-1.818891	P}P	-1.645144
-5.495356	P}P|ER	-0.3632389
-4.565938	P}_	-0.6090276
-5.796386	Q|I}JH	-0.3685365
-5.796386	Q|U}G	-0.358543
-3.682443	Q|U}K	-1.107018
-4.416175	Q|U}W	-0.6426158
-5.796386	Q}CH	-0.3538963
-3.006806	Q}K	-1.605866
-5.796386	R|.}	-0.3687829
-5.796386	R|Z}JH	-0.3687746
-5.495356	R|Z}R	-0.3643124
-3.270047	R}ER	-0.8884196
-5.796386	R}IH	-0.3523918
-5.495356	R}IH|S	-0.3687697
-1.365538	R}R	-1.811775
-5.796386	R}Y|AH	-0.3682113
-2.658716	R}_	-1.108131
-5.018235	S|-}S	-0.5970551
-5.796386	S|-}Z	-0.3646153
-5.796386	S|.}S	-0.3097646
-5.495356	S|.}Z	-0.3061109
-2.796386	S|C}SH	-2.645862
-2.472928	S|H}SH	-1.299829
-5.319265	S|I}CH	-1.266837
-3.904292	S|I}SH	-2.238228
-3.856867	S|I}ZH	-2.352544
-5.319265	S|J}SH	-1.263176
-5.319265	S|K}S	-0.3432794
-2.534885	S|S}S	-1.470243
-4.305025	S|S}SH	-0.984115
-5.796386	S|U}ZH	-0.3581583
-3.80516	S|Z}SH	-0.9266285
-5.796386	S|_}S	-0.3599166
-5.495356	S|_}_	-0.4049939
-4.381413	S}AA	-1.028374
-5.495356	S}CH	-0.4079509
-5.796386	S}CH|UW	-0.368785
-5.796386	S}ER|N	-0.365598
-1.431273	S}S	-1.889461
-4.056024	S}SH	-1.022615
-5.495356	S}T|S	-0.3559242
-5.796386	S}UW	-0.3496529
-1.693438	S}Z	-2.11574
-4.173137	S}ZH	-0.9431842
-3.217747	S}_	-1.043384
-5.796386	S}|EH	-0.3606626
-4.398446	T|-}T	-0.4504097
-5.796386	T|E}ER	-0.3496529
-3.366634	T|H}DH	-1.268867
-2.582072	T|H}TH	-1.068015
-4.416175	T|I}CH	-1.73307
-2.90318	T|I}SH	-2.368712
-5.796386	T|I}ZH	-0.3643236
-3.685796	T|S}_	-1.774965
-2.489961	T|T}T	-1.635094
-5.194326	T|U}CH	-0.6384161
-5.796386	T|_}T	-0.3685705
-3.706481	T}AH	-2.07724
-3.486756	T}CH	-1.654958
-4.650258	T}D	-0.3912362
-3.983473	T}EY	-1.383149
-5.194326	T}S	-0.368267
-4.088816	T}SH	-1.593103
-1.428099	T}T	-1.700266
-5.319265	T}TH	-0.3821138
-5.796386	T}T|S	-0.3097646
-2.986154	T}_	-1.159732
-4.951288	U|B}AH	-0.8043618
-4.252318	U|G}F	-1.553177
-5.796386	U|H}AH1	-0.3656602
-3.957537	U|I}UW	-0.909367
-5.319265	U|L}AH	-0.3787876
-5.796386	U|L}UH	-0.355586
-5.319265	U|N}AH	-0.3929853
-5.796386	U|N}UH	-0.3667899
-2.612263	U|R}ER	-0.8692572
-5.796386	U|R}ER1	-0.3097646
-4.717205	U|X}OW	-1.385292
-5.796386	U|X}OW1	-0.3097646
-4.205322	U|Y}AY	-0.2818207
-5.319265	U|Y}OY	-0.3465827
-5.194326	U|Y}UW	-0.3029022
-4.495356	U}AA	-0.6545392
-2.064636	U}AH	-2.168549
-4.319265	U}AO	-1.34859
-3.775197	U}EH	-2.33003
-5.796386	U}ER	-0.3496529
-3.800751	U}IH	-1.584816
-5.796386	U}L	-0.3647561
-2.913862	U}UH	-1.507581
-2.301258	U}UW	-1.089862
-2.878881	U}W	-1.742034
-4.842144	U}Y	-0.5213937
-5.796386	U}Y|ER	-0.3496529
-2.791635	U}Y|UW	-0.9066622
-3.444204	U}_	-0.6019291
-5.097416	V|V}V	-0.6693046
-4.305025	V}F	-1.463726
-2.02975	V}V	-1.53844
-5.796386	V}V|ER	-0.368785
-5.495356	V}W	-0.4033042
-4.495356	W|H}HH	-1.1257
-5.796386	W|Y}OY	-0.3601035
-4.565938	W|_}UW	-0.5445885
-4.842144	W}B	-0.6051987
-5.796386	W}B|AH	-0.3687774
-5.319265	W}D|AH	-0.392262
-3.474167	W}F	-2.307889
-3.5685	W}HH|W	-1.886754
-4.682443	W}UW	-0.587205
-3.629069	W}V	-0.8204727
-2.17056	W}W	-2.205914
-3.939054	W}Y|UW	-0.6826429
-3.606055	W}_	-0.9418537
-5.194326	X|I}ZH	-0.4149094
-5.796386	X|U}ZH	-0.3687399
-5.796386	X}CH	-0.3685018
-3.945128	X}G|Z	-1.107235
-5.796386	X}G|ZH	-0.3677239
-5.796386	X}HH	-0.3606626
-4.063993	X}K	-1.603826
-2.820036	X}K|S	-1.020923
-5.319265	X}K|SH	-1.269123
-5.796386	X}S	-0.3615922
-5.097416	X}SH	-0.357553
-4.162918	X}Z	-0.5011373
-3.957537	X}_	-1.585982
-5.796386	X}|AE	-0.3687836
-5.495356	X}|EH	-0.4181916
-5.018235	Y|-}IY	-0.3057264
-5.796386	Y|L}L	-0.3643622
-5.495356	Y|N}IH	-0.3464402
-4.620295	Y|R}ER	-0.5563744
-5.796386	Y|_}IY	-0.3526036
-3.970311	Y}AH	-0.7258555
-2.798127	Y}AY	-0.9355245
-5.796386	Y}EY	-0.3097646
-2.934852	Y}IH	-1.348758
-2.202104	Y}IY	-1.629515
-5.495356	Y}W	-0.4181909
-2.925982	Y}Y	-1.595826
-5.796386	Z|(}_	-0.3658049
-5.796386	Z|-}Z	-0.368785
-5.796386	Z|A}AA	-0.3496529
-5.796386	Z|C}ZH	-0.3538963
-5.495356	Z|E}AH	-0.3941423
-5.495356	Z|E}IH	-0.3552675
-5.796386	Z|H}JH	-0.3687482
-5.796386	Z|I}SH	-0.3581583
-5.194326	Z|I}ZH	-0.4067205
-5.796386	Z|O}OW	-0.3523918
-5.796386	Z|S}SH	-0.3097646
-4.951288	Z|S}_	-0.9674233
-5.319265	Z|Y}IH	-0.366642
-5.495356	Z|Y}IY	-0.3684545
-5.495356	Z|Y}Z	-0.3577357
-3.608865	Z|Z}Z	-0.9369234
-2.967726	Z}S	-1.163228
-3.877308	Z}T	-2.285398
-4.291236	Z}T|S	-0.6527425
-5.796386	Z}T|Z	-0.3615922
-2.338656	Z}Z	-1.177736
-4.349228	Z}ZH	-1.040805
-5.796386	Z}_	-0.3538963
-5.796386	_|A}EY	-0.3097646
-5.194326	_|C}S	-0.4031921
-5.796386	_|F}F	-0.3681564
-5.796386	_|G}G	-0.3606626
-5.319265	_|P}P	-0.374439
-5.319265	_|R}R	-0.3904925
-5.796386	_|V}V	-0.368196
-1.809704	_}	-2.673704
-4.592266	_}AA	-1.55308
-5.097416	_}AA|N	-0.3545724
-5.194326	_}AA|R	-0.3421489
-5.796386	_}AE|L	-0.3687829
-3.635018	_}AH	-0.8623451
-4.951288	_}AH|L	-0.5258666
-5.319265	_}AH|N	-0.2907898
-4.796386	_}D|AH	-1.368779
-3.927155	_}EH	-1.216826
-5.796386	_}EH|L	-0.3687774
-5.796386	_}ER|Z	-0.3097646
-5.319265	_}EY|N	-1.254783
-5.097416	_}F	-0.3914546
-4.453964	_}IH	-0.3242211
-3.603262	_}IY	-0.9204313
-4.228185	_}IY|EH	-1.2637
-5.796386	_}IY|N	-0.3685628
-5.194326	_}K	-0.3882784
-5.319265	_}L	-0.3685392
-5.796386	_}L|Z	-0.3687843
-5.796386	_}M|ER	-0.3687705
-4.453964	_}N|T	-0.6190809
-5.796386	_}R|IY	-0.3097646
-5.796386	_}R|T	-0.3672226
-5.796386	_}S|AH	-0.3598981
-5.796386	_}S|IH	-0.3687843
-5.495356	_}S|T	-0.3094974
-3.976842	_}W	-1.411641
-3.289881	_}Y	-1.722489
-4.717205	_}Y|UW	-0.3535072
-3.866967	_}|EH	-1.091483

\2-grams:
-1.086904	'|S}Z (}_	0.05497003
-0.03720296	'|S}Z </s>
-1.399184	'}AH (}_	-0.5230253
-1.733794	'}AH K|N}N
-0.7880008	'}AH L|L}L	-0.4740053
-1.733794	'}AH M}M
-1.733794	'}AH N}N
-0.2609128	'}AH S}Z	-0.6331935
-1.399184	'}AH V}V	-0.4824541
-1.733794	'}AH _}L
-0.7195536	'}AY G}G
-0.384944	'}AY S}Z	0.0737505
-0.2424323	'}ER|EY S}SH
-1.966751	'}IH (}_	-0.6292989
-2.368721	'}IH D}D	-0.4170548
-1.346954	'}IH S}S	-0.7985007
-0.02953408	'}IH S}Z	-1.717945
-0.7195536	'}IH|Z (}_
-0.384944	'}IH|Z </s>
-1.418524	'}IY G}JH
-1.083914	'}IY S}S
-0.09691001	'}IY S}Z	-0.5166879
-0.2424323	'}IY|OW V}V
-1.522795	'}_ (}_	-0.267705
-0.4326186	'}_ </s>
-3.481231	'}_ A|U}AO
-2.238799	'}_ A}AA	-0.4677128
-1.983526	'}_ A}AE	-0.4086179
-3.481231	'}_ A}AH
-3.481231	'}_ A}EY
-3.481231	'}_ A}_
-1.840859	'}_ B}B	-0.3592217
-2.09267	'}_ C}K	-0.2970579
-3.481231	'}_ C}S
-1.776401	'}_ D}D	-0.4206671
-3.481231	'}_ E|R}ER
-3.481231	'}_ E}AA
-3.481231	'}_ E}AH
-2.238799	'}_ E}EH	-0.2922498
-3.146621	'}_ E}EY
-3.481231	'}_ E}IY
-3.481231	'}_ E}_
-2.572787	'}_ F}F	-0.1254468
-3.146621	'}_ G}G
-2.124855	'}_ H}HH	-0.0990034
-3.146621	'}_ H}_	-0.5230561
-3.481231	'}_ I}IH
-3.481231	'}_ I}IY
-2.393701	'}_ K}K	-0.1697454
-2.572787	'}_ L|L}L	-0.8150612
-2.572787	'}_ L}L	-0.2484533
-2.238799	'}_ M}M	-0.03592996
-2.393701	'}_ N}N	-0.309871
-2.744652	'}_ O|E}ER	-0.3110284
-2.785576	'}_ O}AO	-0.2756023
-3.146621	'}_ Q}K	0.4087433
-2.572787	'}_ R}ER	-0.7095546
-2.572787	'}_ R}R
-2.785576	'}_ S|H}SH
-0.3181536	'}_ S}S	-2.331967
-3.481231	'}_ S}SH
-2.785576	'}_ T}T	-0.2419688
-3.481231	'}_ T}_
-2.785576	'}_ V}V	-0.2321851
-3.481231	'}_ _}
-3.481231	'}_ _}|EH
-0.2424323	(}AE|M 1|)}_
-0.2424323	(}AH|L 1}Y|UW
-0.5098827	(}AH|N 1|)}Z	0.4307376
-0.5098827	(}AH|N 1|)}_
-0.2424323	(}AH|T 1|)}_
-0.2424323	(}AY|N 1|)}_
-0.2424323	(}B|AH 1|)}_
-0.2424323	(}EH|R 1|)}_
-0.02389902	(}EY 1|)}_	2.163369
-0.2424323	(}EY|SH 1|)}_
-0.08432089	(}IY 1|)}_	1.677201
-1.138272	(}IY 2|)}_	1.863885
-1.472881	(}IY 3|)}_
-0.2424323	(}R|JH 2|)}AH
-0.2424323	(}SH|AH 1|)}N
-0.2424323	(}T|S 1|)}_
-0.2424323	(}Y|UW 1|)}_
-2.957125	(}_ 1|)}Z	-0.216203
-0.03209709	(}_ 1|)}_	-0.7750964
-1.278469	(}_ 2|)}_	0.00357461
-1.768391	(}_ 3|)}_	0.005462885
-3.902918	(}_ _}AH
-0.2088527	)}B|IY </s>
-0.5434623	-|A}AA N}N
-0.5434623	-|A}AA R}R
-0.9414023	-|A}AE C}K
-0.9414023	-|A}AE L}L
-0.2457478	-|A}AE S|S}S	-0.6128305
-0.685974	-|A}AH -|B}B
-1.020584	-|A}AH -|P}P
-0.324929	-|A}AH B}B	-0.2486172
-0.2424323	-|A}EY G}JH
-1.418524	-|B}B A|Y}EY
-1.083914	-|B}B A}AE
-1.418524	-|B}B A}EH
-0.722869	-|B}B E}_	-0.266582
-1.418524	-|B}B I|R}ER
-1.418524	-|B}B I}IH
-1.418524	-|B}B L}L
-1.418524	-|B}B O|O}UH
-1.418524	-|B}B O|Y}OY
-1.418524	-|B}B R}R
-1.418524	-|B}B U}AH
-1.418524	-|B}B Y}AY
-0.2088527	-|C}CH H}_
-1.543462	-|C}K A}AE
-0.8478078	-|C}K A}AH	-0.68814
-1.543462	-|C}K H}_
-1.208853	-|C}K L}L
-1.208853	-|C}K O}AH	-0.1424781
-1.543462	-|C}K O}AO
-0.5976691	-|C}K O}OW	-0.3658722
-0.8478078	-|C}K R}R	-0.268866
-1.543462	-|C}K U}UW
-1.38856	-|D}D A|I}EY
-1.38856	-|D}D A|U}AO
-0.6519815	-|D}D A|Y}EY	-0.4914138
-1.053951	-|D}D A}AE	-0.5045571
-1.053951	-|D}D A}EY	-0.3702058
-1.38856	-|D}D E}_
-1.38856	-|D}D O}UW
-1.38856	-|D}D R}R
-1.38856	-|D}D U}UW
-0.2424323	-|E}AA N|-}N
-0.9414023	-|E}EH D|G}JH
-0.9414023	-|E}EH D}JH
-0.6067927	-|E}EH N}N	-0.4849322
-0.9414023	-|E}EH S}S
-0.5434623	-|E}IH N}NG
-0.5434623	-|E}IH S}S
-0.2424323	-|E}T Y}AY
-0.2424323	-|E}UH A}_
-1.521186	-|F}F A}AA
-1.521186	-|F}F A}EH
-1.186576	-|F}F A}EY	-0.5090635
-1.521186	-|F}F E|A}IY
-0.8255314	-|F}F E}EH	-0.2557987
-1.186576	-|F}F E}EY
-1.521186	-|F}F I|R}ER
-0.784607	-|F}F I}AY	-0.3835945
-1.521186	-|F}F I}IH
-1.186576	-|F}F O}AO	-0.1091835
-1.521186	-|F}F R}R
-1.196675	-|G}G A}AE
-0.8620653	-|G}G I|R}ER	-0.4943215
-0.2508816	-|G}G R}R	-0.09189822
-0.2424323	-|G}JH E}EH
-1.497705	-|H}HH A}AA
-1.163095	-|H}HH E}EH	-0.5134439
-0.5892611	-|H}HH E}_	-0.3850904
-1.497705	-|H}HH I}IH
-1.497705	-|H}HH O}AA
-1.163095	-|H}HH O}AO
-1.163095	-|H}HH O}OW
-1.163095	-|H}HH U}AH	-0.5224566
-1.497705	-|H}HH U}W
-1.497705	-|H}HH U}Y|UW
-0.2424323	-|H}SH S}_
-1.145522	-|I}IH M}M
-0.4089434	-|I}IH N|-}N	-0.6044726
-0.8109127	-|I}IH N}N	-0.5202982
-1.145522	-|I}IH T}T
-0.9414023	-|J}JH E|A}IY
-0.9414023	-|J}JH E}EH
-0.9414023	-|J}JH O|O}UW
-0.9414023	-|J}JH O}AA
-0.9414023	-|J}JH O}OW
-1.020584	-|K}K A}AE
-0.685974	-|K}K N}N	-0.5185686
-1.020584	-|K}K O}AO
-1.020584	-|K}K O}OW
-1.020584	-|K}K W}W
-0.7529208	-|L}L A|-}AA	-0.362912
-1.08753	-|L}L A|W}AO
-1.08753	-|L}L A}AE
-1.08753	-|L}L E}_
-1.08753	-|L}L I}IH
-1.08753	-|L}L O}AO
-1.446552	-|M}M A}AA
-1.111943	-|M}M A}AE	-0.4088916
-1.446552	-|M}M A}EH
-1.446552	-|M}M A}EY
-1.446552	-|M}M E}AH
-0.7099734	-|M}M E}EH	-0.4763059
-0.7508978	-|M}M I}IH
-1.446552	-|M}M O|U}AW
-1.111943	-|M}M O}OW	-0.5116588
-0.5434623	-|N}N I}AY
-0.5434623	-|N}N I}IY
-0.2424323	-|O}AA N}N
-0.2457478	-|O}AO F|F}F	-0.6680297
-0.9414023	-|O}AO L}L
-0.9414023	-|O}AO P}P
-0.7195536	-|O}OW B}B
-0.384944	-|O}OW V}V	-0.4637575
-1.021766	-|P}P A}AA
-1.021766	-|P}P A}AE
-1.356376	-|P}P A}EY
-1.356376	-|P}P E|I}EY
-1.356376	-|P}P E}_
-0.6607211	-|P}P O}AA
-1.356376	-|P}P O}AH
-1.021766	-|P}P R}R
-0.7195536	-|Q}K A}AY
-0.7195536	-|Q}K U}W
-0.7195536	-|Q}K U}_
-0.2424323	-|R}AE A}_
-0.2424323	-|R}ER O}OW
-0.7195536	-|R}R A|Y}EY
-0.7195536	-|R}R A}AE
-0.7195536	-|R}R E}IY
-1.38856	-|S}S A}AE
-0.6519815	-|S}S C}K	-0.344199
-1.38856	-|S}S E}EH
-1.053951	-|S}S F}F	-0.5003536
-1.38856	-|S}S I|G}AY
-0.6519815	-|S}S P}P	-0.4332896
-1.38856	-|S}S U}UW
-0.02389902	-|S}SH H}_	-0.6840772
-0.2424323	-|T}DH H}_
-1.242432	-|T}T A|I}EY
-0.9078227	-|T}T A}AA	-0.51652
-1.242432	-|T}T A}AE
-1.242432	-|T}T E}EH
-1.242432	-|T}T I}AY
-1.242432	-|T}T O|W}AW
-1.242432	-|T}T O}OW
-0.9078227	-|T}T U|R}ER	-0.4690715
-0.1079134	-|U}AH P}P	-0.1741372
-0.2424323	-|V}V I}Y
-0.7195536	-|W}W A|Y}EY
-0.7195536	-|W}W E}EH
-0.7195536	-|W}W I}AY
-1.196675	-|Y}Y E|A}IY
-0.2882311	-|Y}Y E}_	-0.9086472
-0.8620653	-|Y}Y O}AO	-0.1091835
-1.196675	-|Y}Y U}UW
-1.145522	-}AH D}D
-0.8109127	-}AH E}_
-0.8109127	-}AH N|-}N
-1.145522	-}AH N}N
-1.145522	-}AH R}R
-1.145522	-}AH U}AH
-1.08753	-}EY D}D
-0.7529208	-}EY E}_
-1.08753	-}EY L}L
-1.08753	-}EY M}M
-1.08753	-}EY P}P
-1.08753	-}EY Y}Y
-0.2424323	-}EY|T 8|0}IY
-0.2424323	-}F 4}AO|R
-1.60416	-}IY B}B
-1.269551	-}IY C}K	-0.4864582
-1.60416	-}IY D}D
-1.60416	-}IY E}EH
-1.60416	-}IY E}IH
-1.60416	-}IY E}_
-1.60416	-}IY H}_
-1.60416	-}IY J}JH
-1.269551	-}IY J}JH|EY
-1.60416	-}IY K}K
-1.60416	-}IY L}L
-0.8675812	-}IY M}M	-0.3919882
-1.60416	-}IY P}P
-0.9085056	-}IY S}S
-1.60416	-}IY W}W
-1.60416	-}IY Y}Y
-0.2424323	-}L O|U}AW
-0.2424323	-}S|IH 6}K|S
-1.145522	-}TH 3}R|IY
-1.145522	-}TH A}AE
-1.145522	-}TH K|N}N
-0.2370786	-}TH T}_	-0.9034682
-0.7195536	-}W 1}AH|N
-0.7195536	-}W 1}AO|N
-0.7195536	-}W O}AH
-0.02389902	.|'}EY S}Z	-0.09266829
-0.2424323	.|(}CH 1|)}_
-0.2424323	.|S}Z </s>
-0.2424323	.}AH|B (}AE|M
-0.2424323	.}AH|K (}AH|T
-0.5098827	.}AY '|S}Z	0.5621705
-0.8444923	.}AY </s>
-0.8444923	.}AY S}Z
-0.5434623	.}D|AA C}T|K
-0.5434623	.}D|AA O}T|AO
-0.5434623	.}ER|EY '}_
-0.5434623	.}ER|EY (}SH|AH
-0.02389902	.}IH '|S}Z	0.3957517
-0.2424323	.}IH|Z </s>
-0.1091445	.}IY '|S}Z	0.1538575
-1.196675	.}IY D}D
-1.196675	.}IY S}Z
-0.7195536	.}K|S (}_
-0.7195536	.}K|S </s>
-0.7195536	.}K|S E|R}ER
-0.2424323	.}P (}AH|N
-0.2424323	.}S|AH (}T|S
-0.2424323	.}T|ER </s>
-0.6067927	.}Y|UW '|S}Z	0.5621705
-0.9414023	.}Y|UW (}EH|R
-0.6067927	.}Y|UW S}Z	0.0737505
-0.2424323	0|0}UW T}T
-0.2424323	1|)}N </s>
-0.05115252	1|)}Z </s>
-0.0006092512	1|)}_ </s>
-3.873876	1|)}_ _}AH
-3.873876	1|)}_ _}AH|N
-3.873876	1|)}_ _}ER|Z
-3.539267	1|)}_ _}IY	-0.4131657
-3.873876	1|)}_ _}Y|UW
-0.8444923	1}AH|N 2}T|UW
-0.1488378	1}AH|N </s>
-0.2424323	1}AO|N </s>
-0.2424323	1}Y|UW )}B|IY
-0.2424323	2|)}AH </s>
-0.001783553	2|)}_ </s>
-1.020584	2}T|UW 8}EY|T
-0.2840047	2}T|UW </s>
-1.020584	2}T|UW _}W
-0.2424323	2}UW|S 7}EH|V
-0.2424323	2}Y|UW )}B|IY
-0.005462896	3|)}_ </s>
-0.2424323	3}R|IY </s>
-0.8444923	3}TH|R -}IY
-0.1488378	3}TH|R _}IY	-0.1628968
-0.7195536	4}AO|R 2}T|UW
-0.384944	4}AO|R </s>
-0.2088527	5}AY|V </s>
-0.5434623	6}K|S 2}T|UW
-0.5434623	6}K|S </s>
-0.2424323	7}EH|V _}AH|N
-0.2424323	8|0}IY </s>
-0.2088527	8}EY|T </s>
-0.2424323	9}N|AY _}N|T
-3.85904	<s> '}_	-0.1234298
-4.808255	<s> 3}TH|R
-5.142865	<s> A|U}AW
-4.197072	<s> A|Y}	-0.02903742
-2.514826	<s> A}	0.07907867
-5.142865	<s> A}T|R
-1.110288	<s> B}B	-1.231544
-2.071129	<s> C|H}CH	-0.9399937
-4.808255	<s> C|H}HH
-2.965934	<s> C|H}SH	-0.2731224
-3.538705	<s> C|I}CH	-0.3376928
-3.538705	<s> C|Z}CH	-0.3731284
-2.986619	<s> C}CH	-0.445996
-1.227227	<s> C}K	-1.567361
-2.274092	<s> C}S	-0.7069685
-5.142865	<s> C}SH
-5.142865	<s> C}T
-4.44721	<s> C}_	-0.2455209
-4.055335	<s> D|Z}JH	-0.2322259
-1.250806	<s> D}D	-1.882384
-4.808255	<s> D}JH
-4.406286	<s> D}_	-0.6071022
-5.142865	<s> E|E}IY1
-2.776581	<s> E}	-0.007988453
-3.002805	<s> E}Y	-0.6618279
-3.25698	<s> E}_	-1.433744
-1.438934	<s> F}F	-1.177112
-3.108041	<s> G|I}JH	-0.4606517
-3.754305	<s> G|N}N	-0.247424
-2.843528	<s> G|U}G	-1.169805
-1.413577	<s> G}G	-1.383893
-4.808255	<s> G}HH
-2.362614	<s> G}JH	-0.7426972
-5.142865	<s> G}K
-3.453275	<s> G}ZH	0.02041364
-3.368954	<s> H}	-0.1232224
-1.297613	<s> H}HH	-0.3309864
-3.320649	<s> H}_	-0.9569414
-4.234421	<s> I}	-0.06054053
-4.44721	<s> I}Y
-4.406286	<s> J|O}W	0.0277704
-3.821251	<s> J}HH	-0.1812865
-1.906556	<s> J}JH	-0.2772725
-4.808255	<s> J}JH|EY	-0.4232843
-2.783161	<s> J}Y	-0.1964493
-3.409071	<s> J}ZH	-0.23171
-5.142865	<s> J}_
-4.44721	<s> K|H}HH	-0.042502
-5.142865	<s> K|J}JH
-2.807011	<s> K|N}N	0.07013047
-4.44721	<s> K}G	-0.042502
-1.433269	<s> K}K	-1.415495
-3.997343	<s> K}K|EY	-0.04019792
-3.669984	<s> L|L}L	-0.444691
-1.356613	<s> L}L	-1.733129
-4.808255	<s> L}P|AW	-0.1053113
-4.808255	<s> L}|EH	-0.1053113
-5.142865	<s> M|M}M
-1.137454	<s> M}M	-1.601243
-4.406286	<s> M}M|AE	-0.1053114
-2.356365	<s> M}M|AH	0
-5.142865	<s> M}M|AY
-4.808255	<s> N|G}G
-1.606187	<s> N}N	-1.692186
-5.142865	<s> O|H}OW1
-5.142865	<s> O|N}W
-5.142865	<s> O|U}UW1
-4.808255	<s> O|Y}OY1
-3.997343	<s> O}	-0.02466303
-4.197072	<s> O}_	-0.2933177
-3.368954	<s> P|F}F	-0.2262334
-2.659883	<s> P|H}F	-0.5803783
-3.64516	<s> P|S}S	-0.1428878
-1.275635	<s> P}P	-1.458793
-4.197072	<s> P}_	-0.3401067
-5.142865	<s> Q|I}JH
-3.94619	<s> Q|U}K	-0.1348324
-5.142865	<s> Q}CH
-2.500759	<s> Q}K	-0.2654749
-5.142865	<s> R|.}
-1.265855	<s> R}R	-1.831282
-2.067924	<s> S|C}SH	-1.125125
-1.963919	<s> S|H}SH	-0.9993085
-4.44721	<s> S|J}SH	0.5813752
-5.142865	<s> S|S}S
-3.395283	<s> S|Z}SH	-0.2059526
-1.078003	<s> S}S	-1.634994
-3.538705	<s> S}SH	-0.4451487
-3.287649	<s> S}_	-1.23315
-5.142865	<s> S}|EH
-3.621679	<s> T|H}DH	-0.1631861
-2.389888	<s> T|H}TH	-1.161791
-4.055335	<s> T|S}_	-0.6205688
-4.44721	<s> T}CH	-0.2705957
-5.142865	<s> T}D
-1.456544	<s> T}T	-1.300243
-3.55801	<s> T}_	-0.637488
-5.142865	<s> U|H}AH1
-5.142865	<s> U|R}ER1
-4.44721	<s> U}W	-0.6248983
-5.142865	<s> U}Y
-5.142865	<s> U}Y|ER
-2.693607	<s> U}Y|UW	-0.7449
-1.743581	<s> V}V	-0.5248203
-5.142865	<s> V}V|ER
-3.599403	<s> W|H}HH	0.05804992
-2.688245	<s> W}HH|W	-0.1450696
-3.055335	<s> W}V	-0.1138616
-1.52149	<s> W}W	-0.2663047
-3.115103	<s> W}_	-1.318063
-4.406286	<s> X|I}ZH	-0.1053114
-5.142865	<s> X|U}ZH
-4.44721	<s> X}SH
-3.332231	<s> X}Z	-0.07270104
-5.142865	<s> X}|AE
-4.808255	<s> X}|EH	-0.1053113
-4.808255	<s> Y}W	-0.1053113
-2.219192	<s> Y}Y	0.06061125
-5.142865	<s> Z|H}JH
-4.808255	<s> Z|I}ZH	-0.362912
-5.142865	<s> Z|Y}Z
-2.079575	<s> Z}Z	-0.6820801
-3.724341	<s> Z}ZH	-0.598586
-0.9137953	<s> _}	0.01243258
-4.055335	<s> _}D|AH	0.3026506
-5.142865	<s> _}L
-4.055335	<s> _}W	-0.6336803
-3.578213	<s> _}Y	-1.341385
-2.976153	<s> _}|EH	0.004230082
-0.8444923	A|-}AA C|H}CH
-0.5098827	A|-}AA C|H}SH	-0.4804315
-0.8444923	A|-}AA Z}ZH
-0.1079134	A|C}AA Q|U}K	-0.1256802
-1.020584	A|C}AE C}S
-0.1121398	A|C}AE Q|U}K	-0.1427329
-2.117338	A|I}EH G}G	-0.5109641
-1.756293	A|I}EH L|L}L
-2.451947	A|I}EH M}M
-2.117338	A|I}EH N}N
-0.0392533	A|I}EH R}R	-0.7264332
-2.451947	A|I}EH R}_
-2.451947	A|I}EH S|S}S
-2.451947	A|I}EH S}S
-2.117338	A|I}EH S}Z
-2.451947	A|I}EH S}_
-3.199081	A|I}EY '|S}Z
-2.503426	A|I}EY (}_	0.4573447
-1.956649	A|I}EY </s>
-3.199081	A|I}EY A}AH
-1.810521	A|I}EY B}B	-0.2937187
-2.503426	A|I}EY C|H}CH	-0.2570466
-2.462502	A|I}EY C}K	-0.6097775
-3.199081	A|I}EY C}S
-1.216286	A|I}EY D}D	-0.367489
-2.503426	A|I}EY E|R}ER	-0.05667329
-3.199081	A|I}EY E}_
-3.199081	A|I}EY F|F}F
-2.290637	A|I}EY F}F
-2.002406	A|I}EY G|H}_	-0.6805357
-1.780557	A|I}EY G}G	-0.2415402
-2.864471	A|I}EY G}JH	-0.435321
-3.199081	A|I}EY G}K
-3.199081	A|I}EY H}HH
-1.701376	A|I}EY K}K	-0.2057184
-1.877467	A|I}EY L|L}L	-0.1905972
-0.7365405	A|I}EY L}L	-0.7352736
-1.32318	A|I}EY M}M	-0.4085222
-2.864471	A|I}EY N|G}NG
-0.4138232	A|I}EY N}N	-0.7367926
-3.199081	A|I}EY N}NG
-2.864471	A|I}EY P}P	-0.5137919
-1.956649	A|I}EY R}R	-0.2742792
-2.462502	A|I}EY S|H}SH
-2.462502	A|I}EY S|S}S
-1.7262	A|I}EY S}S	-0.1366057
-1.333399	A|I}EY S}Z	0.3596716
-3.199081	A|I}EY S}ZH
-1.541675	A|I}EY S}_	-1.354848
-2.053559	A|I}EY T|H}TH	-0.03582437
-2.503426	A|I}EY T|I}SH	-0.2704218
-2.864471	A|I}EY T|T}T
-1.313196	A|I}EY T}T	-0.2519431
-2.503426	A|I}EY T}_
-2.462502	A|I}EY V}V	-0.1461802
-2.864471	A|I}EY W}W	-0.5141538
-3.199081	A|I}EY X}K|S
-3.199081	A|I}EY Y}Y
-3.199081	A|I}EY Z|Z}Z
-2.053559	A|I}EY Z}Z	-0.09217146
-3.199081	A|I}EY Z}ZH
-1.426337	A|J}AY '|S}Z
-1.760946	A|J}AY (}_
-1.065292	A|J}AY </s>
-1.065292	A|J}AY A}AH	-0.1289816
-1.426337	A|J}AY C|Z}CH
-1.024367	A|J}AY D}D	-0.3801236
-0.6734159	A|J}AY E}EH	-0.4088222
-1.760946	A|J}AY E}IY
-1.760946	A|J}AY I}IH
-1.426337	A|J}AY I}IY	-0.4772242
-0.8525025	A|J}AY K}K	-0.5866324
-1.760946	A|J}AY N}N
-1.760946	A|J}AY O}AO
-0.2424323	A|K}AE G}G
-1.640372	A|L}AA G}G
-0.05551733	A|L}AA M}M	-0.454415
-1.305763	A|L}AA V}V	-0.4824541
-1.584855	A|L}AE F|-}F
-0.1119738	A|L}AE F}F	-0.1030198
-1.250245	A|L}AE M}M
-1.250245	A|L}AE V}V
-0.00796893	A|L}AO K}K	-0.2673861
-1.982795	A|L}AO M}M
-0.199729	A|N}AE D}D	-0.2934377
-0.8109127	A|N}AE T}T
-1.640216	A|O}AW '|S}Z	0.5621705
-1.279171	A|O}AW (}_	0.4573447
-0.2410321	A|O}AW </s>
-1.640216	A|O}AW B}B
-1.974826	A|O}AW H}HH
-1.279171	A|O}AW I}IH	-0.2334979
-1.029033	A|O}AW L}L	-0.2457004
-1.974826	A|O}AW P}P
-1.640216	A|O}AW R}R	-0.5008622
-1.974826	A|O}AW S}S
-1.974826	A|O}AW T}T
-1.974826	A|O}AW U}Y|UW
-1.800201	A|R}ER '|S}Z	-0.1447735
-2.300961	A|R}ER (}_	0.8371941
-3.246754	A|R}ER -|R}AE
-3.246754	A|R}ER -|R}R
-0.7301635	A|R}ER </s>
-2.912144	A|R}ER A|I}EY
-3.246754	A|R}ER A|U}AO
-3.246754	A|R}ER A|Y}EY
-1.606381	A|R}ER A}AA	0.02112293
-1.43612	A|R}ER A}AE	-0.386887
-1.773872	A|R}ER A}AH	-0.1029596
-1.82823	A|R}ER A}EY	-0.04253638
-3.246754	A|R}ER B}B
-2.004321	A|R}ER C|H}CH	-0.1546382
-2.33831	A|R}ER C|Z}CH	-0.7979537
-2.912144	A|R}ER C}CH	-0.4773045
-2.912144	A|R}ER C}K
-3.246754	A|R}ER C}S
-0.6029208	A|R}ER D}D	-1.073665
-2.912144	A|R}ER D}_	-0.4024613
-2.912144	A|R}ER E|A}IY	-0.4824991
-3.246754	A|R}ER E|M}EH
-2.551099	A|R}ER E}AH	-0.04764991
-1.606381	A|R}ER E}EH	-0.4822519
-3.246754	A|R}ER E}EY
-2.300961	A|R}ER E}IH	-0.4038734
-2.33831	A|R}ER E}IY
-1.703291	A|R}ER E}_	-0.3239477
-2.912144	A|R}ER F}F
-3.246754	A|R}ER G}G
-3.246754	A|R}ER H}HH
-2.551099	A|R}ER I}AH
-1.661899	A|R}ER I}AY	-0.7574665
-1.424538	A|R}ER I}IH	-0.2559083
-1.43612	A|R}ER I}IY	-0.7937359
-2.510175	A|R}ER K}K
-1.725568	A|R}ER L}L	-0.2903434
-2.912144	A|R}ER M}M
-1.606381	A|R}ER N}N	-0.3916535
-2.551099	A|R}ER O|I}OY	-0.6483843
-2.510175	A|R}ER O|O}UW	-0.1042568
-2.912144	A|R}ER O|U}AW	-0.387206
-2.912144	A|R}ER O|U}UW
-3.246754	A|R}ER O|W}AW
-3.246754	A|R}ER O|W}OW
-1.858193	A|R}ER O}AA	-0.1860454
-2.912144	A|R}ER O}AH
-2.912144	A|R}ER O}AO
-1.589348	A|R}ER O}OW	-0.5156803
-3.246754	A|R}ER P}P
-1.51296	A|R}ER R}_	-0.3367771
-3.246754	A|R}ER S|H}SH
-3.246754	A|R}ER S|S}S
-3.246754	A|R}ER S|Z}SH
-2.050079	A|R}ER S}S	-0.1354345
-1.360869	A|R}ER S}Z	-0.565482
-2.551099	A|R}ER T|H}TH	-0.1551367
-1.51296	A|R}ER T}T	-0.4008606
-2.551099	A|R}ER U}AH	-0.2186366
-2.101231	A|R}ER U}UW
-2.912144	A|R}ER W}V
-3.246754	A|R}ER Y|L}L
-2.912144	A|R}ER Y}IH	-0.5207275
-2.101231	A|R}ER Y}IY	0.1066774
-2.33831	A|R}ER Z}Z	-0.2364542
-3.140609	A|U}AO </s>
-1.555754	A|U}AO B}B	-0.4400014
-3.140609	A|U}AO C|C}CH
-1.818995	A|U}AO C|H}CH	-1.202177
-2.444954	A|U}AO C|K}K	-0.5185881
-2.805999	A|U}AO C}CH
-1.898176	A|U}AO C}K	-0.2468068
-2.053078	A|U}AO C}S	-0.2925539
-1.053078	A|U}AO D}D	-0.2863483
-3.140609	A|U}AO D}_
-3.140609	A|U}AO E}_
-2.232165	A|U}AO F|F}F	-0.1443285
-1.752048	A|U}AO F}F	-0.5285513
-3.140609	A|U}AO G|G}G
-3.140609	A|U}AO G|H}F
-0.7520484	A|U}AO G|H}_	-0.2825474
-1.483203	A|U}AO G}G	-0.3130996
-2.232165	A|U}AO G}JH	-0.4494572
-3.140609	A|U}AO G}K
-3.140609	A|U}AO H}_
-1.943934	A|U}AO K}K	-0.2723445
-2.232165	A|U}AO L|K}K	-0.1250948
-1.995087	A|U}AO L|L}L	-0.4026498
-0.8647527	A|U}AO L}L	-0.5246215
-1.784233	A|U}AO M}M	-0.4467298
-2.805999	A|U}AO N|G}NG	-0.02420515
-1.072102	A|U}AO N}N	-0.7533159
-3.140609	A|U}AO N}NG
-3.140609	A|U}AO P|H}F
-2.805999	A|U}AO P|P}P
-2.053078	A|U}AO P}P	-0.2367097
-2.805999	A|U}AO Q}K	0.4087433
-1.065668	A|U}AO R}R	-0.4007114
-3.140609	A|U}AO R}_
-3.140609	A|U}AO S|C}SH
-1.995087	A|U}AO S|S}S	-0.268146
-1.307112	A|U}AO S}S	-0.4770344
-1.393026	A|U}AO S}Z	0.1907191
-1.517965	A|U}AO T|H}TH	-0.6370841
-2.444954	A|U}AO T|I}SH	0.2394952
-3.140609	A|U}AO T|T}T
-1.134748	A|U}AO T}T	-0.359613
-2.444954	A|U}AO V}V
-2.444954	A|U}AO X}K|S
-3.140609	A|U}AO Z}Z
-2.605923	A|U}AW (}_	0.6237634
-1.129899	A|U}AW </s>
-2.940533	A|U}AW A}_
-1.166622	A|U}AW B}B	-0.4242336
-2.244878	A|U}AW C|H}CH
-2.940533	A|U}AW C|H}HH
-2.940533	A|U}AW C}CH
-1.698101	A|U}AW C}K	-0.9910662
-2.940533	A|U}AW C}S
-1.522009	A|U}AW D}D	-0.3431768
-2.940533	A|U}AW D}_
-0.9422257	A|U}AW E|R}ER	-0.5699461
-1.853003	A|U}AW E}AH	-0.3615299
-2.605923	A|U}AW E}IY	-0.4383908
-1.551973	A|U}AW E}_	-0.7940899
-2.940533	A|U}AW F|F}F
-1.853003	A|U}AW F}F	-0.08160288
-1.618919	A|U}AW G|H}_	-0.9658368
-1.618919	A|U}AW G}G	-0.3150083
-2.605923	A|U}AW H}_
-2.940533	A|U}AW I|R}ER
-2.940533	A|U}AW I}IH
-2.940533	A|U}AW J}Y
-2.244878	A|U}AW K}K
-2.940533	A|U}AW L|D}D
-1.522009	A|U}AW L}L	-0.2051793
-0.8720257	A|U}AW M}M	-0.7643206
-2.032089	A|U}AW N}N	-0.0312578
-2.940533	A|U}AW N}NG
-2.940533	A|U}AW P|P}P
-1.853003	A|U}AW P}P	-0.7242711
-2.605923	A|U}AW R}ER
-1.698101	A|U}AW R}R	-0.4517031
-1.618919	A|U}AW S|C}SH	0.7721133
-2.605923	A|U}AW S|H}SH
-1.551973	A|U}AW S|S}S	-0.2519395
-2.940533	A|U}AW S|Z}SH
-2.605923	A|U}AW S}CH	-0.1053113
-0.8655916	A|U}AW S}S	-0.253347
-1.336373	A|U}AW S}Z	-0.5153756
-2.605923	A|U}AW T|H}TH
-2.940533	A|U}AW T|S}_
-1.317889	A|U}AW T}T	-0.345742
-2.940533	A|U}AW T}_
-2.203954	A|U}AW V}V	-0.3347781
-2.605923	A|U}AW W}W	-0.5224758
-2.940533	A|U}AW W}_
-2.940533	A|U}AW Y}Y
-1.99474	A|U}AW Z}Z	-0.0881421
-1.997215	A|U}OW '|S}Z	0.455897
-2.399184	A|U}OW (}_	0.6237634
-2.733794	A|U}OW -|C}K
-2.733794	A|U}OW -|P}P
-0.3909912	A|U}OW </s>
-2.038139	A|U}OW B}B
-1.788001	A|U}OW C|H}SH
-1.788001	A|U}OW C}K
-1.169142	A|U}OW D}D	-0.3754757
-1.491362	A|U}OW D}_	-1.20998
-2.733794	A|U}OW E}_
-1.997215	A|U}OW F|F}F	-0.3590436
-1.82535	A|U}OW F}F
-2.733794	A|U}OW G|U}G
-2.733794	A|U}OW I}IH
-2.733794	A|U}OW J}JH
-2.399184	A|U}OW J}ZH	-0.5144618
-0.9728478	A|U}OW L|T}_	-0.1053113
-1.646264	A|U}OW L}L	-0.1651565
-1.788001	A|U}OW M}M	-0.1053719
-2.733794	A|U}OW P|H}F
-2.399184	A|U}OW P}P
-2.733794	A|U}OW R}R
-2.399184	A|U}OW S}S
-2.733794	A|U}OW T|H}TH
-1.449969	A|U}OW T}T	-0.2569522
-2.399184	A|U}OW T}_
-1.588272	A|U}OW V}V	-0.08339185
-2.733794	A|U}OW X}Z
-0.9002971	A|U}OW X}_	-0.5413622
-2.733794	A|U}OW _|P}P
-0.0747903	A|U}_ R}R	-0.5620011
-1.991575	A|W}AO '|S}Z	0.455897
-2.393544	A|W}AO (}_	0.6237634
-0.6933298	A|W}AO </s>
-2.393544	A|W}AO A}AH	-0.4860765
-1.640623	A|W}AO B}B
-2.393544	A|W}AO C|H}CH	-0.5150595
-2.728154	A|W}AO C}K
-2.728154	A|W}AO C}S
-1.485721	A|W}AO D}D	-0.1788243
-2.393544	A|W}AO E|R}ER	-0.3069423
-2.393544	A|W}AO E}AH
-1.255273	A|W}AO E}_	-0.5024002
-2.032499	A|W}AO F}F	-0.6749387
-2.728154	A|W}AO G}G
-2.393544	A|W}AO H}HH
-2.728154	A|W}AO I}AH
-1.444329	A|W}AO I}IH	-0.9890093
-2.728154	A|W}AO I}IY
-1.0086	A|W}AO K}K	-0.3236139
-0.8946568	A|W}AO L}L	-0.8962528
-1.582631	A|W}AO M}M	-0.1716419
-1.023323	A|W}AO N}N	-0.4454992
-2.728154	A|W}AO P}P
-2.728154	A|W}AO R}ER
-1.531479	A|W}AO R}R	-0.2833739
-2.032499	A|W}AO S|H}SH
-1.40654	A|W}AO S}S	-0.4160619
-1.206968	A|W}AO S}Z	-0.3804681
-2.728154	A|W}AO T|H}DH
-1.78236	A|W}AO T|H}TH	-0.2019137
-1.582631	A|W}AO T}T	-0.2727316
-2.393544	A|W}AO V}V	-0.4637575
-2.728154	A|W}AO Y}IY
-1.78236	A|W}AO Y}Y	-1.162173
-1.020584	A|W}AW (}_
-1.020584	A|W}AW H}HH
-1.020584	A|W}AW I}IH
-1.020584	A|W}AW I}IY
-1.020584	A|W}AW N}N
-1.020584	A|W}AW S}S
-0.685974	A|Y} E}EH	-0.5009229
-0.2840047	A|Y} Y}AY	-0.5142503
-0.0329586	A|Y}EH R}R	-0.8880346
-1.340444	A|Y}EY '|S}Z	2.021896
-3.184937	A|Y}EY '}_
-1.942504	A|Y}EY (}_	0.1472684
-3.184937	A|Y}EY -|B}B
-0.5641062	A|Y}EY </s>
-2.489282	A|Y}EY A|R}ER
-1.828561	A|Y}EY A}AH	-0.145411
-3.184937	A|Y}EY A}AO
-3.184937	A|Y}EY A}IH
-1.411025	A|Y}EY B}B	-0.2094831
-3.184937	A|Y}EY C|H}CH
-1.942504	A|Y}EY C}K	-0.2113184
-2.489282	A|Y}EY C}S	-0.6083403
-1.465383	A|Y}EY D}D	-0.389228
-3.184937	A|Y}EY D}_
-1.299051	A|Y}EY E|R}ER	-0.6470794
-2.448358	A|Y}EY E}AH
-2.097406	A|Y}EY E}EH	-0.4189892
-3.184937	A|Y}EY E}EY
-1.234934	A|Y}EY E}_	-0.5688229
-1.988262	A|Y}EY F}F	-0.408989
-2.276493	A|Y}EY G}G	-0.07012665
-1.988262	A|Y}EY H}HH	-0.1086198
-2.489282	A|Y}EY H}_
-1.562293	A|Y}EY I}IH	-1.417091
-2.850327	A|Y}EY K}K
-1.252308	A|Y}EY L}L	-0.4142704
-1.374302	A|Y}EY M}M	-0.348433
-1.252308	A|Y}EY N}N	-0.5014184
-2.850327	A|Y}EY O|R}ER
-2.850327	A|Y}EY O|U}AW
-3.184937	A|Y}EY O}AA
-2.489282	A|Y}EY O}AH	0.1077909
-2.039414	A|Y}EY O}AO	0.06708363
-2.039414	A|Y}EY O}OW	-0.2333991
-2.276493	A|Y}EY P}P	-0.1405248
-2.489282	A|Y}EY R}ER	-0.2716349
-2.239143	A|Y}EY R}R
-2.448358	A|Y}EY S|I}ZH	-0.4611112
-1.863323	A|Y}EY S}S	-0.04561359
-0.9787163	A|Y}EY S}Z	-0.4541892
-2.489282	A|Y}EY T|H}TH	-0.2589513
-1.527531	A|Y}EY T}T	-0.4101143
-2.489282	A|Y}EY U}AH
-2.850327	A|Y}EY V}V
-1.988262	A|Y}EY W}W	-0.1386393
-2.489282	A|Y}EY W}_	-0.2155954
-2.850327	A|Y}EY Z}Z	-0.4790742
-2.670567	A} .|'}EY
-1.314191	A} A}AA	-0.1544058
-1.762123	A} A}EH	-0.5723588
-1.030195	A} C}AH	-1.076319
-2.670567	A} E}AH
-0.8840668	A} E}EH	-1.126925
-2.335958	A} E}IY	-0.5091115
-1.197686	A} I}AY	-0.1591194
-0.6219548	A} I}EH	-1.426229
-1.583037	A} O}AW	-0.08039213
-0.6957411	A} R}ER	-0.479022
-1.282007	A} R}_	-1.17036
-1.282007	A} U}AA	-0.1625095
-1.724774	A} U}AH	-0.6799846
-1.428135	A} Y}AY	-0.03483385
-2.83586	A}AA '|S}Z	-0.1184446
-3.517804	A}AA '}_
-2.970558	A}AA (}_	0.06808722
-1.751879	A}AA </s>
-4.254383	A}AA A}AA
-2.455648	A}AA A}_	-0.354875
-3.30859	A}AA B|B}B	-0.1780715
-1.797107	A}AA B}B	-0.5077555
-2.898008	A}AA C|C}CH	-0.09890664
-2.580587	A}AA C|C}K	0.1063218
-2.614011	A}AA C|H}CH	-0.220316
-3.558729	A}AA C|H}HH
-4.254383	A}AA C|H}SH
-3.558729	A}AA C|H}_	-0.1888279
-3.345939	A}AA C|I}CH	-0.251875
-2.970558	A}AA C|K}K	-0.251079
-3.166853	A}AA C|Z}CH	-0.04450536
-2.378482	A}AA C}CH	-0.2510295
-1.715286	A}AA C}K	-0.9007961
-2.807831	A}AA C}S	-0.4753124
-2.970558	A}AA C}T|S	-0.1693578
-3.558729	A}AA D|Z}JH
-1.596977	A}AA D}D	-0.6101081
-4.254383	A}AA D}T
-2.93277	A}AA D}_	-0.7760749
-3.919774	A}AA E|R}ER
-3.517804	A}AA E}EH
-4.254383	A}AA E}IH
-3.108861	A}AA E}_	-0.2637783
-2.756678	A}AA F|F}F	-0.1489292
-2.142719	A}AA F}F	-0.2578473
-3.30859	A}AA G|G}JH	-0.7080476
-3.558729	A}AA G|H}_
-4.254383	A}AA G|I}JH
-4.254383	A}AA G|N}N
-4.254383	A}AA G|N}NG
-3.108861	A}AA G|U}G	-0.5196463
-1.724149	A}AA G}G	-0.7618312
-3.108861	A}AA G}JH	-0.3883612
-2.781502	A}AA G}ZH	-0.1064281
-4.254383	A}AA H}AH
-2.388702	A}AA H}HH	-0.4861068
-1.700197	A}AA H}_	-0.7945837
-3.011951	A}AA I}IH	-0.1994405
-2.580587	A}AA I}IY	-0.3342511
-3.30859	A}AA I}Y	-0.398165
-3.517804	A}AA I}_	-0.3067441
-4.254383	A}AA J}HH
-2.63174	A}AA J}JH	-0.305375
-2.970558	A}AA J}Y	-0.08557376
-3.057708	A}AA J}ZH	-0.2647085
-3.517804	A}AA J}_	-0.47172
-1.781502	A}AA K}K	-0.6830305
-3.558729	A}AA L|K}K	-0.1959981
-2.016316	A}AA L|L}L	-0.3500887
-4.254383	A}AA L|L}Y
-1.122089	A}AA L}L	-0.827223
-4.254383	A}AA L}T|S
-2.83586	A}AA M|M}M	-0.3463373
-1.440242	A}AA M}M	-0.7710075
-3.30859	A}AA N|-}N	-0.3781433
-3.558729	A}AA N|D}D	-0.1888279
-2.63174	A}AA N|G}NG	0.09704643
-2.166853	A}AA N|N}N	-0.5134052
-0.9753219	A}AA N}N	-0.5544571
-2.179442	A}AA N}NG	-0.343924
-4.254383	A}AA O|U}UW
-3.919774	A}AA O}AO
-2.756678	A}AA O}OW	-0.1774431
-4.254383	A}AA O}W
-3.345939	A}AA P|H}F	-0.2607412
-2.83586	A}AA P|P}P	-0.3357813
-2.043468	A}AA P}P	-0.5536933
-3.517804	A}AA Q|U}K	-0.1830806
-2.807831	A}AA Q}K	0.4813328
-0.4114136	A}AA R}R	-1.31084
-1.784064	A}AA R}_	-0.8555977
-4.254383	A}AA S|-}S
-3.517804	A}AA S|C}SH	1.256278
-2.271588	A}AA S|H}SH	-0.5032321
-2.087672	A}AA S|S}S	-0.4304639
-2.970558	A}AA S|Z}SH	-0.1446602
-1.502748	A}AA S}S	-0.5762569
-2.349193	A}AA S}Z	-0.1792821
-3.558729	A}AA S}ZH	-0.4646145
-3.345939	A}AA S}_
-2.865823	A}AA T|H}DH	-0.4447295
-2.970558	A}AA T|H}TH	-0.1249146
-3.517804	A}AA T|I}SH	-0.5926962
-4.254383	A}AA T|S}_
-2.271588	A}AA T|T}T	-0.1216078
-3.919774	A}AA T}S	-0.362912
-1.480472	A}AA T}T	-0.7038807
-2.596977	A}AA T}_	-0.6875262
-4.254383	A}AA U|G}F
-3.108861	A}AA U}UW	-0.2690693
-2.2338	A}AA U}_	-0.3090903
-4.254383	A}AA V}F
-1.717485	A}AA V}V	-0.652285
-3.30859	A}AA W}F	1.153837
-2.689732	A}AA W}V	-0.002624005
-2.256076	A}AA W}W	-0.9350347
-2.898008	A}AA W}_	-0.3443797
-2.669528	A}AA Y}Y	-0.4369156
-2.865823	A}AA Z|Z}Z	-0.5496719
-4.254383	A}AA Z}S
-2.520589	A}AA Z}T	0.4139282
-3.166853	A}AA Z}T|S	-0.8068792
-2.02968	A}AA Z}Z	-0.4247872
-3.517804	A}AA Z}ZH	-0.348089
-4.344489	A}AE (}_
-4.009879	A}AE </s>
-2.331204	A}AE B|B}B	-0.1646645
-4.344489	A}AE B|Y}B
-1.62784	A}AE B}B	-0.5641495
-3.648834	A}AE C|C}CH	-0.014992
-2.654898	A}AE C|C}K	-0.03250718
-2.275981	A}AE C|H}CH	-0.3619856
-3.198966	A}AE C|H}SH	-0.05070077
-4.344489	A}AE C|I}SH
-1.464566	A}AE C|K}K	-0.04711282
-4.009879	A}AE C|Q}K
-1.46257	A}AE C}K	-0.9700831
-2.533854	A}AE C}S	-0.8016497
-4.009879	A}AE D|-}D	-0.4505896
-3.022875	A}AE D|G}JH	0.2514153
-1.437414	A}AE D}D	-0.4356452
-3.022875	A}AE D}JH	-0.6837792
-2.089219	A}AE D}_	-1.543871
-2.925965	A}AE E}_	-0.1888264
-2.06463	A}AE F|F}F	-0.2294726
-1.900659	A}AE F}F	-0.5512879
-2.097735	A}AE G|G}G	-0.1244585
-3.436045	A}AE G|G}JH	-0.09583384
-4.344489	A}AE G|H}_
-4.344489	A}AE G|N}N
-3.60791	A}AE G|U}G	-0.1815374
-1.596906	A}AE G}G	-0.5230721
-2.624935	A}AE G}JH	-0.3534682
-4.344489	A}AE G}ZH
-2.489272	A}AE H}HH	-0.5210339
-2.533854	A}AE H}_	-0.8140085
-3.648834	A}AE I}_	-0.6021423
-2.955928	A}AE J}JH	-0.0659902
-3.398695	A}AE K|K}K	-0.1183384
-1.788189	A}AE K}K	-0.4782509
-4.344489	A}AE L|.}L
-1.538575	A}AE L|L}L	-0.6256808
-4.344489	A}AE L|L}_
-1.158067	A}AE L}L	-0.5137684
-3.198966	A}AE M|B}M	-0.1255438
-1.952837	A}AE M|M}M	-0.407426
-4.344489	A}AE M|N}M
-3.398695	A}AE M|P}M	-0.2839788
-1.147814	A}AE M}M	-0.799494
-3.398695	A}AE N|-}N	-0.09016918
-4.344489	A}AE N|.}N
-4.344489	A}AE N|D}M
-1.94672	A}AE N|G}NG	0.4753492
-3.648834	A}AE N|K}NG	-0.042502
-1.632234	A}AE N|N}N	-0.1773757
-0.6345961	A}AE N}N	-0.6886427
-1.444045	A}AE N}NG	-0.1586592
-4.344489	A}AE O}_
-2.489272	A}AE P|H}F	-0.4856355
-1.911724	A}AE P|P}P	-0.3154388
-1.695516	A}AE P}P	-0.6541732
-4.344489	A}AE P}_
-3.648834	A}AE Q|U}K	-0.4210784
-2.654898	A}AE Q}K	0.2206141
-1.925965	A}AE R}R	-0.7915721
-1.887212	A}AE R}_	-1.810193
-2.670692	A}AE S|C}SH	0.4388987
-1.887212	A}AE S|H}SH	-0.4743968
-4.009879	A}AE S|I}SH	0.2546463
-4.009879	A}AE S|K}S
-1.630764	A}AE S|S}S	-0.3183988
-4.344489	A}AE S|U}ZH
-1.350777	A}AE S}S	-0.5407075
-4.344489	A}AE S}SH
-2.499996	A}AE S}Z	-0.5412592
-3.60791	A}AE S}ZH	-0.1742537
-2.897936	A}AE S}_	-0.2149732
-3.60791	A}AE T|-}T	-0.09818419
-2.670692	A}AE T|H}DH	-0.1765121
-1.965336	A}AE T|H}TH	-0.1758309
-2.489272	A}AE T|I}SH	-0.6051037
-3.436045	A}AE T|S}_	-0.6003623
-1.849203	A}AE T|T}T	-0.0920642
-3.60791	A}AE T|U}CH	0.0277704
-2.846784	A}AE T}CH	0.07936853
-4.344489	A}AE T}D
-4.344489	A}AE T}SH
-1.369662	A}AE T}T	-0.5142205
-4.009879	A}AE T}TH	-0.292771
-2.147814	A}AE T}_	-1.210957
-3.198966	A}AE U|G}F	0.6020599
-3.60791	A}AE U}_	-0.3807995
-4.344489	A}AE V|V}V
-1.767602	A}AE V}V	-0.6022789
-3.198966	A}AE W}W	-0.131133
-3.147814	A}AE X}K	-0.2341528
-1.86906	A}AE X}K|S	-0.08813459
-2.801026	A}AE Z|Z}Z	-0.05908975
-4.009879	A}AE Z}S
-2.177777	A}AE Z}Z	-0.1346542
-1.569064	A}AH '|S}Z	1.022958
-4.087547	A}AH '}_
-1.96488	A}AH (}_	-0.4837767
-4.422156	A}AH -|B}B
-4.422156	A}AH -|C}K
-3.726502	A}AH -|F}F	-0.2440121
-4.422156	A}AH -|J}JH
-4.422156	A}AH -|L}L
-0.548788	A}AH </s>
-4.422156	A}AH A}AA
-3.100543	A}AH B|B}B	-0.3011941
-1.574419	A}AH B}B	-0.4220068
-4.087547	A}AH C|C}CH	0.1514268
-3.225482	A}AH C|C}K	-0.1800055
-3.685578	A}AH C|G}G	-0.02663809
-2.577664	A}AH C|H}CH	-0.3519551
-3.513713	A}AH C|H}HH	-0.2492059
-2.857505	A}AH C|H}SH	-0.6951647
-4.087547	A}AH C|I}CH	-0.5154154
-2.463721	A}AH C|K}K	-0.5471603
-3.100543	A}AH C|Z}CH	-0.1238606
-3.138331	A}AH C}CH	0.1179352
-1.790558	A}AH C}K	-0.08191264
-2.192952	A}AH C}S	-0.6063265
-4.422156	A}AH D|Z}JH
-1.681414	A}AH D}D	-0.4706818
-4.422156	A}AH D}T
-2.702603	A}AH D}_	-1.141418
-4.087547	A}AH E}EH
-3.003633	A}AH E}_	-0.5856419
-2.536271	A}AH F|F}F	-0.2660867
-2.373544	A}AH F}F	-0.113464
-3.276634	A}AH G|G}G	-0.3293625
-4.087547	A}AH G|H}_
-4.422156	A}AH G|N}N
-4.087547	A}AH G|U}G
-2.04939	A}AH G}G	-0.322593
-3.685578	A}AH G}HH	0.1483728
-2.507626	A}AH G}JH	-0.3215958
-4.087547	A}AH G}ZH	-0.4170496
-2.039845	A}AH H}HH	-0.1868652
-2.093364	A}AH H}_	-1.179004
-4.422156	A}AH I}IH
-3.476363	A}AH J}HH	-0.2791561
-2.817996	A}AH J}JH	-0.4031111
-3.513713	A}AH J}Y	-0.89613
-4.087547	A}AH J}ZH
-4.422156	A}AH J}_
-1.853388	A}AH K}K	-0.5668106
-4.087547	A}AH L|K}K	-0.374566
-1.880871	A}AH L|L}L	-0.6521139
-3.726502	A}AH L|M}M	-0.582901
-1.083162	A}AH L}L	-0.758121
-4.422156	A}AH L}L|Z
-3.003633	A}AH M|M}M	-0.3672803
-1.386632	A}AH M}M	-0.6567135
-4.087547	A}AH N|-}N	-0.5201145
-3.033596	A}AH N|G}NG	-0.001717389
-1.795909	A}AH N|N}N	-1.143142
-0.6181457	A}AH N}N	-0.8923818
-2.817996	A}AH N}NG	-0.5790423
-4.422156	A}AH N}_
-4.422156	A}AH O}AA
-4.422156	A}AH O}AO
-2.817996	A}AH P|H}F	-0.3080798
-2.394394	A}AH P|P}P	-0.7862503
-2.027436	A}AH P}P	-0.2169003
-3.476363	A}AH Q|U}K	-0.2925969
-3.033596	A}AH Q}K	-0.2438431
-2.463721	A}AH R}R	-0.5228167
-3.476363	A}AH R}_	-0.06680107
-4.422156	A}AH S|-}S
-4.087547	A}AH S|C}SH	1.362552
-2.717326	A}AH S|H}SH	-0.2006117
-2.138331	A}AH S|S}S	-0.4450313
-3.334626	A}AH S|S}SH	-0.6201116
-3.276634	A}AH S|Z}SH	-0.3594721
-1.602232	A}AH S}S	-0.2177199
-4.422156	A}AH S}SH
-1.648245	A}AH S}Z	-0.853042
-3.685578	A}AH S}_	-0.2536369
-4.422156	A}AH T|-}T
-2.387332	A}AH T|H}TH	-0.4894765
-2.26591	A}AH T|T}T	-0.4858004
-3.138331	A}AH T}CH	-0.3066483
-4.422156	A}AH T}D
-1.524586	A}AH T}T	-0.2516525
-4.087547	A}AH T}_
-4.422156	A}AH U}L
-1.929304	A}AH V}V	-0.1524772
-2.276634	A}AH W}W	-0.3722732
-3.726502	A}AH X}K|S
-3.476363	A}AH Y}Y	-0.2313611
-4.422156	A}AH Z|S}SH
-3.513713	A}AH Z|Z}Z	-0.2268844
-2.26591	A}AH Z}Z	-0.2018251
-4.422156	A}AH _}K
-4.422156	A}AH _}M|ER
-3.199561	A}AO (}R|JH
-3.199561	A}AO </s>
-2.864951	A}AO B}B
-3.199561	A}AO C|C}CH
-2.864951	A}AO C|H}CH
-3.199561	A}AO C|K}K
-2.291117	A}AO C}K	-0.3612517
-3.199561	A}AO C}S
-2.253767	A}AO D}D
-3.199561	A}AO D}_
-3.199561	A}AO F}F
-2.864951	A}AO G|H}_	-0.3753984
-3.199561	A}AO G}G
-2.503906	A}AO H}_
-3.199561	A}AO K}K
-0.5574545	A}AO L|L}L	-0.6344786
-0.4785617	A}AO L}L	-0.9593788
-2.253767	A}AO M}M	-0.234109
-2.291117	A}AO N|G}NG	-0.3857809
-3.199561	A}AO N|N}N
-1.480007	A}AO N}N	-0.208689
-2.503906	A}AO N}NG	0.007267773
-3.199561	A}AO P|P}P
-3.199561	A}AO P}P
-0.7292415	A}AO R}R	-0.8639217
-1.781037	A}AO R}_	-0.590196
-2.864951	A}AO S|C}SH	1.362552
-2.11203	A}AO S|H}SH	-0.1974896
-2.253767	A}AO S|S}S	-0.09302337
-2.054038	A}AO S}S
-2.864951	A}AO S}Z	-0.5205137
-2.864951	A}AO T|H}TH
-2.462982	A}AO T|T}T
-1.201253	A}AO T}T	-0.8889741
-3.199561	A}AO T}_
-3.199561	A}AO V}V
-2.503906	A}AO W}W
-3.199561	A}AO Z|Z}Z
-0.2424323	A}AO|HH R}R
-0.1488378	A}AW E}_	-0.6898621
-0.8444923	A}AW U}UW
-0.9674571	A}AY E}EH	-0.5615613
-0.5920758	A}AY E}_	-0.4285567
-1.139322	A}AY H}_	-0.5927197
-1.875901	A}AY I|R}ER
-1.875901	A}AY I}AH
-0.6334684	A}AY I}IH	-0.5971706
-1.180246	A}AY I}IY
-1.875901	A}AY I}Y
-1.180246	A}AY J}JH	-0.2429241
-1.875901	A}AY Y}IY
-1.180246	A}AY Y}Y
-3.280655	A}EH </s>
-3.280655	A}EH C}K
-3.280655	A}EH D|-}D
-0.845098	A}EH D}D	-0.5071707
-3.280655	A}EH D}_
-1.225309	A}EH E}_	-0.7366092
-2.946045	A}EH H}_	-0.4864461
-3.280655	A}EH J}JH
-2.946045	A}EH K}K
-3.280655	A}EH L|L}L
-1.561101	A}EH L}L	-0.7273843
-3.280655	A}EH M}M
-3.280655	A}EH N|N}N
-1.892095	A}EH N}N	-0.4749831
-2.544076	A}EH P}P	-0.1819852
-0.2659009	A}EH R}R	-1.137038
-0.9483175	A}EH R}_	-1.475981
-2.193125	A}EH S}S	-0.5899386
-2.193125	A}EH S}Z	-0.4254396
-2.038223	A}EH S}ZH	-0.7746907
-1.506744	A}EH T|H}DH	-1.1437
-1.807774	A}EH T|H}TH	-0.2863716
-2.135133	A}EH T}T	-0.2089738
-1.959041	A}EH V}V	-0.1227936
-3.280655	A}EH Z}Z
-0.08715018	A}ER </s>
-1.283825	A}ER R}R
-1.283825	A}ER T}T
-3.175167	A}EY '|S}Z	0.3957517
-2.628389	A}EY (}_	0.1472684
-2.424269	A}EY </s>
-3.536212	A}EY A}EY
-1.408281	A}EY B}B	-0.9458683
-2.725299	A}EY C|H}CH	-0.278936
-2.962378	A}EY C|I}SH	0.8732163
-2.00514	A}EY C}K	-0.7879446
-1.485374	A}EY C}S	-0.9953997
-3.175167	A}EY C}SH	-0.205553
-3.870821	A}EY C}_
-1.221849	A}EY D}D	-1.059074
-3.870821	A}EY E}IY
-1.850238	A}EY E}_	-0.2859543
-3.536212	A}EY F|F}F	-0.4734867
-2.048605	A}EY F}F	-0.8038165
-3.536212	A}EY G|I}JH
-2.925028	A}EY G|N}N	-0.342361
-2.628389	A}EY G|U}G	-0.8763874
-1.615552	A}EY G}G	-0.9444804
-1.771056	A}EY G}JH	-1.214183
-2.424269	A}EY H}HH	-0.3101197
-2.725299	A}EY H}_	-0.2900088
-2.783291	A}EY I|G}_	0.2320695
-3.870821	A}EY I}AH
-2.586996	A}EY I}IH	-0.6278425
-2.482261	A}EY J}JH	-0.4808718
-3.536212	A}EY K|K}K	-0.4215154
-1.228715	A}EY K}K	-1.079332
-2.39794	A}EY L|L}L	-0.7547253
-1.289932	A}EY L}L	-1.111226
-3.870821	A}EY M|M}M
-1.464036	A}EY M}M	-0.8555395
-1.176602	A}EY N}N	-1.043351
-2.327359	A}EY N}NG	-1.121931
-3.870821	A}EY O|R}ER
-2.628389	A}EY O}OW	-0.1896541
-3.536212	A}EY P|H}F
-1.583066	A}EY P}P	-0.7100767
-2.628389	A}EY R}R	-0.4746482
-2.424269	A}EY S|I}ZH	1.260927
-3.536212	A}EY S|S}S
-1.563931	A}EY S}S	-0.7978052
-1.956291	A}EY S}Z	-0.683167
-2.925028	A}EY S}ZH	-0.2707612
-3.536212	A}EY S}_	-0.5154087
-3.870821	A}EY T|-}T
-2.783291	A}EY T|H}DH	-0.3618422
-2.725299	A}EY T|H}TH	-0.150165
-1.031792	A}EY T|I}SH	0.1789491
-3.870821	A}EY T|I}ZH
-3.870821	A}EY T|T}T
-2.962378	A}EY T}CH	-0.5842525
-3.536212	A}EY T}D
-3.175167	A}EY T}SH	-0.2376261
-0.5266418	A}EY T}T	-1.454029
-3.870821	A}EY T}_
-3.175167	A}EY U}_	-0.6844084
-1.29595	A}EY V}V	-0.9157658
-3.536212	A}EY W}D|AH	-0.292771
-3.175167	A}EY W}W
-3.536212	A}EY Y}AH
-3.175167	A}EY Y}IH	-0.688056
-3.870821	A}EY Y}IY
-3.536212	A}EY Y}Y
-3.536212	A}EY Z|I}ZH	-0.362912
-1.920819	A}EY Z}Z	-0.7397121
-3.870821	A}EY _|C}S
-3.870821	A}EY _}AA
-2.514446	A}EY _}EH	-0.1922637
-3.870821	A}EY _}F
-0.02389902	A}HH|AA R}R	-0.2725752
-2.797527	A}IH B}B
-1.475913	A}IH C}K	-0.4977478
-2.462917	A}IH C}S
-2.797527	A}IH D}D
-2.797527	A}IH E}_
-1.851733	A}IH G}G	-0.6684527
-0.3819082	A}IH G}JH	-1.928374
-2.060948	A}IH K}K	-0.1838454
-2.797527	A}IH M}M
-1.889083	A}IH N|N}N	-0.258063
-1.441151	A}IH N}N	-0.1742331
-0.3997584	A}IH R}R	-0.6893894
-2.101872	A}IH R}_
-1.889083	A}IH S}S	-0.1394995
-1.441151	A}IH T}T	-0.7846143
-0.2424323	A}IH|P _}AH|L
-1.885885	A}IY C}K
-1.19023	A}IY E}AH	-0.5947397
-0.09938464	A}IY E}_	-0.1372803
-1.885885	A}IY G}JH
-1.885885	A}IY I}AH
-1.551275	A}IY I}IH	-0.5199484
-1.885885	A}IY U}AH
-0.2424323	A}T|R A}IH|P
-0.8444923	A}Y E}EH
-0.1488378	A}Y U}UW	-0.6640286
-3.222436	A}_ '|S}Z
-2.485857	A}_ '}_	-0.6272652
-1.938611	A}_ </s>
-0.9588141	A}_ A}AA	-0.06801486
-2.526781	A}_ A}AE
-1.980003	A}_ A}AH	-0.08044732
-2.887826	A}_ A}EY
-2.887826	A}_ A}IH	-0.50874
-2.526781	A}_ B}B	-0.2684505
-1.938611	A}_ C|H}CH	-0.1977589
-2.485857	A}_ C|K}K	-0.2231899
-3.222436	A}_ C|Q}K
-2.887826	A}_ C}AH
-3.222436	A}_ C}K
-1.104942	A}_ D}D	-0.2708188
-2.887826	A}_ D}_
-3.222436	A}_ E|R}ER
-3.222436	A}_ F|F}F
-2.485857	A}_ F}F	-0.3791514
-2.485857	A}_ G}G	-0.4592482
-2.887826	A}_ G}JH	-0.4740573
-1.900822	A}_ H}_	-0.252405
-2.076913	A}_ I|R}ER	-0.5061721
-1.40022	A}_ I}AH	-0.7630373
-0.7786062	A}_ I}AY	-0.2986922
-2.076913	A}_ I}IH	-0.5673971
-3.222436	A}_ I}IY
-2.887826	A}_ J}_	-0.4983838
-1.448524	A}_ K}K	-0.1654676
-1.900822	A}_ L|L}L	-1.101185
-1.56503	A}_ L}L	-0.3533161
-2.025761	A}_ M}M	-0.04647811
-3.222436	A}_ N|G}NG
-2.887826	A}_ N|N}N	-0.4787658
-1.187612	A}_ N}N	-0.675962
-3.222436	A}_ N}NG
-3.222436	A}_ O|-}AW
-2.887826	A}_ O|U}AW
-3.222436	A}_ O}AO
-2.076913	A}_ O}OW	-0.1776771
-2.276642	A}_ P}P	-0.1023812
-1.030613	A}_ R}R	-0.5943033
-1.54864	A}_ S}S	-1.323953
-2.485857	A}_ S}Z	0.2027299
-3.222436	A}_ S}_
-2.887826	A}_ T|H}DH
-2.526781	A}_ T|H}TH	-0.1551367
-1.24761	A}_ T}T	-0.6268488
-3.222436	A}_ T}_
-2.313992	A}_ U|R}ER	-0.2793267
-3.222436	A}_ U|X}OW1
-1.900822	A}_ U}AH	-0.2374281
-2.134905	A}_ U}UW	-0.1551069
-2.887826	A}_ V}V
-3.222436	A}_ W|Y}OY
-3.222436	A}_ W}W
-2.526781	A}_ X}K|S
-1.209151	A}_ Y}AY	-0.4865713
-1.40022	A}_ Y}IY	-0.1223067
-2.526781	A}_ _}AH
-1.813995	B|B}B '|S}Z	0.174064
-1.157788	B|B}B </s>
-2.026785	B|B}B A|R}ER	-0.1485838
-1.525764	B|B}B A}AA	0.05827239
-2.722439	B|B}B A}AE
-1.438614	B|B}B A}AH	-0.1673406
-1.98586	B|B}B A}IH	-0.3969033
-1.032849	B|B}B E|R}ER	0.001923084
-1.366064	B|B}B E}AH	-0.2967972
-2.38783	B|B}B E}EH
-1.634909	B|B}B E}IH	-0.408486
-1.813995	B|B}B E}IY	-0.2506725
-0.9359389	B|B}B E}_	-0.7476302
-1.813995	B|B}B I}AH	-0.4323547
-2.722439	B|B}B I}AY
-0.8672231	B|B}B I}IH	-0.9992843
-1.333879	B|B}B I}IY	-0.5778867
-1.032849	B|B}B L}AH|L	-0.7425524
-1.480007	B|B}B L}L	-0.8127321
-2.722439	B|B}B O|U}AW
-2.722439	B|B}B O|U}UW
-1.438614	B|B}B O}AH	-0.2117428
-2.722439	B|B}B O}IH
-2.026785	B|B}B O}OW	-0.5545095
-1.98586	B|B}B R}R
-1.137584	B|B}B S}Z	-0.7451673
-2.722439	B|B}B U}AH
-2.38783	B|B}B U}UH	-0.5166204
-1.366064	B|B}B Y}IY	-0.1403936
-1.283825	B|T}T '}_
-1.283825	B|T}T </s>
-1.283825	B|T}T E|R}ER
-1.283825	B|T}T E}IH
-0.9492154	B|T}T F}F	-0.5059453
-0.9492154	B|T}T H}HH	-0.488564
-0.9492154	B|T}T O|R}ER
-1.283825	B|T}T S}S
-0.2424323	B|Y}B S|S}S
-2.738401	B}B '|S}Z	2.06015
-4.342562	B}B '}AH
-4.342562	B}B '}AY
-4.342562	B}B '}IY
-4.342562	B}B '}_
-4.342562	B}B (}AH|L
-4.342562	B}B (}IY
-3.434118	B}B (}_	0.7356902
-4.342562	B}B -|F}F
-4.342562	B}B -|W}W
-4.007952	B}B -}AH	-0.4505896
-4.007952	B}B -}IY	-0.4995068
-4.007952	B}B -}TH	-0.1474528
-4.342562	B}B .}IY
-1.96025	B}B </s>
-3.434118	B}B A|I}EH	0.1517756
-2.581615	B}B A|I}EY	-0.267998
-3.605983	B}B A|L}AA	0.2910402
-3.646907	B}B A|L}AO	1.050439
-4.007952	B}B A|O}AW	-0.152839
-2.487345	B}B A|R}ER	-0.1623859
-2.213639	B}B A|U}AO	-0.8289403
-2.07894	B}B A|U}AW	-0.6484103
-3.197039	B}B A|U}OW	-0.221752
-3.434118	B}B A|W}AO	-0.08356164
-2.401159	B}B A|Y}EY	-0.1889498
-1.25877	B}B A}AA	-0.4908147
-1.268259	B}B A}AE	-0.5920585
-1.617256	B}B A}AH	-0.244933
-2.321978	B}B A}AO	-1.377204
-3.197039	B}B A}AY	-0.289628
-2.418888	B}B A}EH	-1.529467
-1.915438	B}B A}EY	-0.3110535
-4.342562	B}B A}IH
-4.007952	B}B A}IY	0.1657052
-2.437371	B}B A}_	-0.6167561
-4.007952	B}B C|H}CH
-4.342562	B}B C|K}K
-4.007952	B}B C|Z}CH
-4.007952	B}B C}CH	-0.3034235
-2.924038	B}B C}K	-0.4842156
-2.668766	B}B D}D	-0.369215
-2.242797	B}B E|A}IY	-0.1965573
-3.145887	B}B E|I}EY	-0.2114941
-4.342562	B}B E|N}EH
-1.067108	B}B E|R}ER	-0.5274279
-4.007952	B}B E|U}OY	-0.5057802
-3.058737	B}B E|Y}EY	-0.135921
-4.342562	B}B E}AE
-1.816828	B}B E}AH	-0.6252022
-1.155153	B}B E}EH	-0.6274339
-4.342562	B}B E}ER
-2.668766	B}B E}EY	-0.1572825
-1.901472	B}B E}IH	-0.562812
-2.280585	B}B E}IY	-0.1713855
-3.646907	B}B E}Y	-0.001503944
-1.548679	B}B E}_	-0.6483861
-3.646907	B}B F}F
-4.007952	B}B G}G
-3.197039	B}B H}HH	-0.2219678
-2.757706	B}B H}_	-0.2690287
-4.342562	B}B I|L}IY
-2.230897	B}B I|R}ER	-0.5895944
-2.165631	B}B I}AH	-0.7118315
-1.98954	B}B I}AY	-0.494112
-1.365329	B}B I}IH	-0.3766119
-1.688509	B}B I}IY	-0.3303094
-4.342562	B}B I}Y
-3.646907	B}B I}_	-0.1854545
-2.896009	B}B J}JH	-0.9211697
-3.145887	B}B J}Y	-0.6040595
-2.821376	B}B K}K	-0.4387952
-4.342562	B}B L|E}_
-1.683489	B}B L}AH|L	-0.02946925
-1.278616	B}B L}L	-1.100936
-4.342562	B}B L}UH|L
-2.702189	B}B M}M	-0.806263
-2.702189	B}B N}N	-0.7168814
-4.007952	B}B O|-}OW
-2.702189	B}B O|I}OY	-0.1113702
-3.145887	B}B O|I}W	-0.2730013
-2.384126	B}B O|O}UH	-1.290269
-2.344254	B}B O|O}UW	-0.2767691
-2.108903	B}B O|R}ER	-0.4779747
-2.924038	B}B O|U}AO	0.2216141
-2.520346	B}B O|U}AW	-0.3766555
-2.520346	B}B O|U}UW	-0.2880681
-3.020948	B}B O|W}AW	-0.3613506
-2.336701	B}B O|W}OW	0.08728671
-2.321978	B}B O|Y}OY	-0.09432787
-1.618687	B}B O}AA	-0.4218413
-2.066705	B}B O}AH	0.03221774
-1.695295	B}B O}AO	-0.177859
-4.342562	B}B O}AW
-4.007952	B}B O}ER	0.01386184
-4.342562	B}B O}IH
-1.437371	B}B O}OW	-0.1236241
-4.342562	B}B O}UH
-2.384126	B}B O}_	-0.6988057
-3.605983	B}B P}P	-0.4297282
-4.342562	B}B R|Z}R
-3.020948	B}B R}ER	-0.3309073
-0.9061702	B}B R}R	-1.236097
-4.342562	B}B R}Y|AH
-4.342562	B}B S|C}SH
-3.605983	B}B S|H}SH
-2.083096	B}B S}S	-0.7078985
-2.108903	B}B S}Z	-0.3761746
-4.342562	B}B S}_
-3.145887	B}B T}T	-0.09408341
-1.493748	B}B U|R}ER	-0.8088289
-3.058737	B}B U|Y}AY	-0.2262219
-3.605983	B}B U}AA	-0.3280287
-1.513542	B}B U}AH	-0.4937802
-3.646907	B}B U}AO	-0.468075
-2.367735	B}B U}EH	-1.427208
-2.637731	B}B U}IH	-0.326584
-2.050911	B}B U}UH	-0.4464657
-2.087292	B}B U}UW	-0.1813861
-2.757706	B}B U}W	-0.6322092
-2.028247	B}B U}Y|UW	-0.4765904
-2.652971	B}B U}_	-0.8988876
-3.396768	B}B V}V	-0.3392438
-3.605983	B}B W}W
-4.007952	B}B Y|-}IY	-0.4232843
-3.396768	B}B Y|R}ER	-0.2975543
-3.255031	B}B Y}AH	-0.4275771
-2.594979	B}B Y}AY	-0.124828
-2.77791	B}B Y}IH	-0.1498315
-1.877413	B}B Y}IY	-0.261409
-4.007952	B}B Y}Y
-3.605983	B}B Z}Z
-4.342562	B}B _}AA|R
-4.342562	B}B _}AH
-4.342562	B}B _}IH
-2.719918	B}B _}IY	-0.2443287
-3.605983	B}B _}IY|EH	-0.06618737
-2.685156	B}B _}Y	-0.0540511
-0.5434623	B}N|D </s>
-0.5434623	B}N|D S}Z
-0.5434623	C|.}K '}_
-0.5434623	C|.}K </s>
-2.332337	C|C}CH E}AH
-1.595759	C|C}CH E}EH	-0.4684679
-2.332337	C|C}CH E}EY
-2.332337	C|C}CH E}IY
-1.997728	C|C}CH H}_
-1.244807	C|C}CH I}AH	-0.9270936
-1.595759	C|C}CH I}IH	-0.1804443
-0.1031334	C|C}CH I}IY	-0.9093117
-1.386544	C|C}CH I}_	-0.5629901
-1.73885	C|C}K A|R}ER	-0.5010022
-0.9777236	C|C}K A}AA	-0.7411494
-2.140819	C|C}K A}AE
-0.7015172	C|C}K A}AH	-0.2064092
-2.140819	C|C}K A}EY
-0.6097468	C|C}K H}_	-0.9106128
-2.475428	C|C}K L}L
-2.475428	C|C}K O|O}UW
-2.475428	C|C}K O|R}ER
-2.140819	C|C}K O}AA
-1.566985	C|C}K O}AH	-0.1211239
-2.475428	C|C}K O}AO
-0.5895435	C|C}K O}OW	-0.7020562
-2.475428	C|C}K O}_
-1.73885	C|C}K R}R	-0.1795463
-1.779774	C|C}K U|R}ER	-0.2420122
-1.73885	C|C}K U}AH	-0.4674418
-2.475428	C|C}K U}UH
-2.475428	C|C}K U}UW
-0.8444923	C|G}G O|W}AW
-0.8444923	C|G}G R}R
-0.5098827	C|G}G Y}AY	-0.5204419
-2.651425	C|H}CH '}AH	-0.5663778
-2.038683	C|H}CH '}IH	-0.1188858
-3.559869	C|H}CH '}_
-2.363194	C|H}CH (}_	0.1472684
-3.559869	C|H}CH -|P}P
-0.916036	C|H}CH </s>
-3.559869	C|H}CH A|-}AA
-2.363194	C|H}CH A|I}EH	0.06338704
-2.238255	C|H}CH A|I}EY	-0.3291261
-3.225259	C|H}CH A|L}AE	0.1199477
-2.82329	C|H}CH A|L}AO	1.110584
-3.225259	C|H}CH A|O}AW	-0.152839
-2.113317	C|H}CH A|R}ER	-0.6023466
-2.614076	C|H}CH A|U}AO	-0.3907551
-2.651425	C|H}CH A|U}AW	-0.130413
-3.225259	C|H}CH A|W}AO
-3.559869	C|H}CH A|Y}EY
-1.348954	C|H}CH A}AA	-0.5539492
-1.1621	C|H}CH A}AE	-0.5420389
-1.436623	C|H}CH A}AH	-0.3099281
-3.559869	C|H}CH A}AY
-2.414346	C|H}CH A}EH	-0.4393153
-1.673984	C|H}CH A}EY	-0.6856793
-3.559869	C|H}CH A}IY
-2.472338	C|H}CH A}_	-0.6182591
-2.203493	C|H}CH B}B	-0.09518538
-2.363194	C|H}CH C}K	-0.1565087
-2.864214	C|H}CH D}D
-2.113317	C|H}CH E|A}IY	-0.4607962
-1.569248	C|H}CH E|D}T	-0.3856479
-3.559869	C|H}CH E|I}EY
-1.183898	C|H}CH E|R}ER	-0.5688333
-2.82329	C|H}CH E|W}UW	-0.0992505
-3.225259	C|H}CH E|Y}EY	-0.4735915
-1.377917	C|H}CH E}AH	-0.5587004
-2.82329	C|H}CH E}AO	-0.1161478
-1.1621	C|H}CH E}EH	-0.3449656
-2.82329	C|H}CH E}EY	-0.1635794
-1.321801	C|H}CH E}IH	-0.9668006
-2.203493	C|H}CH E}IY	-0.1362736
-3.559869	C|H}CH E}Y
-1.436623	C|H}CH E}_	-0.7072079
-2.141345	C|H}CH F}F	-1.529906
-3.225259	C|H}CH G}G
-2.651425	C|H}CH H}HH	-0.2734561
-3.559869	C|H}CH H}_
-2.864214	C|H}CH I|R}ER	-0.2686128
-2.086987	C|H}CH I}AH	-0.2396135
-1.773368	C|H}CH I}AY	-0.6475151
-3.225259	C|H}CH I}EH	-0.4414665
-1.034135	C|H}CH I}IH	-0.4178401
-1.308836	C|H}CH I}IY	-0.2413901
-3.559869	C|H}CH I}_
-2.472338	C|H}CH K}K	-0.4830853
-2.864214	C|H}CH L}AH|L	-0.2575583
-1.995217	C|H}CH L}L	-0.3188582
-1.902463	C|H}CH M}M	-0.3785068
-2.238255	C|H}CH N}N	-0.3519506
-2.614076	C|H}CH O|I}OY	-0.2008226
-3.559869	C|H}CH O|O}UH
-2.614076	C|H}CH O|O}UW	-0.09748395
-3.225259	C|H}CH O|R}ER
-3.559869	C|H}CH O|U}AW
-2.414346	C|H}CH O|W}AW	-0.1253356
-3.225259	C|H}CH O|W}OW	-0.3363624
-3.225259	C|H}CH O|Y}OY
-2.113317	C|H}CH O}AA	-0.3437913
-2.238255	C|H}CH O}AH	0.05519354
-2.171309	C|H}CH O}AO	-0.1389055
-1.785958	C|H}CH O}OW	-0.3111833
-3.225259	C|H}CH R}ER	-0.4940953
-2.651425	C|H}CH R}R	-0.3266471
-3.225259	C|H}CH S}S
-2.141345	C|H}CH T}T	-0.1945984
-3.559869	C|H}CH T}_
-1.975014	C|H}CH U|R}ER	-0.4884044
-1.715376	C|H}CH U}AH	-0.4258339
-2.614076	C|H}CH U}UH	-0.2603166
-1.919497	C|H}CH U}UW	-0.2010848
-3.225259	C|H}CH U}W	-0.459089
-3.559869	C|H}CH U}_
-2.651425	C|H}CH W}W	-0.1191137
-3.559869	C|H}CH W}_
-3.225259	C|H}CH Y}AY	-0.502054
-3.559869	C|H}CH Y}IH
-2.238255	C|H}CH Y}IY	-0.1495412
-0.5166298	C|H}HH </s>
-1.90519	C|H}HH A|R}ER
-0.9967464	C|H}HH A}AA	-0.2478021
-1.168611	C|H}HH A}AH	-0.2502712
-1.90519	C|H}HH A}AY
-1.90519	C|H}HH E}AH
-1.570581	C|H}HH E}EH
-1.90519	C|H}HH I}IH
-1.90519	C|H}HH M}M
-1.570581	C|H}HH O|W}AW
-1.90519	C|H}HH O}AH
-0.9593969	C|H}HH O}AO	-1.155272
-0.9593969	C|H}HH O}OW	-0.2531672
-1.90519	C|H}HH U}AH
-2.609788	C|H}SH </s>
-2.609788	C|H}SH A|I}EH
-1.914134	C|H}SH A|I}EY	-0.47835
-2.275179	C|H}SH A|R}ER
-1.325963	C|H}SH A|U}OW	-0.2801175
-0.9359922	C|H}SH A}AA	-0.9842002
-1.163236	C|H}SH A}AE	-0.4765184
-1.024933	C|H}SH A}AH	-0.3197781
-2.609788	C|H}SH A}EY
-2.275179	C|H}SH A}_	-0.5180133
-2.275179	C|H}SH C}K	-0.4899053
-2.609788	C|H}SH E|D}T
-1.701344	C|H}SH E|R}ER	-0.1315471
-1.413113	C|H}SH E}AH	-0.0854058
-0.7991542	C|H}SH E}EH	-0.5054193
-1.873209	C|H}SH E}EY	-0.1651969
-1.136907	C|H}SH E}IH	-0.1230351
-2.609788	C|H}SH E}IY
-0.904958	C|H}SH E}_	-0.4993023
-1.914134	C|H}SH I}AH	-0.2400001
-1.663995	C|H}SH I}IH	-0.2566119
-1.136907	C|H}SH I}IY	-0.6227961
-2.609788	C|H}SH M}M
-2.609788	C|H}SH N}N
-2.609788	C|H}SH O|U}UW
-2.275179	C|H}SH O}AA	-0.4175134
-2.609788	C|H}SH O}AH
-2.609788	C|H}SH O}AO
-2.609788	C|H}SH O}_
-2.275179	C|H}SH S}_
-2.609788	C|H}SH U}UH
-1.873209	C|H}SH U}UW	-0.3686304
-2.609788	C|H}SH Y}IY
-1.08753	C|H}_ </s>
-1.08753	C|H}_ A|U}AW
-1.08753	C|H}_ A}AH
-1.08753	C|H}_ C}K
-1.08753	C|H}_ N}N
-0.7529208	C|H}_ T}T
-2.068507	C|I}CH A|O}AW
-1.733898	C|I}CH A|R}ER
-1.331928	C|I}CH A}AA	-0.1794726
-0.5250448	C|I}CH A}AH	-0.4228622
-0.9229848	C|I}CH A}AO	-0.5073085
-0.9809768	C|I}CH E}EH	-0.7089208
-1.733898	C|I}CH E}_	-0.5234433
-0.5708023	C|I}CH O}OW	-0.4388829
-1.160063	C|I}CH U}UW	-0.2758788
-0.04401683	C|I}SH A}AH	-1.467349
-2.16151	C|I}SH E|R}ER
-1.253067	C|I}SH O}AH	-0.5305846
-2.16151	C|I}SH O}_
-2.16151	C|I}SH U}AH
-3.607171	C|K}K '|S}Z
-1.624376	C|K}K '}_	-1.463632
-2.160619	C|K}K (}_	-0.08318055
-3.607171	C|K}K -|A}AE
-3.607171	C|K}K -|U}AH
-0.4867916	C|K}K </s>
-2.218611	C|K}K A|R}ER	-1.021476
-3.607171	C|K}K A|Y}EY
-2.698727	C|K}K A}AA	-0.6985183
-1.83326	C|K}K A}AH	-0.2533881
-2.870592	C|K}K A}EY	-0.6029063
-2.911516	C|K}K A}HH|AA	0.5813752
-2.461648	C|K}K A}IH	-0.7213674
-1.966799	C|K}K B}B	-0.09967965
-2.51964	C|K}K D}D	-0.2447901
-1.640463	C|K}K E|D}T	1.192258
-1.030285	C|K}K E|R}ER	-0.6418552
-1.224859	C|K}K E}AH	-1.094081
-2.410496	C|K}K E}EH	-0.314849
-1.608864	C|K}K E}IH	-0.8337014
-2.364738	C|K}K E}IY	-0.4969061
-1.495507	C|K}K E}_	-0.8574381
-2.323346	C|K}K F}F	-0.3823418
-3.607171	C|K}K G}G
-1.711526	C|K}K H}HH	-0.4602442
-3.607171	C|K}K H}_
-2.911516	C|K}K I}AH	-0.1786133
-3.607171	C|K}K I}AY
-1.572347	C|K}K I}IH	-1.043596
-1.601311	C|K}K I}IY	-0.7733246
-3.272561	C|K}K I}Y
-3.607171	C|K}K K|N}N
-1.616551	C|K}K L}AH|L	-0.4886941
-1.285557	C|K}K L}L	-0.7504116
-1.601311	C|K}K M}M	-0.6933621
-1.796537	C|K}K N}N	-0.6112949
-3.607171	C|K}K O|O}UW
-3.607171	C|K}K O|R}ER
-2.870592	C|K}K O|U}AW	-0.5050071
-3.607171	C|K}K O|W}AW
-3.272561	C|K}K O}AA
-2.661378	C|K}K O}AH	0.1443936
-2.661378	C|K}K O}AO	-0.5614201
-2.323346	C|K}K O}OW	-0.3485356
-2.218611	C|K}K P}P	-0.2745673
-3.272561	C|K}K R}ER
-1.984527	C|K}K R}R	-0.21233
-2.911516	C|K}K S|H}SH
-1.020346	C|K}K S}S	-0.9020878
-2.218611	C|K}K T}T	-0.1288715
-2.661378	C|K}K U}AH	-0.3606274
-3.272561	C|K}K V}V	-0.4548826
-1.859589	C|K}K W}W	-0.3936678
-3.607171	C|K}K Y}IH
-2.063709	C|K}K Y}IY	-0.8249539
-3.272561	C|K}K Y}Y	-0.4447917
-0.5098827	C|K}_ -|K}K	-0.4232843
-0.8444923	C|K}_ B}B
-0.8444923	C|K}_ C}K
-0.05115252	C|Q}K </s>
-1.196675	C|Q}K U}AH
-0.2088527	C|Y}S L}L	-0.5030684
-2.089666	C|Z}CH (}_	0.6237634
-0.5483751	C|Z}CH </s>
-1.728621	C|Z}CH A|J}AY	-0.2075111
-2.089666	C|Z}CH A|R}ER
-1.687697	C|Z}CH A}AA	-0.1814324
-0.90309	C|Z}CH A}AE	-1.293899
-1.728621	C|Z}CH A}AH
-2.424276	C|Z}CH A}EH
-1.687697	C|Z}CH E|R}ER	-0.5127393
-0.9265711	C|Z}CH E}EH	-0.6013107
-2.089666	C|Z}CH E}IH
-1.278754	C|Z}CH K}K	-0.5293871
-1.728621	C|Z}CH M}M	-0.2436207
-2.089666	C|Z}CH N}N	-0.5217494
-2.424276	C|Z}CH O|R}ER
-2.424276	C|Z}CH O}AO
-0.6377755	C|Z}CH Y}IH	-0.7137256
-2.424276	C|Z}CH Y}IY
-0.8620653	C|Z}_ A}AE	-0.5163739
-1.196675	C|Z}_ E|R}ER
-0.8620653	C|Z}_ E}EH
-0.8620653	C|Z}_ E}IH	-0.5131482
-0.8620653	C|Z}_ Y}IH
-0.7359536	C}AE|K A}AH
-1.932628	C}AE|K E|W}UW
-0.3284682	C}AE|K E}AH	-0.7540637
-1.598019	C}AE|K I}AH
-0.6488034	C}AE|K I}IH	-0.5732381
-1.236974	C}AE|K N}N	-0.2575882
-0.2664065	C}AH C}K	-0.8176807
-2.1889	C}AH E}_	-0.6241159
-1.837949	C}AH G|U}G	-0.3164861
-0.6660137	C}AH G}G	-0.4913267
-2.925479	C}AH H}_
-0.8079858	C}AH K}K	-0.6127135
-2.017036	C}AH L}L	-0.3781392
-2.925479	C}AH O}_
-2.925479	C}AH Q|U}K
-1.340624	C}AH Q}K	-0.4294796
-2.925479	C}AH Z}Z
-2.061326	C}CH '}IH	0.4922205
-2.75698	C}CH (}_
-1.66945	C}CH </s>
-1.235794	C}CH E|R}ER	-0.2513914
-0.4006044	C}CH E}EH	-0.9019016
-1.811187	C}CH E}EY	-0.07136272
-2.42237	C}CH E}IH
-1.473155	C}CH E}IY	-0.6552485
-2.061326	C}CH E}_	-0.6898621
-1.848536	C}CH H}AH	-0.3582498
-2.42237	C}CH H}HH	-0.4955682
-2.75698	C}CH I|R}ER
-2.42237	C}CH I}AH
-2.75698	C}CH I}AY
-0.9960338	C}CH I}IH	-0.2154669
-0.5145478	C}CH I}IY	-0.3478011
-2.75698	C}CH N}N
-0.2424323	C}JH M}M
-4.312581	C}K '}AH
-2.362579	C}K '}_	-1.431447
-2.8397	C}K (}_	0.2781433
-4.312581	C}K -|A}AH
-1.424726	C}K </s>
-3.576002	C}K A|I}EH	0.6688615
-2.8397	C}K A|I}EY	-0.06011775
-3.366788	C}K A|L}AA	-0.2496268
-3.616926	C}K A|L}AE	-0.04647112
-3.977972	C}K A|O}AW	-0.152839
-2.513846	C}K A|R}ER	-0.146261
-2.457365	C}K A|U}AO	-0.3986599
-3.616926	C}K A|U}AW	-0.2397774
-3.404137	C}K A|U}OW
-3.070149	C}K A|W}AO	-0.2756094
-2.894058	C}K A|Y}EY	0.0833338
-1.196247	C}K A}AA	-0.6595672
-1.132631	C}K A}AE	-0.6691604
-1.346693	C}K A}AH	-0.5204903
-2.708421	C}K A}AO	-1.040323
-4.312581	C}K A}AY
-2.13565	C}K A}EH	-1.477638
-4.312581	C}K A}ER
-1.575994	C}K A}EY	-0.6584342
-3.977972	C}K A}IH	-0.5074866
-2.708421	C}K A}_	-0.5250587
-2.791395	C}K B}B	-0.2558179
-3.404137	C}K C|I}CH	-0.2756994
-3.977972	C}K C}AH	-0.5193089
-2.564999	C}K C}S	-0.8266526
-2.708421	C}K C}Y	0.3003008
-2.337755	C}K D}D	-0.5207804
-4.312581	C}K E|A}IY
-4.312581	C}K E|D}T
-3.977972	C}K E|R}ER
-3.616926	C}K E}AH	-0.666279
-3.070149	C}K E}EH	-0.2204195
-4.312581	C}K E}IY
-3.977972	C}K E}_	-0.5219382
-2.551635	C}K F}F	-0.5973719
-3.977972	C}K G}G
-2.990968	C}K H}AH	-0.4607309
-3.028756	C}K H}HH	-0.5286053
-0.9609078	C}K H}_	-0.5716871
-3.977972	C}K I|R}ER	-0.5192647
-4.312581	C}K I}AH
-3.616926	C}K I}AY
-2.814876	C}K I}IH	-0.5384114
-2.924021	C}K I}IY	-0.5426756
-3.977972	C}K I}_
-3.977972	C}K J}JH	-0.4852726
-4.312581	C}K K}S
-4.312581	C}K L|E}IY
-2.371179	C}K L}AH|L	-0.5772489
-1.22196	C}K L}L	-1.26668
-4.312581	C}K M|U}AH
-2.329786	C}K M}M	-0.5390129
-2.345873	C}K N}N	-0.5876366
-3.576002	C}K O|-}OW
-4.312581	C}K O|.}OW
-2.791395	C}K O|I}OY	-0.3602638
-3.977972	C}K O|I}W	0.2034938
-3.616926	C}K O|L}AH	0.5813752
-4.312581	C}K O|N}AA
-2.924021	C}K O|O}UH	-0.9987574
-2.277757	C}K O|O}UW	-0.4509687
-2.299297	C}K O|R}ER	-0.6335521
-2.426696	C}K O|U}AO	-0.9678035
-1.987363	C}K O|U}AW	-0.6758555
-2.479084	C}K O|U}UW	-0.122822
-2.490365	C}K O|W}AW	-0.199781
-3.576002	C}K O|W}OW
-3.028756	C}K O|Y}OY	-0.09859043
-1.128141	C}K O}AA	-0.701477
-1.19741	C}K O}AH	-0.7424191
-1.426696	C}K O}AO	-0.6079624
-4.312581	C}K O}AW
-4.312581	C}K O}ER
-4.312581	C}K O}IH
-1.087425	C}K O}OW	-0.260304
-3.977972	C}K O}W	-0.4505896
-2.457365	C}K O}_	-0.4961913
-2.924021	C}K P|H}F	-0.340402
-3.028756	C}K P}P	-0.1055745
-2.708421	C}K Q|U}W	0.05508813
-3.070149	C}K R}ER	-0.3666432
-1.099802	C}K R}R	-1.295744
-3.225051	C}K S|H}SH	-0.1774217
-1.860634	C}K S}S	-1.141631
-4.312581	C}K T|H}TH
-2.036725	C}K T|I}SH	-0.8942432
-2.426696	C}K T}CH	-1.147362
-3.404137	C}K T}SH	-0.8702353
-1.30448	C}K T}T	-0.7683842
-2.708421	C}K T}_	-1.234116
-2.212816	C}K U|R}ER	-0.5593623
-3.616926	C}K U|Y}AY
-1.637179	C}K U}AH	-0.5660265
-3.977972	C}K U}AO
-3.366788	C}K U}IH	-0.5550216
-2.708421	C}K U}UH	-0.5713952
-2.398051	C}K U}UW	-0.2350289
-2.791395	C}K U}W	-0.1943168
-3.616926	C}K U}Y	-0.5253062
-2.044843	C}K U}Y|UW	-0.3573555
-4.312581	C}K U}_
-3.028756	C}K V}V	-0.1565002
-2.814876	C}K W}W	-0.1719343
-4.312581	C}K W}_
-3.404137	C}K Y}IH	-0.2496616
-3.115906	C}K Y}IY	0.1244615
-4.312581	C}K Z}S
-3.616926	C}K Z}Z	-0.2293079
-4.312581	C}K _}AH
-2.145869	C}K _}Y	-0.7416572
-2.685785	C}S '}IY	0.2873918
-3.259619	C}S '}_
-2.85765	C}S (}IY	0.1235492
-2.898574	C}S -}IY	-0.2492378
-3.259619	C}S .}IY
-3.594229	C}S </s>
-3.594229	C}S A|I}EH
-3.594229	C}S A|I}EY
-3.594229	C}S A}AA
-3.594229	C}S A}EH
-2.85765	C}S A}IY	0.05943167
-2.448706	C}S E|A}IY	-0.2564311
-1.532252	C}S E|D}T	0.6804633
-1.343196	C}S E|R}ER	-0.2956702
-1.261891	C}S E}AH	-0.7227626
-0.898478	C}S E}EH	-0.6991672
-1.904638	C}S E}EY	-0.2548953
-1.005443	C}S E}IH	-1.017373
-1.525722	C}S E}IY	-0.6130583
-0.7663356	C}S E}_	-0.9267515
-2.898574	C}S H}_
-1.874675	C}S I|R}ER	-0.7735772
-1.427517	C}S I}AH	-0.4123844
-1.476735	C}S I}AY	-0.6756462
-0.8493692	C}S I}IH	-0.5390366
-1.066239	C}S I}IY	-0.2442296
-2.85765	C}S I}Y	-0.1378006
-3.594229	C}S I}_
-2.310404	C}S K}K	-0.2998773
-3.594229	C}S L}L
-3.594229	C}S M}M
-2.898574	C}S O|I}W	0.03707498
-3.594229	C}S O|R}ER
-3.259619	C}S O}OW
-3.594229	C}S S}_
-2.85765	C}S Y}AH	-0.1247532
-1.652826	C}S Y}AY	-0.7202255
-1.718328	C}S Y}IH	-0.3500166
-1.538883	C}S Y}IY	0.02548307
-3.594229	C}S Z|A}AA
-1.807728	C}S _}IY	-0.1369224
-2.310404	C}S _}IY|EH	-0.02636559
-3.594229	C}S _}W
-1.7865	C}SH A}AA
-1.7865	C}SH A}AH
-1.451891	C}SH E}IY	-0.519372
-0.8407071	C}SH E}_	-0.569185
-0.8407071	C}SH I}AH	-1.162998
-0.2887955	C}SH I}IY	-0.4902427
-1.7865	C}SH I}Y
-1.145522	C}T S}S
-1.145522	C}T T}S
-0.199729	C}T Z}S	-0.2332574
-0.2424323	C}T|K O}AA
-1.318767	C}T|S A}AH	-0.1753558
-1.720736	C}T|S E}AH	-0.5171577
-1.720736	C}T|S E}IH
-0.0570385	C}T|S K}K	-1.928205
-0.8675812	C}Y U|R}ER
-0.5166298	C}Y U}AH	-0.4119853
-0.2825466	C}Y U}UW	-0.443802
-1.543462	C}_ </s>
-1.543462	C}_ A}EH
-1.543462	C}_ L}L
-1.543462	C}_ O}OW
-0.6350186	C}_ Q|U}K	-0.6427661
-1.543462	C}_ S}Z
-1.208853	C}_ T|I}SH	0.4059139
-0.5976691	C}_ T}T	-0.4735736
-1.208853	C}_ Z}Z	-0.4993843
-1.145522	D|-}D A}AE
-1.145522	D|-}D E}EH
-0.8109127	D|-}D E}_	-0.5215675
-1.145522	D|-}D L}L
-0.8109127	D|-}D N}N	-0.523041
-1.145522	D|-}D R}R
-2.706325	D|G}JH A}AH
-2.706325	D|G}JH C}K
-2.706325	D|G}JH D}D
-1.185139	D|G}JH E|R}ER	-0.07083291
-1.065953	D|G}JH E}AH	-0.1282393
-2.706325	D|G}JH E}EH
-0.8511091	D|G}JH E}IH	-0.9942114
-0.2570671	D|G}JH E}_	-1.035873
-2.706325	D|G}JH H}HH
-1.233444	D|G}JH I}IH	-1.257656
-2.371716	D|G}JH I}IY	-0.4256255
-2.010671	D|G}JH K}K	-0.6494279
-1.760532	D|G}JH L}L	-0.5114425
-1.797882	D|G}JH M}M	-0.2831381
-2.706325	D|G}JH P}P
-2.706325	D|G}JH R}R
-2.706325	D|G}JH S}S
-1.969746	D|G}JH W}W	-0.09859358
-1.70483	D|Z}JH E}EH
-1.70483	D|Z}JH E}IH
-1.370221	D|Z}JH H}_
-1.70483	D|Z}JH I}AH
-0.31627	D|Z}JH I}IH	-0.6924683
-0.7590371	D|Z}JH I}IY
-1.70483	D|Z}JH K}K
-1.70483	D|Z}JH O}OW
-1.70483	D|Z}JH W}V
-1.70483	D|Z}JH Y}IH
-1.859284	D}D '|S}Z	1.219707
-4.515017	D}D '}IH
-3.819362	D}D '}IY
-2.670524	D}D '}_	-0.6551656
-3.778438	D}D (}IY	0.3588021
-1.689385	D}D (}_	0.2310557
-3.819362	D}D -|B}B
-4.515017	D}D -|F}F
-4.180407	D}D -|G}G	-0.1657706
-3.778438	D}D -|H}HH	-0.1563245
-4.515017	D}D -|M}M
-4.515017	D}D -|S}S
-4.515017	D}D -|T}T
-4.515017	D}D -|Y}Y
-4.515017	D}D .}IY
-0.6627764	D}D </s>
-3.318342	D}D A|I}EH	0.4512789
-2.716282	D}D A|I}EY	0.1723609
-3.819362	D}D A|O}AW	-0.3192578
-2.874644	D}D A|R}ER	-0.1496152
-2.930161	D}D A|U}AO	-0.3295826
-3.231191	D}D A|U}AW	-0.1565898
-3.778438	D}D A|U}OW
-3.369494	D}D A|W}AO	-0.2161504
-2.328101	D}D A|Y}EY	-0.6369926
-1.801292	D}D A}AA	-0.2225503
-1.73983	D}D A}AE	-0.222305
-1.486543	D}D A}AH	-0.5379232
-3.096493	D}D A}AO	-0.8546863
-3.042135	D}D A}EH	-0.6844875
-1.940146	D}D A}EY	-0.7301272
-3.606573	D}D A}IH	-0.178703
-4.180407	D}D A}IY	-0.511126
-2.728516	D}D A}_	-0.6784418
-2.290313	D}D B}B	-0.2913339
-3.318342	D}D C|H}CH	-0.2781245
-2.704382	D}D C}K	-0.4941244
-4.515017	D}D C}S
-4.180407	D}D D}D
-2.415252	D}D D}_	-0.8087143
-3.778438	D}D E|-}AY	0.5064121
-2.68152	D}D E|A}IY	-0.3271837
-4.180407	D}D E|I}EY
-1.290766	D}D E|R}ER	-0.2034644
-3.193403	D}D E|U}OY	-0.3385594
-2.930161	D}D E|W}UW	-0.160868
-3.778438	D}D E|Y}EY	-0.1794185
-1.449762	D}D E}AH	-0.4949547
-1.307853	D}D E}EH	-0.3291941
-2.391771	D}D E}EY	-0.01003504
-1.383843	D}D E}IH	-0.8326718
-1.93214	D}D E}IY	-0.2416991
-1.455019	D}D E}_	-0.7280356
-2.409261	D}D F}F	-0.3593576
-2.874644	D}D G}G	-0.6517236
-4.515017	D}D G}JH
-2.386093	D}D H}HH	-0.1804272
-2.692801	D}D H}_	-0.4180087
-4.515017	D}D I|G}AY
-2.930161	D}D I|R}ER	-0.4539869
-4.180407	D}D I}AE	0.8382229
-2.208126	D}D I}AH	-0.2042417
-1.962954	D}D I}AY	-0.3387356
-4.515017	D}D I}EH
-1.142894	D}D I}IH	-0.3026918
-1.467083	D}D I}IY	-0.2529223
-3.231191	D}D I}Y	-0.1255473
-3.819362	D}D I}_
-3.819362	D}D J}JH
-4.180407	D}D J}Y	-0.4316352
-2.781222	D}D K}K	-0.5321251
-4.515017	D}D L|L}L
-2.085063	D}D L}AH|L	0.004165053
-1.819266	D}D L}L	-1.087422
-2.063069	D}D M}M	-0.7047932
-2.2432	D}D N}N	-0.7238323
-4.180407	D}D O|-}OW
-3.231191	D}D O|I}OY	-0.352283
-4.515017	D}D O|L}AO
-2.930161	D}D O|O}UW	-0.2041928
-2.68152	D}D O|R}ER	-0.2150738
-3.819362	D}D O|U}AO	0.5449204
-2.857611	D}D O|U}AW	-0.1797591
-2.795463	D}D O|U}UW	-0.5175763
-2.308796	D}D O|W}AW	-0.4866003
-2.75407	D}D O|W}OW	-0.1892076
-3.369494	D}D O|Y}OY	-0.120899
-1.805717	D}D O}AA	-0.3416332
-1.969388	D}D O}AH	-0.4140058
-1.84122	D}D O}AO	-0.3075614
-3.778438	D}D O}AW	-0.1706461
-3.819362	D}D O}IH	-0.3970116
-1.565866	D}D O}OW	-0.4206547
-3.193403	D}D O}UW	-0.3148146
-2.930161	D}D O}_	-0.7330981
-4.515017	D}D P|F}F
-4.515017	D}D P|H}F
-2.825426	D}D P}P	-0.2862526
-4.515017	D}D Q|U}K
-3.427486	D}D Q}K	0.0004302859
-4.515017	D}D R|Z}R
-2.892373	D}D R}ER	-0.1642115
-1.425012	D}D R}R	-1.168495
-3.778438	D}D R}_	-0.386867
-3.569223	D}D S|C}SH	0.7156111
-3.017312	D}D S|H}SH	-0.2138881
-4.180407	D}D S|S}S
-2.0551	D}D S}S	-0.6438576
-1.536188	D}D S}Z	-0.8081547
-4.515017	D}D S}_
-3.778438	D}D T|H}TH	-0.1699219
-2.781222	D}D T}T	-0.596267
-3.427486	D}D T}_	-0.640444
-4.515017	D}D U|I}UW
-2.704382	D}D U|R}ER	-0.2091867
-4.180407	D}D U|Y}AY	-0.4685619
-1.774274	D}D U}AH	-0.3182641
-3.427486	D}D U}IH	-0.316394
-2.639116	D}D U}UH	-0.9106016
-1.962954	D}D U}UW	-0.2881017
-3.272584	D}D U}W	-0.2184941
-3.042135	D}D U}Y|UW	-0.3342037
-4.180407	D}D U}_
-2.466404	D}D V}V	-0.4408982
-4.515017	D}D W}V
-2.132705	D}D W}W	-0.3891696
-4.515017	D}D W}_
-4.515017	D}D Y|-}IY
-2.487254	D}D Y}AY	-0.5647134
-2.892373	D}D Y}IH	-0.1446403
-1.952438	D}D Y}IY	-0.1728506
-3.369494	D}D Y}Y	-0.1236852
-3.042135	D}D Z}Z	-0.3604113
-3.606573	D}D _}AH	-0.1181244
-2.84122	D}D _}IY	-0.06388113
-3.369494	D}D _}IY|EH	-0.04336089
-4.180407	D}D _}Y	-0.4149399
-1.570581	D}JH I}_	-0.519981
-1.90519	D}JH O|O}UW
-1.90519	D}JH R}_
-1.209536	D}JH U|R}ER	-0.2407889
-0.4866666	D}JH U}AH	-1.035886
-1.570581	D}JH U}UH	-0.49407
-0.4586379	D}JH U}UW	-0.513839
-1.168611	D}JH U}Y|UW	-0.3867236
-1.90519	D}JH U}_
-1.90519	D}JH _}Y
-1.38856	D}T '}_
-0.6519815	D}T </s>
-1.053951	D}T A}AH	-0.3792506
-1.053951	D}T E|R}ER
-1.38856	D}T E}AH
-1.053951	D}T I}IH
-1.38856	D}T I}IY
-1.38856	D}T S}S
-2.345428	D}_ '|S}Z	-0.2361427
-2.345428	D}_ (}_	0.4573447
-3.041083	D}_ -|D}D
-3.041083	D}_ -|T}DH
-1.622559	D}_ </s>
-3.041083	D}_ A|U}AO
-2.706473	D}_ A}AH
-3.041083	D}_ A}IH
-3.041083	D}_ B}B
-3.041083	D}_ C|H}CH
-0.2989636	D}_ D}D	-0.5607985
-2.09529	D}_ E|R}ER	-0.1895671
-1.895561	D}_ E}AH	-0.1196532
-3.041083	D}_ E}EH
-3.041083	D}_ E}IH
-3.041083	D}_ E}IY
-3.041083	D}_ E}_
-2.345428	D}_ F}F	-0.6738483
-3.041083	D}_ I}AH
-1.652523	D}_ I}IH	-0.2270657
-2.304504	D}_ I}IY	-0.2966461
-1.293501	D}_ J}JH	-0.2800979
-2.345428	D}_ K}K	-0.251916
-1.543378	D}_ L}AH|L	-0.7253113
-2.304504	D}_ L}L	-0.1761413
-2.132639	D}_ N}N	-0.885214
-3.041083	D}_ O|W}OW
-2.345428	D}_ O}AH	0.1077909
-3.041083	D}_ P}P
-3.041083	D}_ R|Z}JH
-3.041083	D}_ R}R
-2.304504	D}_ S}S
-1.953553	D}_ S}Z	-0.7342703
-3.041083	D}_ T|H}TH
-0.6139592	D}_ T}T	-1.245828
-3.041083	D}_ W}W
-1.844408	D}_ Y}IY	-0.3256325
-0.2424323	E|(}AY 1|)}_
-0.0329586	E|-}AY I|S}_	-0.5355593
-2.912144	E|A}IY '|S}Z	0.5621705
-3.246754	E|A}IY (}_
-1.962929	E|A}IY </s>
-1.703291	E|A}IY B}B	-0.1603123
-1.288318	E|A}IY C|H}CH	-0.2815721
-2.004321	E|A}IY C}K	-0.4178735
-2.33831	E|A}IY C}S	-0.3299947
-1.296751	E|A}IY D}D	-0.4482965
-3.246754	E|A}IY D}_
-3.246754	E|A}IY F|F}F
-1.858193	E|A}IY F}F	-0.1160896
-1.962929	E|A}IY G|U}G	-1.101502
-1.256133	E|A}IY G}G	-0.4489436
-2.510175	E|A}IY G}JH	-0.1789533
-2.33831	E|A}IY H}HH	-0.1400808
-1.178247	E|A}IY K}K	-0.7651149
-2.300961	E|A}IY L|L}L	-0.4740053
-0.9708976	E|A}IY L}L	-0.6581647
-1.12926	E|A}IY M}M	-0.6473414
-2.912144	E|A}IY N|N}N
-1.04528	E|A}IY N}N	-0.415328
-3.246754	E|A}IY P|H}F
-1.725568	E|A}IY P}P	-0.1967209
-2.551099	E|A}IY Q}K	0.6590123
-1.381072	E|A}IY R}R	-0.4835469
-3.246754	E|A}IY R}_
-2.159223	E|A}IY S|H}SH	-0.1978585
-1.02205	E|A}IY S}S	-0.7123756
-1.191408	E|A}IY S}Z	-0.1252843
-2.551099	E|A}IY T|H}DH	-0.2070957
-1.82823	E|A}IY T|H}TH	-0.05714257
-2.551099	E|A}IY T|T}T
-3.246754	E|A}IY T}CH
-0.9914842	E|A}IY T}T	-0.4740213
-2.912144	E|A}IY T}_
-1.381072	E|A}IY V}V	-0.6077771
-2.33831	E|A}IY W}W
-3.246754	E|A}IY Y}IY
-2.101231	E|A}IY Z}Z	-0.2309975
-1.39043	E|D}T (}_	0.1863729
-2.955082	E|D}T -|U}AH
-0.01892275	E|D}T </s>
-0.2424323	E|E}IY1 </s>
-2.397768	E|I}EY '|S}Z
-1.702114	E|I}EY (}_	0.4573447
-2.397768	E|I}EY -|Y}Y
-0.757396	E|I}EY </s>
-2.397768	E|I}EY A}AA
-2.397768	E|I}EY A}AH
-2.397768	E|I}EY D}D
-2.063159	E|I}EY E|R}ER	-0.3069423
-0.5320867	E|I}EY G|H}_	-0.5065975
-1.310238	E|I}EY G}G	-0.4203123
-2.397768	E|I}EY G}ZH
-2.063159	E|I}EY I}IY	-0.5227129
-2.063159	E|I}EY J}JH	-0.5016137
-2.063159	E|I}EY J}ZH	-0.5144618
-1.661189	E|I}EY K}K	-0.4622914
-1.661189	E|I}EY L|L}L	-0.1405662
-1.661189	E|I}EY L}L
-2.397768	E|I}EY M}M
-0.8765824	E|I}EY N}N	-0.2598354
-2.063159	E|I}EY N}NG	-0.2430012
-2.397768	E|I}EY O}OW
-2.397768	E|I}EY P}P
-1.310238	E|I}EY R}R	-0.36005
-2.397768	E|I}EY S|H}SH
-2.397768	E|I}EY S|S}S
-2.063159	E|I}EY S}S
-1.702114	E|I}EY T}T
-2.063159	E|I}EY Y}Y
-0.7099734	E|J}EY </s>
-1.446552	E|J}EY A}AA
-1.446552	E|J}EY C|H}CH
-1.446552	E|J}EY D}D
-0.7508978	E|J}EY E}EH	-0.6886714
-1.446552	E|J}EY K}K
-1.446552	E|J}EY M}M
-1.111943	E|J}EY N}N
-1.446552	E|J}EY O}AA
-1.446552	E|J}EY S}S
-0.2424323	E|L}AH </s>
-0.2424323	E|M}EH S}S
-0.9414023	E|N}AH D}D
-0.6067927	E|N}AH E}_	-0.4940984
-0.9414023	E|N}AH F}F
-0.9414023	E|N}AH K|N}N
-0.8444923	E|N}EH A}AH
-0.8444923	E|N}EH D}D
-0.8444923	E|N}EH G}G
-0.8444923	E|N}EH T}T
-1.432031	E|R}ER '|S}Z	0.9728687
-4.335329	E|R}ER '}_
-1.593209	E|R}ER (}_	-0.7686199
-4.335329	E|R}ER -|A}EY
-4.335329	E|R}ER -|B}B
-4.335329	E|R}ER -|E}EH
-4.335329	E|R}ER -|G}JH
-4.335329	E|R}ER -|I}IH
-4.335329	E|R}ER -|M}M
-4.335329	E|R}ER -|P}P
-0.4059917	E|R}ER </s>
-4.335329	E|R}ER A|I}EY
-4.335329	E|R}ER A|R}ER
-4.335329	E|R}ER A|U}AO
-4.000719	E|R}ER A|U}AW
-4.335329	E|R}ER A|U}OW
-2.393926	E|R}ER A}AA	-0.2282764
-2.574382	E|R}ER A}AE	-0.7044815
-2.158398	E|R}ER A}AH	-0.3349422
-3.426885	E|R}ER A}AO	-0.2706913
-4.000719	E|R}ER A}EH	-0.1842524
-2.124413	E|R}ER A}EY	-0.9552088
-3.138654	E|R}ER A}IH	-0.7671248
-4.000719	E|R}ER A}_
-1.73687	E|R}ER B}B	-0.2746148
-2.661532	E|R}ER C|H}CH	-0.4439672
-4.335329	E|R}ER C|H}SH
-3.189806	E|R}ER C|I}SH	0.06174558
-4.000719	E|R}ER C|K}K
-3.639674	E|R}ER C|Q}K	0.2643188
-4.335329	E|R}ER C|Z}CH
-4.000719	E|R}ER C}CH
-2.153377	E|R}ER C}K	-0.1939835
-2.385326	E|R}ER C}S	-0.444802
-2.002991	E|R}ER D}D	-0.0341441
-3.598749	E|R}ER D}_	-0.5087348
-4.000719	E|R}ER E|A}IY
-2.411655	E|R}ER E|R}ER	-1.355723
-4.335329	E|R}ER E|Y}EH
-2.791866	E|R}ER E}AH	-0.3433483
-2.376893	E|R}ER E}EH	-0.2993858
-3.247798	E|R}ER E}EY	-0.286818
-3.189806	E|R}ER E}IH	-0.2527816
-3.138654	E|R}ER E}IY	-0.2651862
-1.911052	E|R}ER E}_	-0.9360991
-4.000719	E|R}ER F|F}F	-0.3818962
-1.999474	E|R}ER F}F	-0.5408589
-4.335329	E|R}ER G|G}G
-4.335329	E|R}ER G|N}N
-1.400049	E|R}ER G}G	-0.6953793
-2.385326	E|R}ER G}JH	0.3433036
-4.335329	E|R}ER G}ZH
-2.189806	E|R}ER H}HH	-0.3492429
-4.335329	E|R}ER H}_
-3.247798	E|R}ER I}AH	-0.2364372
-2.712685	E|R}ER I}AY	-0.9197975
-1.746543	E|R}ER I}IH	-0.7498695
-2.217835	E|R}ER I}IY	-0.5344511
-4.335329	E|R}ER I}_
-3.189806	E|R}ER J}JH	-0.2006629
-4.335329	E|R}ER K|K}K
-2.092896	E|R}ER K}K	-0.2963631
-2.837624	E|R}ER L}AH|L	-0.7253113
-1.70373	E|R}ER L}L	-0.7011881
-1.495201	E|R}ER M}M	-0.9471583
-4.335329	E|R}ER N|-}N
-4.335329	E|R}ER N|N}N
-1.612889	E|R}ER N}N	-0.2439176
-4.000719	E|R}ER N}_	-0.4505896
-4.000719	E|R}ER O|I}OY
-4.335329	E|R}ER O|O}UW
-3.598749	E|R}ER O|R}ER	-0.4009723
-3.598749	E|R}ER O|U}UW	-0.1715992
-4.335329	E|R}ER O|W}AW
-3.598749	E|R}ER O|W}OW	-0.4426359
-3.639674	E|R}ER O|Y}OY	-0.5830581
-2.862447	E|R}ER O}AA	-0.3251241
-3.013715	E|R}ER O}AH	0.1083806
-3.013715	E|R}ER O}AO	-0.386707
-2.587746	E|R}ER O}OW	-0.04792637
-3.247798	E|R}ER O}_	-0.27658
-2.088575	E|R}ER P}P	-0.2689049
-3.639674	E|R}ER Q|U}K	-0.004390657
-3.189806	E|R}ER Q}K	-0.02199429
-2.393926	E|R}ER R}R	-0.2319405
-2.173818	E|R}ER R}_	-0.7248928
-2.862447	E|R}ER S|C}SH	0.6307842
-2.393926	E|R}ER S|H}SH	-0.281042
-4.000719	E|R}ER S|I}SH	-0.4509543
-3.247798	E|R}ER S|I}ZH	0.4789509
-3.639674	E|R}ER S|S}S	-0.6729475
-4.335329	E|R}ER S|Z}SH
-1.4974	E|R}ER S}S	-0.4638629
-4.335329	E|R}ER S}SH
-0.8704396	E|R}ER S}Z	-1.452294
-4.000719	E|R}ER S}_	-0.5118921
-4.000719	E|R}ER T|H}DH
-2.661532	E|R}ER T|H}TH	-0.1950373
-4.000719	E|R}ER T|I}SH	0.4059139
-3.639674	E|R}ER T|S}_	-0.3786746
-4.335329	E|R}ER T}CH
-4.335329	E|R}ER T}SH
-1.32872	E|R}ER T}T	-0.5522133
-4.335329	E|R}ER T}_
-3.639674	E|R}ER U}AH
-4.335329	E|R}ER U}IH
-3.092896	E|R}ER U}UW	-0.06051634
-3.598749	E|R}ER U}Y|UW	-0.361514
-1.91971	E|R}ER V}V	-0.1767129
-3.639674	E|R}ER W}HH|W	0.838993
-4.000719	E|R}ER W}V
-2.314745	E|R}ER W}W	-0.1944788
-3.138654	E|R}ER W}_	-0.5256716
-3.639674	E|R}ER X}K|S
-4.335329	E|R}ER Y}IH
-2.212082	E|R}ER Y}IY	-0.2593613
-4.335329	E|R}ER Y}Y
-4.000719	E|R}ER Z}T|S	-0.5063914
-2.645738	E|R}ER Z}Z	-0.07993174
-4.335329	E|R}ER _}EH
-4.335329	E|R}ER _}R|T
-0.2424323	E|U}AY S}Z
-0.2424323	E|U}ER R}R
-2.093691	E|U}OY </s>
-2.093691	E|U}OY A}AA
-1.00616	E|U}OY B}B	-0.2921483
-1.398036	E|U}OY C}K
-1.759081	E|U}OY D}D
-0.9481683	E|U}OY E|R}ER	-0.1544754
-1.357112	E|U}OY F}F	-0.1839118
-1.759081	E|U}OY G}G	-0.4977022
-1.357112	E|U}OY L}L	-0.1807307
-1.357112	E|U}OY N}N	-0.1608337
-1.759081	E|U}OY P}P
-1.398036	E|U}OY R}R	-0.2356816
-1.759081	E|U}OY S|C}SH
-1.759081	E|U}OY S|S}S	-0.5010533
-1.185247	E|U}OY S}S	-0.27811
-1.759081	E|U}OY S}Z	0.0737505
-1.759081	E|U}OY T|H}TH
-1.00616	E|U}OY T|S}_	-0.6205688
-2.093691	E|U}OY T|T}T
-0.9481683	E|U}OY T}T	-0.3198092
-2.093691	E|U}OY V}V
-1.839464	E|W}UW '|S}Z	0.5151199
-2.785258	E|W}UW (}_
-2.450648	E|W}UW -|M}M	-0.4293028
-2.089603	E|W}UW -|Y}Y	-0.2090537
-0.8438554	E|W}UW </s>
-1.588583	E|W}UW A|R}ER	-0.1656204
-2.450648	E|W}UW A}AA
-2.785258	E|W}UW A}AE
-1.501433	E|W}UW A}AH	-0.01872784
-2.450648	E|W}UW A}AO	-0.3826181
-2.450648	E|W}UW A}EH
-2.785258	E|W}UW A}EY
-2.785258	E|W}UW A}IH
-2.785258	E|W}UW A}_
-1.264072	E|W}UW B}B	-0.08521716
-2.785258	E|W}UW C|Z}CH
-1.697727	E|W}UW C}K	-0.3766573
-2.785258	E|W}UW D}D
-1.312376	E|W}UW E|R}ER	-0.3994493
-1.396697	E|W}UW E}AH	-0.3430415
-2.450648	E|W}UW E}EH	-0.486444
-1.839464	E|W}UW E}IH	-0.2905778
-1.127852	E|W}UW E}_	-0.08079359
-2.089603	E|W}UW F}F
-2.089603	E|W}UW G}G	-0.2637247
-2.048679	E|W}UW H}HH	-0.1462674
-2.450648	E|W}UW I}AH	-0.4797566
-1.080427	E|W}UW I}IH	-0.6100595
-2.785258	E|W}UW I}IY
-2.048679	E|W}UW K}K
-1.639735	E|W}UW L}L	-0.06316635
-1.588583	E|W}UW M}M	-0.2275584
-2.450648	E|W}UW N}N
-2.785258	E|W}UW O|R}ER
-2.450648	E|W}UW O}OW	-0.4665979
-2.048679	E|W}UW P}P	-0.3840166
-2.785258	E|W}UW Q}K
-2.089603	E|W}UW R}R	-0.683973
-2.785258	E|W}UW S|H}SH
-1.428882	E|W}UW S}S	-0.8641554
-0.7366455	E|W}UW S}Z	0.07763869
-2.048679	E|W}UW T}T
-2.785258	E|W}UW U}W
-2.450648	E|W}UW V}V
-2.785258	E|W}UW W}W
-2.785258	E|W}UW Y}IY
-2.785258	E|W}UW _}F
-1.321614	E|Y}EH E|R}ER
-1.321614	E|Y}EH E}_
-1.321614	E|Y}EH K}K
-0.625959	E|Y}EH N}N	-0.6874432
-0.3758203	E|Y}EH R}R	-0.2126597
-1.789816	E|Y}EY '|S}Z	0.8124395
-2.48547	E|Y}EY (}_
-0.7115591	E|Y}EY </s>
-2.48547	E|Y}EY A|R}ER
-1.789816	E|Y}EY A}AH	-0.1535294
-1.577027	E|Y}EY B}B
-2.48547	E|Y}EY C|H}SH
-2.48547	E|Y}EY C}K
-1.243038	E|Y}EY D}D	-0.1109864
-1.066947	E|Y}EY E|R}ER	-0.6466885
-1.748891	E|Y}EY E}_	-0.5931771
-1.339948	E|Y}EY F}F	-0.1446572
-2.48547	E|Y}EY G}G
-2.150861	E|Y}EY H}HH
-2.150861	E|Y}EY H}_
-2.150861	E|Y}EY I}AH	-0.5187806
-1.288796	E|Y}EY I}IH	-0.6629069
-2.48547	E|Y}EY I}IY
-2.48547	E|Y}EY K}K
-2.48547	E|Y}EY L|L}L
-1.339948	E|Y}EY L}L	-0.3407583
-1.201645	E|Y}EY M}M	-0.502228
-0.9642844	E|Y}EY N}N	-0.3475402
-2.150861	E|Y}EY O|R}ER
-2.48547	E|Y}EY O}AO
-1.748891	E|Y}EY O}OW	-0.05181684
-1.789816	E|Y}EY R}R	-0.2356816
-1.748891	E|Y}EY S}S
-1.201645	E|Y}EY S}Z	-0.2195707
-1.748891	E|Y}EY T}T	-0.4918179
-2.48547	E|Y}EY V}V
-2.150861	E|Y}EY W}W
-0.5434623	E|Z}EY (}_
-0.5434623	E|Z}EY </s>
-1.670629	E} -}IY	-0.6266136
-2.366284	E} .}IY
-2.031674	E} A|U}OW
-2.366284	E} A}AH
-1.629705	E} A}EH
-2.366284	E} A}EY
-1.123852	E} A}IH	-0.7793593
-2.031674	E} E}IY	-0.5028367
-2.366284	E} I|R}ER
-0.146128	E} I}AY	-0.5737356
-2.031674	E} I}IY
-1.169609	E} Y}AY	-0.9678824
-2.031674	E} Y}IY	-0.5219547
-0.8111098	E}AA </s>
-1.719554	E}AA M}M
-0.1983677	E}AA N}N	-0.4199756
-1.023899	E}AA R}R	-0.2700356
-1.719554	E}AA S}Z
-1.719554	E}AA V}V
-0.5434623	E}AE G}G
-0.5434623	E}AE N}N
-2.523404	E}AH '|S}Z	2.143285
-3.308011	E}AH '}_	-0.3933626
-3.098797	E}AH (}_	0.5767128
-2.211093	E}AH </s>
-1.950899	E}AH B}B	-0.3813507
-4.04459	E}AH C|C}K
-3.70998	E}AH C|H}CH
-3.70998	E}AH C|K}K
-4.04459	E}AH C}CH
-1.910063	E}AH C}K	-0.0581519
-2.479939	E}AH C}S	-0.2544353
-4.04459	E}AH D|-}D
-3.70998	E}AH D|G}JH	-0.1735553
-1.275818	E}AH D}D	-0.9514621
-3.348936	E}AH F|F}F
-2.158705	E}AH F}F	-0.2390436
-4.04459	E}AH G|U}G
-1.83837	E}AH G}G	-0.6238729
-2.95706	E}AH G}JH
-4.04459	E}AH G}ZH
-2.626066	E}AH H}HH	-0.1499501
-3.098797	E}AH H}_	-0.3180148
-2.899068	E}AH J}JH	-0.2403935
-3.70998	E}AH J}Y	-0.5080235
-2.459735	E}AH K}K	-0.1044122
-1.263082	E}AH L|L}L	-1.243125
-0.7059432	E}AH L}L	-0.8063349
-1.546885	E}AH M}M	-0.2739538
-3.348936	E}AH N|-}N
-2.95706	E}AH N|N}N	-0.2929365
-0.3923936	E}AH N}N	-0.8195864
-3.70998	E}AH N}NG	-0.4773197
-2.598038	E}AH P|H}F	-0.19701
-4.04459	E}AH P|P}P
-2.370794	E}AH P}P	-0.1984654
-4.04459	E}AH Q|U}K
-3.136146	E}AH Q}K	0.0206368
-2.571709	E}AH R}R	-0.2106466
-2.847915	E}AH R}_	0.2137154
-4.04459	E}AH S|C}SH
-3.70998	E}AH S|H}SH
-1.662279	E}AH S|S}S	-0.7998912
-1.412992	E}AH S}S	-0.6248201
-1.370794	E}AH S}Z	-0.9136842
-3.348936	E}AH S}_	-0.1323473
-4.04459	E}AH T|-}T
-2.722976	E}AH T|H}TH	-0.1610849
-2.270679	E}AH T|T}T	-0.575793
-1.347313	E}AH T}T	-0.3225313
-1.888344	E}AH V}V	-0.2929685
-3.70998	E}AH W}V	-0.2592776
-2.626066	E}AH W}W	-0.3384822
-3.348936	E}AH X}G|Z	-0.0654303
-4.04459	E}AH X}K
-2.459735	E}AH X}K|S	-1.217942
-2.802158	E}AH Z}Z	-0.03724394
-0.685974	E}AO N}N
-0.324929	E}AO V}F	-0.2271679
-1.020584	E}AO V}V
-4.406339	E}EH '|S}Z
-4.406339	E}EH (}_
-3.209664	E}EH </s>
-2.686785	E}EH B|B}B	-0.1809711
-3.460546	E}EH B|T}T	-0.1626445
-1.933457	E}EH B}B	-0.3619666
-3.710684	E}EH C|C}CH	0.4016958
-2.783695	E}EH C|C}K	-0.3044315
-2.748933	E}EH C|H}CH	-0.2960471
-4.406339	E}EH C|H}HH
-3.66976	E}EH C|H}SH	-0.1701232
-4.071729	E}EH C|I}CH
-3.460546	E}EH C|I}SH	-0.1544574
-1.709062	E}EH C|K}K	0.2514826
-4.071729	E}EH C|Q}K	0.4307376
-3.209664	E}EH C}CH	-0.4187773
-4.406339	E}EH C}JH
-1.334603	E}EH C}K	-0.7060574
-2.821484	E}EH C}S	-0.4106024
-2.908634	E}EH C}T|S	-0.3454491
-3.710684	E}EH C}_	-0.1468237
-4.071729	E}EH D|-}D	-0.4505896
-2.464936	E}EH D|G}JH	0.3614767
-1.404994	E}EH D}D	-0.4508718
-2.987815	E}EH D}JH	0.03508782
-4.406339	E}EH D}T
-2.364566	E}EH D}_	-0.9319048
-2.168271	E}EH F|F}F	-0.1714793
-2.103209	E}EH F}F	-0.3279726
-4.406339	E}EH F}V
-2.530438	E}EH G|G}G	-0.006120801
-3.710684	E}EH G|G}JH	-0.2275258
-4.406339	E}EH G|T}T
-4.406339	E}EH G|U}G
-1.7783	E}EH G}G	-0.5174142
-2.645392	E}EH G}JH	-0.5134703
-4.071729	E}EH G}K	-0.4489497
-2.530438	E}EH H}HH	-0.2433324
-1.896735	E}EH H}_	-1.220843
-3.260816	E}EH J}JH
-4.406339	E}EH J}Y
-4.406339	E}EH J}ZH
-3.260816	E}EH K|K}K	-0.05193413
-1.783695	E}EH K}K	-0.6652855
-1.087266	E}EH L|L}L	-0.44251
-4.406339	E}EH L|L}_
-0.9775152	E}EH L}L	-0.5388697
-4.406339	E}EH M|B}M
-2.288845	E}EH M|M}M	-0.4133638
-4.071729	E}EH M|N}M
-3.497895	E}EH M|P}M	-0.2369769
-1.368722	E}EH M}M	-0.7242272
-4.406339	E}EH N|-}N
-2.415718	E}EH N|G}NG	0.1517301
-1.730937	E}EH N|N}N	-0.08518803
-0.8018011	E}EH N}N	-0.4043542
-2.040055	E}EH N}NG	-0.186487
-4.406339	E}EH O}OW
-2.908634	E}EH O}_	-0.5429606
-2.748933	E}EH P|H}F	-0.434092
-2.239627	E}EH P|P}P	-0.1377554
-1.823462	E}EH P}P	-0.4819532
-3.710684	E}EH Q|U}K	-0.004390657
-2.841687	E}EH Q}K	-0.4101745
-1.295262	E}EH R}R	-0.6276699
-1.64016	E}EH R}_	-1.909822
-2.551123	E}EH S|C}SH	0.5743028
-2.294675	E}EH S|H}SH	-0.2902437
-1.614903	E}EH S|S}S	-0.1784314
-3.163906	E}EH S|S}SH	-0.8096683
-4.071729	E}EH S|Z}SH
-1.167833	E}EH S}S	-0.5196766
-3.710684	E}EH S}SH	-0.1956311
-2.103209	E}EH S}Z	-0.09870285
-3.66976	E}EH S}ZH	-0.3882921
-2.520454	E}EH S}_	-0.8458715
-3.497895	E}EH T|-}T	-0.09041387
-2.821484	E}EH T|H}DH	-0.9420543
-2.214516	E}EH T|H}TH	-0.2528948
-4.406339	E}EH T|I}SH
-3.209664	E}EH T|S}_	-0.6887509
-1.429107	E}EH T|T}T	-0.4422443
-3.66976	E}EH T}CH	-0.3811921
-4.071729	E}EH T}SH	-0.4179948
-1.396751	E}EH T}T	-0.5901042
-2.748933	E}EH T}_	-0.8636174
-4.406339	E}EH V|V}V
-3.460546	E}EH V}F	-0.07138892
-1.573957	E}EH V}V	-0.5212671
-2.540657	E}EH W}F	0.6908139
-4.071729	E}EH W}V	-0.2592776
-2.933458	E}EH W}W	-0.1414085
-4.406339	E}EH W}_
-3.260816	E}EH X}G|Z	-0.02578515
-2.885153	E}EH X}K	0.2639105
-1.673948	E}EH X}K|S	-0.2079383
-3.710684	E}EH X}K|SH	0.5813752
-4.071729	E}EH X}_	-0.5052555
-4.406339	E}EH Y}Y
-3.122514	E}EH Z|Z}Z	-0.2485634
-3.66976	E}EH Z}T	1.2893
-1.93602	E}EH Z}Z	-0.6959959
-4.071729	E}EH _}K	-0.362912
-0.2048234	E}ER R}R	-0.1841118
-0.9414023	E}ER T|T}T
-1.698459	E}EY '|S}Z	2.181756
-1.724788	E}EY (}_	-0.05685163
-0.8319977	E}EY </s>
-2.83673	E}EY A}AA
-1.814964	E}EY A}AH	-0.4222272
-1.673635	E}EY B}B	-0.2508663
-3.17134	E}EY C|H}CH
-2.025818	E}EY C}K	-0.4848859
-3.17134	E}EY C}S
-1.015094	E}EY D}D	-0.9009925
-3.17134	E}EY F}F
-3.17134	E}EY G|G}G
-3.17134	E}EY G|U}G
-1.285455	E}EY G}G	-0.320659
-2.475685	E}EY G}JH	-0.6207392
-2.83673	E}EY G}ZH	-0.4933084
-1.974665	E}EY H}HH	-0.08245333
-1.849726	E}EY H}_	-0.4461497
-2.225547	E}EY I|G}_	-0.2410266
-3.17134	E}EY I}AH
-2.475685	E}EY I}IH	-0.2493405
-1.974665	E}EY I}IY	-0.2740965
-2.83673	E}EY J}HH
-2.475685	E}EY J}JH	-0.2513447
-1.548696	E}EY J}Y	-0.5163052
-3.17134	E}EY J}ZH
-2.025818	E}EY K}K	-0.1696534
-1.437546	E}EY L|L}L	-1.008475
-1.26615	E}EY L}L	-0.5447756
-1.586485	E}EY M}M	-0.2299637
-3.17134	E}EY N|G}NG
-2.83673	E}EY N|N}N
-1.048094	E}EY N}N	-0.3602974
-2.262896	E}EY N}NG	-0.2112898
-2.83673	E}EY O}AH
-2.83673	E}EY O}AO
-1.78278	E}EY O}OW	-0.171957
-1.849726	E}EY P}P	-0.167822
-2.262896	E}EY Q}K	0.0206368
-2.83673	E}EY R}ER	-0.4954762
-2.262896	E}EY R}R	-0.2742074
-1.814964	E}EY R}_	-0.7626325
-2.434761	E}EY S|H}SH	-0.134917
-3.17134	E}EY S|S}S
-1.326848	E}EY S}S	-0.1794401
-1.305658	E}EY S}Z	-0.3437735
-1.928908	E}EY S}_	-0.2437686
-2.83673	E}EY T|T}T	-0.5144026
-3.17134	E}EY T}D
-1.513934	E}EY T}T	-0.4703325
-2.83673	E}EY U}AH	-0.4689056
-3.17134	E}EY U}UW
-1.275695	E}EY V}V	-0.546168
-2.83673	E}EY X}K|S
-3.17134	E}EY Y}IH
-3.17134	E}EY Y}Y
-1.650154	E}EY Z}Z	-0.2971358
-3.17134	E}EY _}AH
-1.743427	E}IH '|S}Z	1.652409
-3.963583	E}IH (}_
-3.267929	E}IH </s>
-3.267929	E}IH A}AA	-0.6413357
-1.743427	E}IH B}B	-0.3543096
-3.267929	E}IH C|H}HH	-0.2227235
-3.628973	E}IH C|H}SH
-2.202637	E}IH C|K}K	-0.5374868
-3.01779	E}IH C}CH	-0.06361508
-1.556798	E}IH C}K	-0.4198627
-2.030955	E}IH C}S	-0.7982671
-2.442397	E}IH D|G}JH	-0.627774
-3.963583	E}IH D|Z}JH
-0.8020728	E}IH D}D	-1.169427
-3.227004	E}IH D}_	-0.2734818
-3.963583	E}IH E}_
-3.01779	E}IH F|F}F	-0.2317979
-1.54506	E}IH F}F	-0.3578734
-3.227004	E}IH G|G}G	-0.3387551
-3.267929	E}IH G|U}G	-0.2270356
-1.807337	E}IH G}G	-0.2326487
-2.442397	E}IH G}JH	-0.4086519
-3.628973	E}IH G}ZH
-2.177083	E}IH H}HH	-0.1487949
-3.01779	E}IH H}_	-0.2730155
-2.575023	E}IH J}JH	-0.3020268
-3.963583	E}IH J}ZH
-1.597299	E}IH K}K	-0.7878104
-2.465878	E}IH L|L}L	-0.08645204
-1.170923	E}IH L}L	-0.4670537
-3.628973	E}IH M|M}M
-1.511636	E}IH M}M	-0.4320192
-2.54506	E}IH N|G}NG	-0.5252789
-2.54506	E}IH N|N}N	-0.3548542
-0.9879536	E}IH N}N	0.02189648
-2.54506	E}IH N}NG	-0.975803
-3.963583	E}IH O|I}OY
-3.963583	E}IH O}OW
-3.227004	E}IH P|H}F	-0.1748218
-3.267929	E}IH P|P}P	-0.2147338
-1.627729	E}IH P}P	-0.5727532
-3.963583	E}IH Q|U}K
-2.378728	E}IH Q}K	-0.6134104
-1.307851	E}IH R}R	-0.4295697
-3.267929	E}IH R}_	-0.07599968
-2.721151	E}IH S|H}SH	-0.3149682
-1.943	E}IH S|S}S	-0.4484768
-3.628973	E}IH S|Z}SH	-0.4353689
-1.372846	E}IH S}S	-0.3026783
-0.7821311	E}IH S}Z	-1.295487
-2.679758	E}IH S}_	-0.4233828
-2.130086	E}IH T|H}TH	-0.7792806
-1.357539	E}IH T|T}T	-1.09149
-1.392771	E}IH T}T	-0.4330305
-1.600577	E}IH V}V	-0.291799
-3.628973	E}IH W}V	-0.2592776
-2.679758	E}IH W}W	-0.3427674
-1.980788	E}IH X}G|Z	-0.09655809
-2.721151	E}IH X}K	-0.7561569
-1.762109	E}IH X}K|S	-1.038493
-3.963583	E}IH Y}Y
-2.54506	E}IH Z}Z	-0.1910226
-1.871726	E}IY '|S}Z	1.842289
-3.899488	E}IY (}IY
-1.93278	E}IY (}_	-0.5770074
-0.7496445	E}IY </s>
-3.899488	E}IY A|N}AE
-2.543113	E}IY A|R}ER	-0.3774833
-3.162909	E}IY A|U}AO	-0.6163974
-2.811958	E}IY A}AA	-0.1351308
-2.023587	E}IY A}AE	-0.762359
-1.409083	E}IY A}AH	-0.5227498
-3.162909	E}IY A}AO	-0.4544057
-2.165694	E}IY A}EY	-0.7186168
-3.564879	E}IY A}IH	-0.2906298
-3.899488	E}IY B|B}B
-1.640023	E}IY B}B	-0.1499941
-2.225692	E}IY C|H}CH	-0.1173012
-3.899488	E}IY C|I}SH
-3.203834	E}IY C|K}K	-0.1019003
-3.899488	E}IY C}CH
-1.567151	E}IY C}K	-0.7803338
-2.003843	E}IY C}S	-0.2408585
-2.753966	E}IY C}SH	-0.3296399
-1.213011	E}IY D}D	-0.366106
-3.162909	E}IY D}JH	-0.3668555
-2.811958	E}IY E|R}ER	-0.4360808
-2.702813	E}IY E}EH	-0.5550196
-2.480965	E}IY E}IH	-0.4630598
-2.023587	E}IY E}_	-0.3296733
-2.991045	E}IY F|F}F	-0.5711047
-1.871726	E}IY F}F	-0.2623236
-2.577875	E}IY G|I}JH	-0.7411186
-3.899488	E}IY G|U}G
-1.753966	E}IY G}G	-0.3840746
-2.334836	E}IY G}JH	-0.2373531
-2.065991	E}IY H}HH	-0.2586638
-2.334836	E}IY H}_	-0.3751295
-3.162909	E}IY I}AH	-0.1174784
-3.899488	E}IY I}EH
-1.871726	E}IY I}IH	-0.572574
-3.899488	E}IY I}Y
-2.378302	E}IY J}JH	-0.2832566
-1.764961	E}IY K}K	-0.4294767
-3.899488	E}IY K}K|EY
-3.564879	E}IY L|L}L
-1.332773	E}IY L}L	-0.4760196
-1.458399	E}IY M}M	-0.3556878
-3.899488	E}IY N|N}N
-1.019566	E}IY N}N	-0.610802
-3.899488	E}IY N}NG
-2.657056	E}IY O|R}ER	-0.1351502
-3.899488	E}IY O|U}UW
-3.899488	E}IY O|W}AW
-3.203834	E}IY O|W}OW
-3.564879	E}IY O|Y}OY	-0.4835861
-2.194658	E}IY O}AA	-0.2706773
-1.96686	E}IY O}AH	-0.2344394
-2.426607	E}IY O}AO	0.09408364
-1.683928	E}IY O}OW	-0.3570815
-2.577875	E}IY O}_	-0.7186603
-3.564879	E}IY P|H}F
-2.953695	E}IY P|H}V	-0.02903742
-1.486794	E}IY P}P	-0.3760948
-3.564879	E}IY Q|U}K	-0.2546597
-2.295328	E}IY Q}K	-0.447963
-1.871726	E}IY R}R	-0.4573424
-3.899488	E}IY S|C}SH
-2.615663	E}IY S|H}SH	-0.4184835
-2.615663	E}IY S|I}ZH	-0.8727254
-2.991045	E}IY S|S}S	-0.2279679
-1.486794	E}IY S}S	-0.3005208
-3.899488	E}IY S}SH
-1.202211	E}IY S}Z	-0.08941329
-3.203834	E}IY S}_
-3.899488	E}IY T|H}DH
-2.543113	E}IY T|H}TH	-0.1723969
-2.991045	E}IY T|I}SH	0.5178407
-3.564879	E}IY T|T}T
-3.899488	E}IY T}CH
-3.162909	E}IY T}SH	-0.5242683
-1.245436	E}IY T}T	-0.337021
-3.899488	E}IY T}_
-3.899488	E}IY U|I}UW
-2.657056	E}IY U}AH	-0.8078415
-2.811958	E}IY U}UW	-0.3112783
-1.399377	E}IY V}V	-0.671178
-2.543113	E}IY W}W	-0.3261886
-3.162909	E}IY W}_	-0.1554501
-3.899488	E}IY X}K|S
-3.899488	E}IY Y}Y
-3.899488	E}IY Z|I}SH
-2.378302	E}IY Z}Z	-0.2301708
-3.899488	E}IY _}AA
-3.899488	E}IY _}IH
-3.162909	E}IY _}IY|EH	-0.1291104
-0.05799195	E}W E}IY	-1.346024
-1.111943	E}W O}AH	-0.1424781
-1.420348	E}Y </s>
-2.328792	E}Y A}AH
-0.8310874	E}Y U}UH	-0.958522
-0.0995881	E}Y U}UW	-0.4624656
-2.328792	E}Y W|_}UW
-0.2424323	E}Y|UW W}W
-1.735052	E}_ '|S}Z	1.067653
-4.543332	E}_ '}IH
-2.323176	E}_ '}_	-1.12112
-1.884259	E}_ (}_	0.1762722
-4.543332	E}_ -|A}AH
-4.543332	E}_ -|B}B
-4.543332	E}_ -|C}CH
-4.543332	E}_ -|C}K
-3.634888	E}_ -|D}D	-0.2724807
-4.543332	E}_ -|E}IH
-4.543332	E}_ -|E}T
-4.543332	E}_ -|E}UH
-4.543332	E}_ -|F}F
-4.208723	E}_ -|G}G	-0.1657706
-4.543332	E}_ -|I}IH
-3.806753	E}_ -|M}M	-0.09302888
-4.543332	E}_ -|N}N
-4.208723	E}_ -|O}AO	-0.159115
-4.208723	E}_ -|O}OW
-4.543332	E}_ -|P}P
-4.543332	E}_ -|R}ER
-4.208723	E}_ -|S}S
-4.543332	E}_ -|S}SH
-4.208723	E}_ -|T}T
-4.543332	E}_ -|U}AH
-4.543332	E}_ -|V}V
-4.208723	E}_ -|Y}Y	-0.2092874
-3.847677	E}_ -}AH
-3.806753	E}_ -}EY
-3.346657	E}_ -}IY
-4.208723	E}_ -}TH	-0.1474528
-0.571249	E}_ </s>
-4.208723	E}_ A|N}AE	-0.09011787
-2.425838	E}_ A|R}ER	-0.4770765
-3.847677	E}_ A|U}AW	-0.2721585
-2.015342	E}_ A|U}OW	-0.4771327
-4.208723	E}_ A|Y}EY	-0.3851403
-2.90296	E}_ A}	-1.317252
-2.756832	E}_ A}AA	-0.7395214
-3.39781	E}_ A}AE	-0.07335435
-2.501559	E}_ A}AH	-0.1772042
-3.634888	E}_ A}AO	-0.1281477
-1.818026	E}_ A}EH	-0.8999029
-2.60193	E}_ A}EY	-0.5931267
-2.167361	E}_ A}IH	-2.129626
-3.847677	E}_ A}Y	-0.152557
-3.39781	E}_ A}_	-0.1507286
-3.806753	E}_ B|B}B	-0.1449747
-1.950652	E}_ B}B	-0.3225939
-3.221719	E}_ C|H}CH	-0.1078949
-3.847677	E}_ C|H}HH	-0.2227235
-2.709835	E}_ C|K}K	-0.5634539
-3.597539	E}_ C|Z}CH	-0.1549642
-4.543332	E}_ C}CH
-2.51557	E}_ C}K	-0.4761478
-3.221719	E}_ C}S	-0.2135929
-3.847677	E}_ C}T|S	0.2198996
-4.543332	E}_ C}_
-4.543332	E}_ D|G}JH
-4.543332	E}_ D|Z}JH
-1.092458	E}_ D}D	-1.354861
-4.543332	E}_ D}JH
-3.806753	E}_ D}_	-0.5087348
-4.208723	E}_ E}EH	-0.448903
-3.455802	E}_ E}EY	-0.2863386
-2.267476	E}_ E}IH	-1.757917
-1.18396	E}_ E}IY	-1.065811
-3.39781	E}_ E}_	-0.3450438
-3.186956	E}_ F|F}F	-0.2399347
-2.296578	E}_ F}F	-0.2741536
-3.346657	E}_ G|G}G	-0.3485104
-3.847677	E}_ G|U}G	-0.6370246
-2.271516	E}_ G}G	-0.3397796
-3.455802	E}_ G}JH	-0.3397986
-3.847677	E}_ H}	-0.6552479
-2.356417	E}_ H}HH	-0.5098926
