
\data\
ngram 1=42
ngram 2=1347
ngram 3=15963

\1-grams:
-0.972552	</s>
-99	<s>	-5.019959
-1.698568	AA	-3.598264
-1.759661	AE	-3.828745
-1.252568	AH	-4.654962
-2.037452	AO	-3.606696
-2.570997	AW	-3.093983
-2.041718	AY	-3.213639
-1.773432	B	-3.510974
-2.407607	CH	-2.891085
-1.589082	D	-3.567582
-3.334632	DH	-2.685295
-1.658857	EH	-4.159311
-1.637756	ER	-3.517627
-1.965712	EY	-3.169872
-1.957847	F	-3.21913
-1.965038	G	-3.336234
-2.130137	HH	-4.849769
-1.39927	IH	-4.24349
-1.559535	IY	-3.681958
-2.299016	JH	-2.90004
-1.468468	K	-3.670291
-1.403978	L	-3.751101
-1.629337	M	-3.528793
-1.315257	N	-3.839141
-2.102199	NG	-3.347686
-1.817852	OW	-3.428205
-2.998609	OY	-3.313238
-1.803109	P	-3.473584
-1.434823	R	-3.689816
-1.400886	S	-3.734105
-2.157241	SH	-3.453212
-0.671522	SIL	-4.771753
-1.412398	T	-3.74434
-2.635813	TH	-2.701537
-2.736346	UH	-4.216021
-2.105866	UW	-3.140243
-2.0697	V	-3.236341
-2.148294	W	-3.640824
-2.384163	Y	-4.596835
-1.653939	Z	-3.680063
-3.352267	ZH	-2.747497

\2-grams:
-3.264182e-06	<s> SIL	-4.822063
-3.887737	AA AA
-3.443784	AA AH	-0.2484748
-4.096997	AA AO
-4.096997	AA AY
-1.598686	AA B	-1.718886
-2.036299	AA CH	-2.35254
-1.473748	AA D	-1.988007
-2.818243	AA DH	-0.6375415
-3.494937	AA EH	-1.314911
-3.555893	AA ER	-1.331663
-4.398027	AA EY
-1.86911	AA F	-1.428658
-1.642915	AA G	-2.841707
-2.473747	AA HH	-2.279665
-3.167578	AA IH	-1.644747
-2.716786	AA IY	-2.508952
-2.010637	AA JH	-1.833633
-1.146145	AA K	-1.171931
-0.9990458	AA L	-1.457223
-1.215042	AA M	-2.127945
-0.7694336	AA N	-1.00728
-1.979726	AA NG	-2.171816
-3.017816	AA OW	-1.677738
-4.398027	AA OY
-1.447175	AA P	-2.043875
-0.5934786	AA R	-2.110431
-1.314883	AA S	-1.592846
-2.126185	AA SH	-2.252618
-1.799236	AA SIL	-2.298855
-1.279762	AA T	-1.744469
-2.438985	AA TH	-2.548859
-3.055604	AA UW	-1.492138
-1.721333	AA V	-1.952314
-2.393705	AA W	-1.335449
-2.657664	AA Y	-1.532371
-1.799236	AA Z	-2.07566
-2.612697	AA ZH	-2.961904
-4.03589	AE AH	-1.327077
-1.533463	AE B	-2.200758
-1.827717	AE CH	-1.763384
-1.372189	AE D	-2.157162
-2.693467	AE DH	-1.206311
-1.544528	AE F	-2.120028
-1.489964	AE G	-1.829724
-2.646724	AE HH	-2.009697
-2.135523	AE JH	-1.193518
-0.9475765	AE K	-1.757207
-1.031353	AE L	-1.542105
-1.094627	AE M	-3.301799
-0.6007624	AE N	-2.390701
-1.354196	AE NG	-0.9620471
-1.453258	AE P	-2.340449
-1.665747	AE R	-2.323232
-1.113424	AE S	-1.07197
-1.660226	AE SH	-2.156275
-3.63795	AE SIL	-0.7391456
-1.195157	AE T	-2.770791
-1.954903	AE TH	-1.902911
-4.33692	AE UW
-1.767546	AE V	-2.014179
-3.295527	AE W	-2.178667
-1.980894	AE Z	-0.9557714
-3.222976	AE ZH	-1.268271
-4.241939	AH AA	-1.252175
-4.542968	AH AE
-4.333709	AH AO	-0.2750278
-1.47367	AH B	-0.1927087
-2.401519	AH CH	-1.269302
-1.538432	AH D	-1.402031
-2.884957	AH DH	-1.141738
-4.333709	AH EH
-4.542968	AH ER
-4.542968	AH EY	-1.23134
-1.726727	AH F	-1.993336
-1.783679	AH G	-1.652099
-2.389154	AH HH	-1.498738
-4.843998	AH IH
-4.333709	AH IY	-1.300608
-1.999521	AH JH	-2.661171
-1.293893	AH K	-0.5444305
-0.7767416	AH L	0.2464433
-1.20731	AH M	-1.797412
-0.5205401	AH N	-0.7968423
-2.213571	AH NG	-1.597035
-4.542968	AH OW
-1.678457	AH P	-0.2623601
-2.583927	AH R	-1.581241
-1.158078	AH S	-1.297891
-2.362556	AH SH	-1.598094
-1.030684	AH SIL	-3.512352
-1.257749	AH T	-1.960525
-2.478511	AH TH	-1.849206
-1.859471	AH V	-1.118617
-2.375651	AH W	-1.683283
-3.241939	AH Y	-1.158806
-1.571229	AH Z	-1.334209
-3.843998	AH ZH	-1.408
-3.017792	AO AH	-1.136644
-2.161557	AO B	-1.757939
-2.540671	AO CH	-0.8494182
-1.688117	AO D	-1.901473
-3.548895	AO DH	-1.30289
-3.548895	AO EH	-0.5182766
-3.059185	AO ER	-1.233495
-1.199446	AO F	-2.272012
-1.831298	AO G	-2.466668
-3.217051	AO HH	-0.6497053
-2.758155	AO IH	-1.195388
-3.156095	AO IY	-0.2864021
-2.678973	AO JH	-1.482354
-1.607398	AO K	-2.069958
-0.956408	AO L	-2.349767
-2.134905	AO M	-2.266503
-1.344017	AO N	-3.663723
-1.610478	AO NG	-0.6761138
-2.172694	AO P	-2.01371
-0.276497	AO R	-1.339721
-1.357617	AO S	-2.610416
-2.220335	AO SH	-1.66978
-1.650945	AO SIL	-2.108905
-1.452803	AO T	-1.711131
-1.990999	AO TH	-1.605555
-2.368989	AO V	-1.059436
-3.360215	AO W	-1.225427
-3.017792	AO Y	-1.017331
-1.900822	AO Z	-0.7702894
-4.059185	AO ZH
-2.571579	AW AA	-1.219592
-3.525822	AW AE
-1.557339	AW AH	-1.515768
-3.525822	AW AO
-3.525822	AW AY
-1.726481	AW B	-2.147157
-1.809819	AW CH	-1.779466
-1.361469	AW D	-1.724356
-2.826852	AW DH	-1.321741
-3.015532	AW EH
-1.169796	AW ER	-2.748358
-2.349731	AW F	-0.8055357
-2.03446	AW G	-0.8538272
-2.923762	AW HH
-1.95762	AW IH	-1.329823
-2.063424	AW IY	-1.857361
-2.622732	AW JH	-1.154809
-1.95762	AW K	-3.286538
-1.450275	AW L	-1.657909
-1.534596	AW M	-1.957925
-0.6088419	AW N	-2.312726
-3.015532	AW NG
-3.224792	AW OW
-2.379694	AW P	-1.598712
-1.552694	AW R	-1.737307
-0.9183669	AW S	-1.884146
-2.110849	AW SH	-2.241684
-1.16221	AW SIL	-2.06446
-0.7942332	AW T	-2.99855
-1.693313	AW TH	-2.085404
-3.015532	AW UW	-1.296046
-2.683688	AW V	-1.046737
-2.484429	AW W	-1.313972
-2.680724	AW Y	-0.8623124
-1.379694	AW Z	-0.7593971
-2.228806	AY AA	-1.654981
-2.146396	AY AE	-1.308605
-1.284766	AY AH	-1.614655
-2.908753	AY AO	-1.477448
-3.452821	AY AW	-1.042878
-3.544591	AY AY	-0.586236
-1.620312	AY B	-1.475221
-2.732662	AY CH	-1.748929
-1.053147	AY D	-2.143658
-2.824432	AY DH	-0.9747527
-2.392123	AY EH	-1.627224
-1.406521	AY ER	-2.048436
-3.054881	AY EY	-1.265232
-1.758216	AY F	-2.321758
-1.848055	AY G	-1.68154
-2.693153	AY HH	-1.336971
-1.924547	AY IH	-2.839345
-2.799608	AY IY	-0.3517995
-2.269551	AY JH	-1.09644
-1.217924	AY K	-2.56638
-1.270977	AY L	-1.944606
-1.422424	AY M	-1.494196
-0.8581523	AY N	-2.042382
-2.850761	AY NG	-1.348706
-1.990423	AY OW	-1.329349
-1.658682	AY P	-1.306535
-1.356781	AY R	-2.100789
-1.303602	AY S	-1.8315
-2.486679	AY SH	-1.341635
-1.446355	AY SIL	-2.308566
-0.966745	AY T	-1.662219
-3.013488	AY TH	-1.022758
-3.054881	AY UW	-1.216458
-1.600036	AY V	-2.716503
-2.463816	AY W	-2.143698
-3.054881	AY Y	-0.6893388
-0.9047389	AY Z	-1.918429
-1.150295	B AA	-1.909699
-1.243286	B AE	-1.684284
-0.8642504	B AH	-1.373395
-1.489406	B AO	-0.7001704
-1.926991	B AW	-2.262778
-1.657609	B AY	-1.258379
-3.481057	B CH	-1.19626
-2.297884	B D	-1.586345
-1.154693	B EH	-2.195839
-0.9224796	B ER	-1.102959
-1.650169	B EY	-2.081656
-3.478092	B F	-1.278809
-3.812901	B G	-1.257829
-3.11907	B HH	-1.401549
-1.156168	B IH	-0.4959533
-1.252045	B IY	-1.366745
-2.831829	B JH	-1.907218
-2.53786	B K	-2.061577
-1.210585	B L	-3.485772
-2.651092	B M	-0.9902608
-2.710406	B N	-2.00439
-1.393771	B OW	-1.852339
-2.155873	B OY	-1.482315
-3.481057	B P	-1.435247
-0.9411731	B R	-2.801245
-1.934024	B S	-1.239563
-3.478092	B SH	-0.4810193
-1.697878	B SIL	-2.325312
-2.860792	B T	-1.486783
-4.02216	B TH	-1.288547
-1.805994	B UH	-1.538707
-1.83889	B UW	-2.123972
-3.092741	B V	-1.756926
-2.641949	B W	-1.495809
-1.857807	B Y	-1.547883
-1.923517	B Z	-1.557521
-1.392377	CH AA	-1.918403
-1.285922	CH AE	-1.590217
-0.9606885	CH AH	-1.316963
-1.956649	CH AO	-2.019835
-2.291102	CH AW	-1.86809
-1.739652	CH AY	-1.61753
-2.226644	CH B	-1.833364
-2.785952	CH D	-1.317998
-1.023461	CH EH	-1.839125
-0.8980539	CH ER	-2.049217
-1.632138	CH EY	-1.596897
-2.257679	CH F	-1.686521
-3.086982	CH G	-0.5797482
-2.609861	CH HH	-1.462088
-0.9072869	CH IH	-1.647004
-0.94947	CH IY	-1.689546
-3.689042	CH JH
-2.157563	CH K	-1.515129
-2.086982	CH L	-1.49272
-1.896651	CH M	-1.754174
-2.366823	CH N	-1.946392
-1.759623	CH OW	-1.357487
-2.64765	CH OY	-1.605471
-3.388012	CH P
-2.241884	CH R	-2.460737
-2.990072	CH S	-1.239619
-0.8910827	CH SIL	-2.497622
-1.620857	CH T	-1.360366
-2.241884	CH UH	-1.340817
-1.362706	CH UW	-2.937814
-2.388012	CH W	-1.56994
-2.7348	CH Y	-1.386278
-1.557127	D AA	-1.247207
-1.764766	D AE	-1.145232
-0.9513097	D AH	-1.189261
-1.794842	D AO	-1.459478
-2.104371	D AW	-1.258605
-1.740336	D AY	-1.938213
-2.237979	D B	-1.800755
-3.303372	D CH	-1.541131
-3.905432	D D
-4.507492	D DH
-1.324507	D EH	-1.407429
-1.241025	D ER	-1.037599
-1.678832	D EY	-2.245736
-2.403688	D F	-1.937266
-2.963423	D G	-1.574688
-2.410582	D HH	-1.258987
-0.8746295	D IH	-0.6627524
-1.201281	D IY	-0.9868126
-3.808522	D JH	-1.205103
-2.346123	D K	-3.697069
-1.753143	D L	-2.660772
-2.027485	D M	-2.314828
-2.204295	D N	-2.377143
-1.569472	D OW	-1.673471
-2.874023	D OY	-1.481411
-2.791488	D P	-1.391391
-1.404372	D R	-3.162509
-2.048099	D S	-1.815118
-2.884242	D SH	-1.720789
-0.5681221	D SIL	-3.638391
-2.854279	D T	-3.315888
-3.42831	D TH	-0.390286
-2.681417	D UH	-1.627936
-1.809391	D UW	-1.54883
-2.3314	D V	-1.663633
-2.092518	D W	-0.9183977
-2.687948	D Y	-2.30563
-1.380387	D Z	-1.297487
-2.462398	DH AA
-1.921294	DH AE	-1.011541
-1.195226	DH AH	-1.703404
-2.462398	DH AO	-1.282238
-2.064458	DH AW	-0.3669681
-1.860338	DH AY	-1.113487
-1.508155	DH D	-1.117772
-1.348455	DH EH	-1.216254
-0.2651174	DH ER	-1.833871
-2.253138	DH EY
-1.348455	DH IH	-1.451024
-1.039152	DH IY	-1.770472
-2.763428	DH L
-2.064458	DH M	-1.476713
-2.763428	DH N
-2.064458	DH OW	-0.2565634
-2.763428	DH OY
-2.253138	DH R
-2.462398	DH S
-1.172363	DH SIL	-1.301032
-2.763428	DH UW
-2.763428	DH W
-2.253138	DH Y	-1.309059
-1.587337	DH Z	-0.600376
-3.927429	EH AH
-1.964962	EH B	-2.312995
-2.267457	EH CH	-1.52368
-1.314194	EH D	-0.7607729
-2.433398	EH DH	-2.207406
-4.437719	EH ER
-1.751083	EH F	-1.817001
-1.723389	EH G	-2.177297
-2.705325	EH HH	-1.150776
-2.06297	EH JH	-2.062265
-0.9689286	EH K	-2.293478
-0.8198801	EH L	-0.4350185
-1.287577	EH M	-2.846985
-0.7558447	EH N	-2.088541
-2.024419	EH NG	-1.898378
-3.927429	EH OW
-1.632218	EH P	-2.419071
-0.8533877	EH R	-1.95138
-1.04555	EH S	-1.179944
-1.915275	EH SH	-2.271791
-2.857935	EH SIL	-1.290036
-1.145241	EH T	-2.676697
-2.165877	EH TH	-1.574463
-1.623471	EH V	-1.828347
-3.075991	EH W	-1.22688
-4.136689	EH Y
-1.762858	EH Z	-1.917265
-2.893651	EH ZH	-1.36572
-2.035573	ER AA	-1.226343
-2.198748	ER AE	-1.474152
-1.554103	ER AH	-1.840073
-2.639275	ER AO	-1.189043
-2.981698	ER AW	-1.659433
-2.191647	ER AY	-2.301393
-1.720832	ER B	-3.067797
-2.205966	ER CH	-1.402026
-1.299854	ER D	-1.618763
-2.890617	ER DH	-1.723536
-1.960509	ER EH	-1.671167
-2.441786	ER ER	-1.440226
-1.770399	ER EY	-2.415995
-1.981698	ER F	-1.536004
-1.483387	ER G	-2.902322
-2.303483	ER HH	-1.318901
-1.541314	ER IH	-2.274728
-1.589587	ER IY	-2.184822
-2.078608	ER JH	-1.978505
-1.555187	ER K	-1.193491
-1.635997	ER L	-2.397767
-1.519799	ER M	-3.183545
-1.439287	ER N	-2.479059
-2.114427	ER OW	-2.006908
-3.203547	ER OY	-1.307369
-2.011661	ER P	-1.710479
-2.294466	ER R	-1.520234
-1.435567	ER S	-1.542255
-2.108571	ER SH	-1.647097
-0.4579947	ER SIL	-3.69984
-1.368561	ER T	-1.211168
-2.134537	ER TH	-1.635176
-4.458819	ER UH
-2.659478	ER UW	-1.490147
-1.872232	ER V	-1.477389
-2.3096	ER W	-1.096569
-3.344876	ER Y	-1.249376
-0.914627	ER Z	-2.401442
-2.953669	ER ZH	-0.7769389
-2.954789	EY AA	-0.2707154
-3.82985	EY AE
-2.13088	EY AH	-1.481501
-2.82985	EY AO	-0.8590485
-3.43191	EY AW	-1.042878
-3.82985	EY AY	-1.317297
-1.555692	EY B	-2.386056
-2.440684	EY CH	-1.451158
-1.239901	EY D	-2.123595
-2.875608	EY DH	-1.014258
-2.612366	EY EH	-1.692717
-2.027076	EY ER	-1.852549
-3.22779	EY EY	-0.4629191
-2.153157	EY F	-2.159717
-1.712579	EY G	-1.818664
-2.382692	EY HH	-2.297874
-2.186398	EY IH	-1.716833
-2.900431	EY IY	-1.117958
-1.845323	EY JH	-1.887638
-1.300934	EY K	-1.523457
-1.138769	EY L	-1.430727
-1.468122	EY M	-1.79232
-0.9698119	EY N	-1.863086
-2.551097	EY NG	-1.53733
-2.352729	EY OW	-1.760936
-1.73294	EY P	-1.905588
-2.233253	EY R	-2.003967
-1.295824	EY S	-1.494193
-0.9683159	EY SH	-2.860905
-1.121429	EY SIL	-2.708847
-0.6800156	EY T	-2.72955
-2.574578	EY TH	-1.448826
-4.13088	EY UW
-1.449639	EY V	-1.544063
-2.73294	EY W	-1.864291
-2.551097	EY Y	-0.4873998
-1.318636	EY Z	-1.355519
-2.317967	EY ZH	-1.92979
-1.398382	F AA	-1.974966
-1.481689	F AE	-2.690633
-1.072792	F AH	-1.774698
-1.2181	F AO	-2.373239
-2.241117	F AW	-1.497911
-1.285046	F AY	-2.373881
-2.908296	F B	-1.51825
-4.138745	F CH
-2.740805	F D	-0.8789763
-1.176849	F EH	-1.864384
-1.073539	F ER	-2.214536
-1.733911	F EY	-1.696864
-3.837715	F F
-2.777017	F G	-1.796865
-2.992617	F HH	-1.330514
-1.000442	F IH	-1.696808
-1.24665	F IY	-1.888563
-2.431175	F K	-2.702525
-1.144868	F L	-2.557806
-2.475987	F M	-2.678636
-2.406351	F N	-1.754709
-1.612405	F OW	-0.9536567
-2.676347	F OY	-1.523139
-3.184502	F P	-0.8087388
-1.03018	F R	-2.533307
-1.38059	F S	-2.177311
-3.138745	F SH	-1.411819
-1.136579	F SIL	-2.70157
-1.451216	F T	-1.665904
-2.816525	F TH	-2.004977
-2.008411	F UH	-1.800529
-2.018171	F UW	-1.699702
-4.138745	F V
-2.816525	F W	-1.453922
-1.804291	F Y	-2.745513
-3.536685	F Z	-0.5827029
-1.185626	G AA	-1.162624
-1.380307	G AE	0.0536871
-0.8177193	G AH	-0.9114752
-1.660295	G AO	-2.365494
-2.383399	G AW	-1.289318
-2.001253	G AY	-1.836156
-2.575284	G B	-1.59331
-2.144815	G D	-1.72396
-1.570485	G EH	-1.243108
-1.122561	G ER	-1.366363
-1.496103	G EY	-2.256242
-2.809367	G F	-1.617752
-2.751375	G HH	-1.457446
-1.268859	G IH	-1.321928
-1.706705	G IY	-1.531562
-3.621297	G JH	-1.315031
-3.289453	G K	-1.254146
-1.19107	G L	-2.833118
-1.988572	G M	-1.746843
-1.529527	G N	-2.65559
-1.300357	G OW	-2.372917
-2.789164	G OY	-1.286272
-3.017643	G P	-3.119888
-0.7981393	G R	-2.759889
-2.360734	G S	-2.660423
-3.177344	G SH	-1.264924
-1.106281	G SIL	-2.724687
-2.927467	G T	-1.74911
-4.131587	G TH
-1.988572	G UH	-1.230453
-1.893541	G UW	-2.641371
-4.131587	G V
-1.767975	G W	-0.6097536
-1.944066	G Y	-1.408102
-1.511451	G Z	-1.773232
-3.432616	G ZH	-1.042524
-0.8626665	HH AA	-1.653177
-0.8891023	HH AE	-1.436368
-1.079416	HH AH	-1.658594
-1.236496	HH AO	-3.459114
-1.374294	HH AW	-1.406468
-1.143649	HH AY	-1.402247
-0.932243	HH EH	-1.906485
-1.36441	HH ER	-1.857553
-1.449274	HH EY	-1.353149
-1.153557	HH IH	-1.888069
-1.486463	HH IY	-1.722061
-3.124337	HH L	-1.503033
-3.66544	HH M
-3.96647	HH N
-1.105534	HH OW	-0.7738745
-2.398268	HH OY	-1.568676
-2.820342	HH R	-1.414859
-2.586259	HH SIL	-1.096912
-2.021988	HH UH	-0.995255
-1.71605	HH UW	-1.904773
-1.383271	HH W	-1.914685
-1.654716	HH Y	-1.660352
-3.855174	IH AA	-1.037967
-4.187018	IH AE	-1.317551
-4.396278	IH AO
-1.891807	IH B	-3.023991
-1.936885	IH CH	-1.751909
-1.30761	IH D	-1.7179
-2.94912	IH DH	-3.004203
-4.396278	IH EH
-1.704754	IH F	-2.720935
-1.610592	IH G	-1.180794
-2.55118	IH HH	-1.773454
-1.80577	IH JH	-1.948935
-0.9545042	IH K	-2.066793
-1.127349	IH L	-1.387101
-1.415593	IH M	-1.261679
-0.8186712	IH N	-1.275446
-0.819591	IH NG	-1.655611
-4.697308	IH OW
-4.697308	IH OY
-1.602837	IH P	-1.937537
-1.48592	IH R	-1.614444
-0.989908	IH S	-1.237442
-1.632102	IH SH	-2.42375
-3.493188	IH SIL	-0.9294206
-1.190938	IH T	-1.305139
-2.315291	IH TH	-1.676936
-1.547781	IH V	-1.418671
-3.074059	IH W	-1.312895
-3.583364	IH Y	-1.358659
-1.294359	IH Z	-0.9088416
-2.757789	IH ZH	-1.897209
-1.843311	IY AA	-2.128562
-2.041494	IY AE	-2.112795
-1.114776	IY AH	-1.718357
-2.537038	IY AO	-2.289573
-3.537038	IY AW	-1.114453
-3.236008	IY AY	-1.834879
-1.911726	IY B	-1.259224
-2.155021	IY CH	-1.596901
-1.509281	IY D	-1.993569
-3.281765	IY DH	-0.908394
-2.040108	IY EH	-1.953601
-1.90055	IY ER	-2.240105
-1.953839	IY EY	-2.071433
-2.034611	IY F	-0.9366223
-1.867721	IY G	-2.064251
-2.311729	IY HH	-0.492624
-2.082193	IY IH	-1.624451
-3.236008	IY IY	-1.730056
-2.319554	IY JH	-1.300133
-1.522098	IY K	-1.698217
-1.409285	IY L	-1.662992
-1.619008	IY M	-1.843731
-1.134261	IY N	-2.209532
-3.214819	IY NG	-0.7361705
-1.626947	IY OW	-2.282283
-4.026748	IY OY	-1.282141
-1.859431	IY P	-2.089472
-2.0159	IY R	-1.63912
-1.531428	IY S	-1.069608
-2.397159	IY SH	-1.521133
-0.4152812	IY SIL	-3.820761
-1.434604	IY T	-1.904416
-2.60254	IY TH	-1.375467
-4.236008	IY UH	-1.134982
-2.744646	IY UW	-1.488806
-1.696932	IY V	-1.453911
-2.461491	IY W	-0.9770684
-2.87428	IY Y	-0.5215968
-1.141886	IY Z	-2.270697
-3.005559	IY ZH	-0.9864222
-1.461154	JH AA	-1.320599
-1.389374	JH AE	-1.523459
-0.7566161	JH AH	-1.71109
-1.797614	JH AO	-2.660686
-2.894524	JH AW	-1.463512
-1.971539	JH AY	-2.081746
-3.496584	JH B
-1.648395	JH D	-2.583374
-0.9105594	JH EH	-2.932391
-1.110977	JH ER	-1.937034
-1.760187	JH EY	-1.865278
-3.098644	JH F	-1.306008
-3.797614	JH G
-2.894524	JH HH	-1.402768
-0.8226417	JH IH	-2.139534
-0.9793878	JH IY	-1.70383
-2.593494	JH K	-3.053681
-2.542341	JH L	-1.761444
-2.06522	JH M	-1.818516
-2.952516	JH N	-0.208222
-1.577506	JH OW	-1.501874
-1.946355	JH OY	-1.90578
-2.894524	JH P	-1.29917
-2.843371	JH R	-1.01587
-2.797614	JH S	-1.24931
-3.496584	JH SH	-1.294996
-0.963193	JH SIL	-2.534028
-3.098644	JH T	-1.27847
-2.206549	JH UH	-1.298393
-1.380973	JH UW	-1.564911
-3.496584	JH V
-2.399674	JH W	-1.394274
-2.417403	JH Y	-0.8885046
-3.496584	JH Z
-1.103847	K AA	-1.380877
-1.349588	K AE	-1.832108
-0.8698068	K AH	-1.223627
-1.504261	K AO	-1.566273
-2.021732	K AW	-2.317017
-2.274004	K AY	-1.029968
-2.531203	K B	-1.451469
-2.541753	K CH	-2.159309
-2.615276	K D	-3.858514
-1.716955	K EH	-2.104571
-1.359067	K ER	-2.200103
-1.627679	K EY	-1.91773
-2.619513	K F	-1.941621
-3.481985	K G	-1.15685
-2.443422	K HH	-1.58336
-1.391072	K IH	-1.691359
-1.276317	K IY	-2.160156
-3.58672	K JH	-2.144568
-3.785979	K K	-1.50268
-1.302597	K L	-2.88964
-2.152442	K M	-3.868011
-2.16422	K N	-2.565295
-1.300141	K OW	-1.182788
-2.864685	K OY	-1.386718
-2.956015	K P	-2.159729
-1.226712	K R	-2.825445
-1.070125	K S	-1.935878
-2.019587	K SH	-2.205091
-0.9045752	K SIL	-3.422592
-1.365899	K T	-2.159093
-3.51417	K TH	-2.157582
-2.545328	K UH	-2.039819
-1.948685	K UW	-2.454577
-3.059911	K V	-1.172684
-1.519548	K W	-0.7609293
-1.779308	K Y	-1.656527
-3.481985	K Z	-0.9879692
-1.476426	L AA	-1.056207
-1.373069	L AE	-0.5872223
-0.9541279	L AH	-0.8083112
-1.739315	L AO	-0.4517739
-2.228698	L AW	-1.861827
-1.499745	L AY	-2.695006
-1.938243	L B	-1.675919
-2.624406	L CH	-1.885634
-1.376202	L D	-1.310344
-4.090531	L DH
-1.402334	L EH	0.1060781
-1.362178	L ER	-2.228207
-1.505071	L EY	-1.514464
-1.985021	L F	-1.299157
-2.402557	L G	-3.054649
-2.488472	L HH	-2.228017
-0.9769222	L IH	-1.489596
-0.9465023	L IY	-1.284388
-2.789501	L JH	-1.305036
-1.925436	L K	-1.462156
-3.738349	L L	-1.646424
-1.798275	L M	-2.319885
-2.546463	L N	-2.364412
-1.492836	L OW	-1.663361
-2.488472	L OY	-3.485693
-2.398125	L P	-1.047062
-2.659168	L R	-1.803637
-1.856901	L S	-1.695812
-2.91444	L SH	-1.429491
-0.8225388	L SIL	-3.569083
-1.596377	L T	-2.19772
-2.860082	L TH	-1.814714
-2.671402	L UH	-1.591519
-1.686553	L UW	-1.694932
-2.055102	L V	-1.581985
-2.43014	L W	-2.372591
-2.099305	L Y	-1.405811
-1.3836	L Z	-1.927443
-4.692591	L ZH
-1.127588	M AA	-1.142241
-1.214142	M AE	-0.6967247
-0.6283889	M AH	-1.07407
-1.617205	M AO	-2.624461
-2.421915	M AW	-1.526833
-1.612932	M AY	-1.768692
-1.431408	M B	-1.930981
-3.166208	M CH	-1.243602
-2.177203	M D	-2.860637
-1.208122	M EH	-1.677595
-1.33594	M ER	-2.044631
-1.551838	M EY	-1.308432
-2.311902	M F	-2.087168
-2.975876	M G	-1.701823
-2.876173	M HH	-1.529573
-1.024915	M IH	-2.13846
-1.447706	M IY	-1.223922
-3.768268	M JH	-1.276186
-2.437854	M K	-1.68744
-2.200066	M L	-2.725916
-3.564148	M M	-0.8907273
-2.508197	M N	-1.871861
-1.51155	M OW	-1.994701
-2.751235	M OY	-1.432593
-1.243742	M P	-2.912548
-2.484967	M R	-1.92616
-2.120885	M S	-2.0338
-3.035874	M SH	-1.542663
-1.059168	M SIL	-3.107212
-2.71905	M T	-1.234005
-3.425845	M TH	-1.624828
-2.53274	M UH	-2.002922
-2.074541	M UW	-1.774837
-3.353295	M V	-1.348104
-2.768268	M W	-1.306022
-1.90139	M Y	-2.31974
-1.546593	M Z	-1.794761
-1.655504	N AA	-1.743342
-1.903939	N AE	-0.6461222
-1.113297	N AH	-0.604564
-2.061979	N AO	-2.523864
-2.680939	N AW	-1.659719
-2.058676	N AY	-1.985224
-1.925791	N B	-1.964813
-2.07716	N CH	-1.910924
-1.052307	N D	-0.6528997
-3.667367	N DH	-0.9348066
-1.72708	N EH	-0.7926922
-1.538024	N ER	-2.085864
-1.912078	N EY	-1.920697
-1.945619	N F	-1.719797
-2.588186	N G	-1.653966
-2.201526	N HH	-0.3866155
-1.293748	N IH	-1.210465
-1.344988	N IY	-1.124558
-1.942461	N JH	-1.145716
-1.930664	N K	-2.661824
-2.244752	N L	-2.804367
-2.36467	N M	-2.681342
-3.349946	N N	-1.796736
-1.603197	N OW	-2.296492
-3.010458	N OY	-1.553046
-2.590978	N P	-1.715286
-2.292759	N R	-1.932422
-1.213696	N S	-1.362078
-2.180337	N SH	-1.451901
-0.6074249	N SIL	-3.872886
-1.00767	N T	-1.381953
-2.48028	N TH	-1.809537
-3.010458	N UH	-1.021108
-2.043323	N UW	-1.562382
-2.150882	N V	-2.466904
-2.415822	N W	-0.04037368
-2.123299	N Y	-0.4496987
-1.145123	N Z	-1.547911
-3.936212	N ZH	-0.419978
-3.484116	NG AA
-3.994405	NG AE
-2.262011	NG AH	-1.599041
-3.994405	NG AO
-3.693375	NG AW	-1.257086
-3.994405	NG AY
-2.438103	NG B	-1.528055
-3.392345	NG CH	-1.330625
-2.322307	NG D	-3.545198
-3.392345	NG EH
-1.45158	NG ER	-1.835527
-3.392345	NG EY	-1.23134
-2.632677	NG F	-2.581646
-1.073239	NG G	-2.849277
-2.080591	NG HH	-2.04471
-2.532007	NG IH	-2.013094
-3.149307	NG IY	-0.4449502
-2.953012	NG JH	-1.937805
-0.8168687	NG K	-1.342866
-1.842117	NG L	-2.239267
-2.450337	NG M	-2.48986
-3.149307	NG N	-1.27525
-3.392345	NG OW	-0.5816312
-3.091315	NG P	-0.5581521
-2.953012	NG R	-1.209786
-2.195065	NG S	-1.689574
-2.715652	NG SH	-1.242281
-0.2267299	NG SIL	-3.466721
-1.758877	NG T	-2.585072
-2.763956	NG TH	-1.67613
-3.693375	NG UW
-3.484116	NG V
-2.614194	NG W	-1.822028
-3.149307	NG Y	-0.4853666
-1.292837	NG Z	-2.079763
-2.579761	OW AA	-1.524296
-2.936308	OW AE	-1.197016
-2.058623	OW AH	-1.529963
-3.074611	OW AO	-0.3999665
-3.768441	OW AW	-0.5260249
-3.579761	OW AY	-0.3401831
-1.498413	OW B	-1.666191
-2.265893	OW CH	-1.419111
-1.412443	OW D	-3.418945
-2.999977	OW DH	-1.231954
-2.698947	OW EH	-1.166109
-2.305603	OW ER	-1.897808
-2.880791	OW EY	-0.8151921
-1.940274	OW F	-1.313129
-1.797288	OW G	-1.696559
-2.102639	OW HH	-1.55218
-2.151626	OW IH	-1.573108
-2.655481	OW IY	-1.722719
-2.334248	OW JH	-1.291677
-1.357044	OW K	-2.069648
-0.874068	OW L	-3.091135
-1.343728	OW M	-1.128332
-1.076242	OW N	-2.053739
-2.816333	OW NG	-2.743482
-4.278731	OW OW
-1.628423	OW P	-2.346095
-2.734663	OW R	-1.362303
-1.259614	OW S	-3.505898
-1.887796	OW SH	-1.98763
-0.5561791	OW SIL	-3.421606
-1.307919	OW T	-1.94229
-2.588535	OW TH	-1.889126
-3.977701	OW UH	-1.134982
-4.278731	OW UW
-1.337716	OW V	-1.755584
-2.625518	OW W	-2.086775
-2.606633	OW Y	-0.6934403
-1.170166	OW Z	-1.271282
-2.710529	OW ZH	-1.261349
-2.25651	OY AA	-1.092762
-2.399674	OY AE
-1.272569	OY AH	-1.557601
-1.843371	OY B	-1.780354
-1.797614	OY CH	-1.605287
-0.99484	OY D	-2.331388
-3.098644	OY DH
-2.253546	OY EH	-1.451589
-1.327792	OY ER	-1.685404
-1.952516	OY F	-1.257293
-2.144401	OY G	-1.37398
-2.797614	OY HH
-1.736916	OY IH	-1.321747
-2.195554	OY IY	-0.884976
-3.098644	OY JH
-1.66728	OY K	-1.276912
-0.9556289	OY L	-2.830594
-1.776424	OY M	-1.543558
-0.7976137	OY N	-2.807854
-2.057251	OY OW	-0.4571354
-2.496584	OY P	-0.5638836
-1.868195	OY R	-3.039211
-1.08161	OY S	-1.82331
-2.399674	OY SH
-0.8631153	OY SIL	-1.937018
-1.195554	OY T	-1.996261
-2.496584	OY TH	-1.298096
-2.399674	OY UW	-1.26464
-2.25651	OY V	-1.062173
-2.496584	OY Y	-0.833093
-1.164145	OY Z	-1.389319
-3.098644	OY ZH
-1.163139	P AA	-1.70596
-1.326862	P AE	-0.8789454
-1.074938	P AH	-0.8459146
-1.551534	P AO	-0.9181824
-2.070757	P AW	-2.034297
-1.826605	P AY	-0.9844978
-2.846315	P B	-1.66204
-2.65002	P CH	-1.800064
-2.816352	P D	-1.508443
-1.152337	P EH	-1.818492
-1.043297	P ER	-1.956235
-1.575803	P EY	-1.441353
-2.297838	P F	-2.205613
-2.931745	P G	-2.483715
-2.8785	P HH	-1.540096
-1.167017	P IH	-0.956946
-1.268167	P IY	-1.552859
-3.339231	P JH	-3.080804
-2.272284	P K	-2.093702
-1.147966	P L	-2.709751
-2.530045	P M	-3.665849
-2.515322	P N	-1.563065
-1.466751	P OW	-1.735868
-2.200051	P OY	-1.66345
-3.783183	P P	-1.318035
-0.8595433	P R	-3.192111
-1.418991	P S	-1.95332
-2.159934	P SH	-1.984697
-1.242321	P SIL	-2.75051
-1.491384	P T	-1.750793
-3.448375	P TH	-1.060642
-2.306701	P UH	-1.967235
-2.070757	P UW	-1.854254
-3.992443	P V	-1.319015
-2.660005	P W	-1.60379
-1.85731	P Y	-1.775511
-3.992443	P Z	-0.7574055
-1.347879	R AA	-0.831445
-1.218483	R AE	-0.7979796
-0.8852632	R AH	-0.7851574
-1.83632	R AO	-0.4455504
-2.072915	R AW	-2.107825
-1.536265	R AY	-0.9282303
-1.979601	R B	-1.284106
-2.454921	R CH	-1.705387
-1.513452	R D	-1.812111
-3.457627	R DH	-0.9037271
-1.19681	R EH	-1.354748
-2.547803	R ER	-2.166879
-1.392467	R EY	-1.294179
-2.270811	R F	-1.559165
-2.078548	R G	-1.950222
-2.717264	R HH	-1.597301
-0.9616488	R IH	-0.7520671
-0.8694949	R IY	-1.474809
-2.321302	R JH	-1.595112
-1.697959	R K	-1.29457
-1.961909	R L	-2.127442
-1.74058	R M	-1.170712
-1.748993	R N	-2.16742
-4.059687	R NG	-0.5302246
-1.199049	R OW	-1.412407
-2.404068	R OY	-1.45128
-2.190455	R P	-1.616389
-4.360716	R R	-1.32069
-1.832443	R S	-1.240949
-2.4237	R SH	-1.516747
-1.399058	R SIL	-2.961897
-1.397165	R T	-1.191864
-2.449559	R TH	-1.309979
-2.518732	R UH	-2.163123
-1.549477	R UW	-2.027355
-2.401675	R V	-1.701808
-2.528208	R W	-0.8725674
-3.117678	R Y	-0.738341
-1.858289	R Z	-2.163251
-3.758657	R ZH	-1.403721
-1.737128	S AA	-1.165445
-1.793689	S AE	-1.569112
-0.9981138	S AH	-1.430701
-2.052239	S AO	-1.349378
-2.642613	S AW	-1.843256
-1.765252	S AY	-2.075322
-2.170647	S B	-1.785851
-2.486177	S CH	-2.714478
-2.809201	S D	-2.326149
-4.695692	S DH
-1.402771	S EH	-1.514217
-1.621607	S ER	-3.960979
-1.983885	S EY	-1.56965
-2.345444	S F	-1.844102
-2.9033	S G	-1.868147
-2.766273	S HH	-1.683389
-1.129844	S IH	-1.091041
-1.332268	S IY	-1.017028
-3.440419	S JH	-2.280195
-1.144852	S K	-2.299468
-1.651937	S L	-3.253314
-1.824119	S M	-3.095131
-2.020831	S N	-3.175555
-1.857473	S OW	-2.251538
-3.21857	S OY	-1.555959
-1.399465	S P	-2.205495
-2.713421	S R	-1.738052
-3.264328	S S	-1.721295
-3.741449	S SH	-1.100365
-0.6443077	S SIL	-3.750394
-0.712878	S T	-1.927913
-3.082908	S TH	-1.833171
-3.297752	S UH	-1.289811
-1.92337	S UW	-2.402542
-2.979688	S V	-1.524127
-1.934516	S W	-0.3715074
-3.093632	S Y	-1.158543
-4.695692	S Z
-3.853558	S ZH	-1.479915
-1.423546	SH AA	-3.085209
-1.532879	SH AE	-2.637455
-0.3980898	SH AH	-2.183619
-1.703891	SH AO	-1.51739
-2.40794	SH AW	-2.018892
-1.898027	SH AY	-1.787618
-2.207026	SH B	-1.295344
-3.638389	SH CH
-3.097286	SH D	-1.296862
-1.374753	SH EH	-1.256538
-1.459412	SH ER	-1.847311
-1.719311	SH EY	-2.23758
-2.684147	SH F	-2.319645
-3.638389	SH G	-1.261438
-3.42913	SH HH
-1.075502	SH IH	-1.50614
-1.259084	SH IY	-1.126232
-3.93942	SH JH
-2.207026	SH K	-1.819131
-1.772102	SH L	-2.898627
-1.719311	SH M	-2.779935
-1.727232	SH N	-2.095298
-1.686566	SH OW	-0.9818114
-2.860238	SH OY	-1.222144
-3.42913	SH P	-1.330372
-1.696381	SH R	-1.841268
-1.08755	SH SIL	-2.551452
-1.825476	SH T	-1.693946
-2.030934	SH UH	-1.448795
-1.629789	SH UW	-1.892388
-2.985177	SH V	-1.644414
-1.835616	SH W	-1.286384
-2.508056	SH Y	-0.9499458
-0.3010316	SIL </s>
-2.141739	SIL AA	-1.592156
-1.963842	SIL AE	-1.645085
-1.902465	SIL AH	-0.4132745
-2.468391	SIL AO	-3.053735
-2.879733	SIL AW	-1.427366
-2.63971	SIL AY	-3.628589
-1.442091	SIL B	-2.773694
-2.326742	SIL CH	-2.764554
-1.538267	SIL D	-4.049294
-3.586191	SIL DH	-1.796201
-1.954777	SIL EH	-1.202541
-2.839579	SIL ER	-1.595513
-2.728683	SIL EY	-2.075984
-1.679965	SIL F	-2.977959
-1.730786	SIL G	-2.926093
-1.601631	SIL HH	-1.290945
-1.823306	SIL IH	-2.056149
-2.656402	SIL IY	-1.985818
-2.095032	SIL JH	-2.52097
-1.314989	SIL K	-3.265531
-1.687529	SIL L	-3.097937
-1.449241	SIL M	-3.701094
-1.894072	SIL N	-3.36839
-2.357969	SIL OW	-1.239076
-3.977882	SIL OY	-1.37818
-1.534675	SIL P	-3.093944
-1.55335	SIL R	-2.994742
-1.331864	SIL S	-4.110852
-2.031991	SIL SH	-3.033227
-1.737957	SIL T	-3.380547
-2.623636	SIL TH	-2.067896
-4.311097	SIL UH	-0.9510459
-3.47565	SIL UW	-1.60062
-2.044467	SIL V	-2.529732
-1.844343	SIL W	-1.346096
-2.294385	SIL Y	-1.28312
-2.447316	SIL Z	-4.00712
-3.470798	SIL ZH	-1.234006
-1.556096	T AA	-1.275738
-1.62803	T AE	-1.440093
-0.9392533	T AH	-0.7097311
-1.831082	T AO	-2.724413
-2.491047	T AW	-1.928054
-1.751191	T AY	-1.220986
-2.541157	T B	-1.52677
-3.303961	T CH	-1.215042
-3.060923	T D	-1.680594
-4.082112	T DH	-0.5604426
-1.390809	T EH	-1.853171
-1.077361	T ER	-1.72769
-1.655601	T EY	-1.272686
-2.443623	T F	-1.582381
-2.935984	T G	-1.519674
-2.594267	T HH	-1.59361
-0.9543594	T IH	-1.642418
-1.220727	T IY	-1.42051
-3.303961	T JH	-3.084233
-2.349718	T K	-2.727628
-1.798246	T L	-4.174455
-2.104388	T M	-2.113036
-2.170954	T N	-2.474438
-1.549039	T OW	-2.196506
-2.935984	T OY	-1.631292
-2.803358	T P	-1.542225
-1.075967	T R	-3.10363
-1.004562	T S	-1.424858
-3.604991	T SH	-2.030568
-0.7179832	T SIL	-3.665207
-3.405418	T T	-2.434675
-3.839074	T TH	-1.132125
-2.706448	T UH	-1.855969
-1.930589	T UW	-1.401574
-3.179022	T V	-1.479938
-2.155255	T W	-0.8224291
-2.775687	T Y	-0.9541577
-2.400871	T Z	-1.387245
-1.591816	TH AA	-1.261232
-1.641504	TH AE	-2.158402
-0.9011415	TH AH	-1.376529
-1.327509	TH AO	-1.191897
-2.256928	TH AW	-1.348098
-1.858988	TH AY	-1.805557
-2.046075	TH B	-1.653351
-2.950758	TH CH	-0.5940779
-2.347105	TH D	-1.53288
-1.427624	TH EH	-2.586282
-1.147181	TH ER	-2.078732
-2.046075	TH EY	-0.6797324
-2.182295	TH F	-0.7355052
-2.61595	TH G	-1.498305
-2.506806	TH HH	-1.055382
-1.230599	TH IH	-2.185992
-1.010799	TH IY	-1.769642
-3.160018	TH JH	-1.249501
-1.983927	TH K	-1.672359
-1.682897	TH L	-2.201347
-1.983927	TH M	-1.931349
-2.09932	TH N	-1.278159
-1.955898	TH OW	-0.7229935
-2.381867	TH P	-1.246071
-1.1108	TH R	-2.027192
-1.337196	TH S	-3.729032
-2.858988	TH SH
-0.6421627	TH SIL	-2.518516
-2.419655	TH T	-1.160435
-3.160018	TH UH	-1.134982
-2.160018	TH UW	-1.558648
-2.618915	TH V
-1.682897	TH W	-1.684071
-2.230599	TH Y	-0.9587193
-2.319011	UH B	-0.506801
-2.360404	UH CH	-1.58551
-0.7140003	UH D	-1.899116
-3.059374	UH DH	-0.9929387
-2.457314	UH F	-1.114967
-2.038185	UH G	-1.56004
-2.51827	UH HH	-0.8919352
-3.360404	UH IH
-3.059374	UH JH	-1.329367
-0.8188248	UH K	-2.153055
-0.8995062	UH L	-2.187379
-1.78062	UH M	-1.657543
-1.804102	UH N	-1.097162
-2.661434	UH NG	-0.7281931
-2.515306	UH P	-1.495309
-0.4361248	UH R	-1.526164
-1.883283	UH S	-1.847519
-1.401363	UH SH	-1.755269
-2.758344	UH SIL	-0.8178843
-1.401363	UH T	-2.07678
-3.059374	UH TH	-1.220767
-3.059374	UH V
-2.661434	UH Z	-0.3734067
-2.212587	UW AA	-1.397332
-2.54358	UW AE	-1.555263
-1.473542	UW AH	-1.813753
-2.876795	UW AO	-0.817436
-3.480449	UW AW	-1.257086
-2.949346	UW AY	-1.531446
-1.388678	UW B	-1.342787
-1.750189	UW CH	-1.863911
-1.22731	UW D	-1.419832
-2.711985	UW DH	-0.7544558
-2.022255	UW EH	-1.514834
-1.945415	UW ER	-3.460075
-2.026951	UW EY	-1.699692
-1.873467	UW F	-1.542081
-1.664402	UW G	-2.547414
-2.234864	UW HH	-1.543015
-1.685387	UW IH	-1.595469
-1.933833	UW IY	-1.832489
-1.907953	UW JH	-1.869334
-1.362349	UW K	-1.096733
-1.083865	UW L	-1.46074
-1.146883	UW M	-1.933993
-1.087106	UW N	-1.602453
-2.711985	UW NG	-0.7467216
-2.559375	UW OW	-1.459005
-1.279775	UW P	-1.860985
-1.711985	UW R	-1.214817
-1.185918	UW S	-2.14007
-1.797614	UW SH	-1.787549
-1.111642	UW SIL	-2.578641
-1.032174	UW T	-2.389129
-1.933833	UW TH	-2.573164
-3.689708	UW UH
-3.990738	UW UW
-1.725921	UW V	-1.280957
-2.485588	UW W	-1.562242
-2.499377	UW Y	-2.685827
-1.164016	UW Z	-1.320145
-2.198347	UW ZH	-1.61064
-1.300989	V AA	-1.984608
-1.167763	V AE	-1.882115
-0.9119564	V AH	-1.861494
-1.993477	V AO	-1.360013
-2.579743	V AW	-1.472194
-1.495422	V AY	-1.581605
-3.424841	V B	-1.307582
-3.181803	V CH	-1.476996
-1.955019	V D	-1.944722
-4.026901	V DH
-1.122726	V EH	-2.277215
-0.8149797	V ER	-1.347039
-1.444837	V EY	-1.850935
-4.026901	V F
-3.327931	V G	-0.3226483
-3.327931	V HH
-0.8263239	V IH	-1.798301
-1.113087	V IY	-1.303012
-3.725871	V JH
-2.880773	V K	-1.341793
-1.676653	V L	-2.140092
-2.725871	V M	-1.795321
-2.248749	V N	-1.393258
-1.55123	V OW	-1.905421
-2.14041	V OY	-1.332587
-3.725871	V P
-1.877682	V R	-2.336724
-2.345659	V S	-1.713356
-4.026901	V SH
-1.081925	V SIL	-2.64444
-2.985508	V T	-1.590533
-3.516611	V TH	-1.298096
-2.94772	V UH	-0.5800128
-2.771628	V UW	-3.061682
-2.748147	V W	-1.535572
-2.014064	V Y	-1.407977
-1.53835	V Z	-2.437743
-1.024085	W AA	-1.511983
-1.790002	W AE	-1.629708
-1.246796	W AH	-1.702817
-1.019968	W AO	-4.066093
-2.717915	W AW	-1.25455
-1.060747	W AY	-2.041296
-0.8691828	W EH	-1.4944
-1.108886	W ER	-1.963735
-1.11204	W EY	-1.330896
-0.6583294	W IH	-1.093225
-1.178987	W IY	-1.807378
-3.647334	W N
-1.752464	W OW	-1.762648
-2.550424	W OY	-1.397764
-3.948364	W R
-3.438074	W S	-0.569777
-3.10623	W SIL	-0.6549934
-1.375492	W UH	-2.809722
-2.103266	W UW	-2.225432
-1.193967	Y AA	-1.725653
-1.601892	Y AE	-1.328486
-0.6601722	Y AH	-1.852395
-1.70816	Y AO	-1.436424
-2.482032	Y AW	-0.9996988
-3.110421	Y AY	-1.317297
-3.712481	Y D
-1.457209	Y EH	-1.443227
-1.268437	Y ER	-1.610367
-2.110421	Y EY	-1.627144
-1.892937	Y IH	-1.588903
-1.964293	Y IY	-1.374601
-3.110421	Y N	-1.323413
-1.45003	Y OW	-3.49512
-3.411451	Y OY
-3.712481	Y S
-2.870348	Y SIL	-0.6549934
-3.712481	Y T
-1.350754	Y UH	-2.499641
-0.3324511	Y UW	-1.413909
-3.712481	Y W
-1.968436	Z AA	-1.700758
-2.09826	Z AE	-1.51609
-1.260238	Z AH	-1.443989
-2.483611	Z AO	-1.453694
-3.600519	Z AW	-0.1783285
-2.278299	Z AY	-2.033877
-2.09826	Z B	-3.686269
-4.442652	Z CH
-1.774266	Z D	-2.277421
-1.908626	Z EH	-1.81212
-1.66018	Z ER	-2.020465
-2.057046	Z EY	-2.118753
-3.363471	Z F	-1.8182
-3.212203	Z G	-1.421798
-3.18738	Z HH	-1.357044
-1.360585	Z IH	-2.155253
-1.621794	Z IY	-3.733314
-3.932363	Z JH	-1.276186
-2.735082	Z K	-1.919712
-2.150396	Z L	-3.104351
-2.00649	Z M	-3.858907
-2.338849	Z N	-3.914076
-2.084717	Z OW	-1.527057
-3.743682	Z OY	-1.229673
-3.080924	Z P	-1.40874
-2.898584	Z R	-2.513071
-3.539562	Z S	-0.9984781
-4.141622	Z SH	-1.296085
-0.1340878	Z SIL	-4.007557
-2.965531	Z T	-1.442474
-3.212203	Z UH	-0.8453191
-2.305932	Z UW	-1.836482
-2.951291	Z V	-0.6027636
-2.434052	Z W	-2.354503
-3.401259	Z Y	-0.6983593
-1.348694	ZH AA	-1.22563
-2.746634	ZH AE
-0.3574681	ZH AH	-2.049115
-2.047664	ZH AO	-1.006089
-1.904501	ZH AW	-1.504319
-2.236345	ZH AY	-0.5825287
-1.667453	ZH D	-1.210802
-1.667453	ZH EH	-0.9577408
-0.7923917	ZH ER	-1.897009
-1.792392	ZH EY	-1.158957
-1.103181	ZH IH	-1.715988
-1.31527	ZH IY	-1.440695
-2.236345	ZH K
-2.445604	ZH M	-1.290045
-2.236345	ZH N
-1.904501	ZH OW	-0.9775361
-1.348694	ZH SIL	-1.113945
-2.144574	ZH UH	-0.9207742
-1.667453	ZH UW	-1.587554
-1.542514	ZH W	-1.132897
-2.047664	ZH Y	-1.399022

\3-grams:
-0.02065134	AH AA N
-0.6368221	AW AA L
-0.4356247	AW AA R
-0.4356247	AW AA T
-1.361728	AY AA D
-0.993751	AY AA G
-0.9355372	AY AA K
-0.8388491	AY AA L
-1.361728	AY AA M
-0.7249057	AY AA N
-1.361728	AY AA P
-0.8388491	AY AA R
-1.16053	AY AA S
-0.993751	AY AA T
-2.497483	B AA AH
-1.468231	B AA B
-1.971682	B AA CH
-1.38341	B AA D
-2.439165	B AA DH
-1.713404	B AA G
-2.272712	B AA HH
-2.497483	B AA JH
-0.8661715	B AA K
-1.068592	B AA L
-1.318469	B AA M
-1.05853	B AA N
-2.061858	B AA NG
-2.27249	B AA P
-0.4434079	B AA R
-1.451526	B AA S
-2.175802	B AA SH
-2.134409	B AA SIL
-1.226412	B AA T
-2.029674	B AA TH
-2.307062	B AA V
-2.497483	B AA W
-2.439165	B AA Y
-1.744438	B AA Z
-1.656135	CH AA CH
-1.656135	CH AA D
-1.431142	CH AA K
-1.597817	CH AA L
-1.465714	CH AA M
-1.489356	CH AA N
-1.465714	CH AA NG
-1.012234	CH AA P
-0.2138798	CH AA R
-1.465714	CH AA SIL
-1.465714	CH AA T
-1.857332	CH AA Z
-1.536364	D AA B
-2.474216	D AA CH
-1.747218	D AA D
-2.273019	D AA ER
-1.997095	D AA F
-1.58961	D AA G
-2.474216	D AA HH
-1.951338	D AA JH
-0.8721563	D AA K
-0.8307636	D AA L
-1.027058	D AA M
-0.7183414	D AA N
-2.474216	D AA NG
-1.58961	D AA P
-0.7582129	D AA R
-1.553398	D AA S
-2.214701	D AA SH
-1.696065	D AA SIL
-1.432824	D AA T
-1.720889	D AA V
-2.474216	D AA W
-2.048026	D AA Z
-1.587871	ER AA B
-1.696333	ER AA CH
-1.090547	ER AA D
-1.319026	ER AA F
-1.432969	ER AA G
-1.754651	ER AA JH
-1.478727	ER AA K
-1.001606	ER AA L
-1.432969	ER AA M
-0.716966	ER AA N
-1.56423	ER AA P
-0.9144554	ER AA R
-1.319026	ER AA S
-1.754651	ER AA SIL
-1.052758	ER AA T
-1.478727	ER AA V
-1.955848	ER AA Z
-1.228849	ER AA ZH
-0.4394548	EY AA N
-0.69897	EY AA SIL
-1.699759	F AA B
-2.004515	F AA D
-1.309788	F AA DH
-1.699759	F AA G
-2.062833	F AA JH
-1.209673	F AA K
-0.8960536	F AA L
-2.004515	F AA M
-0.7588804	F AA N
-0.4466854	F AA R
-1.000789	F AA S
-2.26403	F AA SIL
-1.699759	F AA T
-1.66197	F AA V
-2.062833	F AA Y
-2.26403	F AA Z
-1.504665	G AA B
-1.747703	G AA CH
-1.145643	G AA D
-2.215187	G AA F
-1.673069	G AA G
-2.273504	G AA HH
-2.474702	G AA IY
-2.215187	G AA JH
-1.951823	G AA K
-0.9347897	G AA L
-1.650793	G AA M
-0.9786952	G AA N
-2.048511	G AA NG
-2.273504	G AA OW
-2.474702	G AA P
-0.3824491	G AA R
-1.420344	G AA S
-2.215187	G AA SH
-2.048511	G AA SIL
-1.252853	G AA T
-1.997581	G AA TH
-2.215187	G AA V
-1.872642	G AA W
-2.273504	G AA Y
-2.215187	G AA Z
-1.562463	HH AA B
-2.203219	HH AA CH
-1.851258	HH AA D
-1.588017	HH AA F
-1.575052	HH AA G
-2.369894	HH AA HH
-2.428212	HH AA IH
-2.428212	HH AA IY
-1.827777	HH AA JH
-1.343103	HH AA K
-0.979426	HH AA L
-1.42529	HH AA M
-1.286987	HH AA N
-1.473062	HH AA P
-0.3197794	HH AA R
-1.321201	HH AA S
-2.02735	HH AA SH
-1.851258	HH AA SIL
-1.526747	HH AA T
-2.62941	HH AA TH
-2.02735	HH AA V
-2.237791	HH AA Y
-2.62941	HH AA Z
-0.03435055	IH AA N
-1.793044	IY AA CH
-1.520265	IY AA D
-1.374137	IY AA G
-2.018038	IY AA JH
-1.281383	IY AA K
-0.8212951	IY AA L
-1.617175	IY AA M
-0.4483831	IY AA N
-1.617175	IY AA NG
-1.793266	IY AA P
-0.9559937	IY AA R
-1.550228	IY AA S
-2.219235	IY AA SH
-1.617175	IY AA SIL
-1.073107	IY AA T
-1.742114	IY AA V
-2.219235	IY AA Z
-1.273001	JH AA B
-1.673864	JH AA CH
-1.507084	JH AA G
-1.875061	JH AA JH
-1.00976	JH AA K
-1.352183	JH AA L
-1.31079	JH AA M
-0.4771213	JH AA N
-1.448871	JH AA NG
-1.875061	JH AA P
-0.8081145	JH AA R
-1.148063	JH AA S
-1.673864	JH AA SH
-1.673864	JH AA SIL
-1.673864	JH AA T
-1.875061	JH AA V
-1.862546	K AA B
-2.24655	K AA CH
-1.957102	K AA D
-2.078146	K AA F
-1.923244	K AA G
-2.680206	K AA HH
-2.621992	K AA IY
-2.680206	K AA JH
-1.376085	K AA K
-1.075055	K AA L
-0.8969151	K AA M
-0.6433491	K AA N
-1.747153	K AA NG
-2.846985	K AA OW
-1.329404	K AA P
-0.6238457	K AA R
-1.360951	K AA S
-2.203085	K AA SH
-2.203085	K AA SIL
-1.31046	K AA T
-2.680206	K AA TH
-3.048183	K AA UW
-1.739974	K AA V
-1.957102	K AA W
-2.656564	K AA Y
-1.725963	K AA Z
-1.379161	L AA B
-2.071882	L AA CH
-1.605226	L AA D
-1.447158	L AA F
-1.385501	L AA G
-2.31492	L AA HH
-2.740889	L AA IH
-1.240286	L AA JH
-0.8658275	L AA K
-1.740889	L AA L
-1.168792	L AA M
-0.9415482	L AA N
-1.962738	L AA NG
-2.539691	L AA OW
-1.485616	L AA P
-0.8469422	L AA R
-1.263767	L AA S
-2.138829	L AA SH
-1.686531	L AA SIL
-0.9774608	L AA T
-2.21801	L AA TH
-2.740889	L AA UW
-1.439859	L AA V
-2.539691	L AA W
-2.539691	L AA Y
-1.786646	L AA Z
-2.372912	L AA ZH
-2.228479	M AA B
-2.497325	M AA CH
-1.38818	M AA D
-2.664104	M AA DH
-2.664104	M AA EH
-2.138303	M AA F
-1.798355	M AA G
-2.30103	M AA HH
-2.865301	M AA IH
-2.605786	M AA IY
-2.063669	M AA JH
-1.578995	M AA K
-1.208884	M AA L
-1.865301	M AA M
-0.6999581	M AA N
-1.880025	M AA NG
-2.497325	M AA P
-0.3583457	M AA R
-1.281725	M AA S
-2.439111	M AA SH
-2.063669	M AA SIL
-1.245513	M AA T
-2.664104	M AA TH
-2.664104	M AA UW
-2.196295	M AA V
-2.664104	M AA W
-2.439333	M AA Y
-1.962211	M AA Z
-1.560521	N AA B
-1.924602	N AA CH
-1.495254	N AA D
-1.982594	N AA F
-1.623572	N AA G
-2.283624	N AA HH
-2.450404	N AA IY
-2.225632	N AA JH
-1.231095	N AA K
-1.060536	N AA L
-1.236628	N AA M
-0.5343297	N AA N
-1.610208	N AA P
-0.888173	N AA R
-1.421152	N AA S
-2.259983	N AA SH
-1.515938	N AA SIL
-1.103416	N AA T
-2.17448	N AA TH
-1.343392	N AA V
-2.22541	N AA W
-2.259983	N AA Y
-1.87345	N AA Z
-1.099833	OW AA D
-0.9094118	OW AA K
-1.041515	OW AA L
-0.60206	OW AA P
-0.8239087	OW AA R
-1.099833	OW AA SIL
-1.041515	OW AA T
-0.9094118	OW AA TH
-0.3216814	OY AA N
-0.3216814	OY AA R
-2.229268	P AA B
-2.22949	P AA CH
-1.601101	P AA D
-2.26384	P AA F
-1.902131	P AA G
-2.395943	P AA JH
-1.588512	P AA K
-0.774645	P AA L
-1.442384	P AA M
-0.8293838	P AA N
-2.655459	P AA NG
-2.178337	P AA OW
-1.173538	P AA P
-0.560871	P AA R
-1.188097	P AA S
-2.287482	P AA SH
-2.053399	P AA SIL
-1.203161	P AA T
-2.178337	P AA TH
-1.655459	P AA V
-2.454261	P AA W
-1.416577	P AA Z
-2.838639	R AA AH
-1.21539	R AA B
-1.759458	R AA CH
-1.195187	R AA D
-2.637442	R AA DH
-1.567572	R AA F
-1.371278	R AA G
-2.470662	R AA HH
-2.637442	R AA IH
-2.470662	R AA IY
-1.662548	R AA JH
-0.9355493	R AA K
-1.41267	R AA L
-1.043919	R AA M
-0.7655321	R AA N
-1.973338	R AA NG
-2.637442	R AA OW
-1.240214	R AA P
-1.900787	R AA R
-1.048589	R AA S
-2.01473	R AA SH
-1.591485	R AA SIL
-1.324534	R AA T
-2.361518	R AA TH
-2.447021	R AA UW
-1.559886	R AA V
-2.470662	R AA W
-2.412671	R AA Y
-1.523369	R AA Z
-2.037007	R AA ZH
-1.411713	S AA B
-2.064704	S AA CH
-1.324563	S AA D
-1.570076	S AA F
-1.926623	S AA G
-2.099276	S AA HH
-2.099276	S AA IY
-1.141941	S AA K
-0.7350196	S AA L
-1.324563	S AA M
-0.6961741	S AA N
-2.490895	S AA NG
-2.289697	S AA OW
-1.737567	S AA P
-0.7225031	S AA R
-2.064926	S AA S
-2.289697	S AA SH
-1.926623	S AA SIL
-1.553042	S AA T
-2.289697	S AA TH
-1.436537	S AA V
-2.064704	S AA W
-2.122918	S AA Y
-2.064704	S AA Z
-2.064926	S AA ZH
-1.850598	SH AA AH
-1.625827	SH AA B
-1.528917	SH AA D
-1.625605	SH AA F
-2.051795	SH AA IY
-1.79228	SH AA JH
-1.167189	SH AA K
-1.449735	SH AA L
-1.625827	SH AA M
-1.250163	SH AA N
-1.625605	SH AA NG
-0.8954483	SH AA P
-0.4497355	SH AA R
-1.79228	SH AA S
-1.625827	SH AA SIL
-0.9848487	SH AA T
-1.850598	SH AA TH
-1.850598	SH AA V
-2.051795	SH AA W
-1.850598	SH AA Z
-1.382467	SIL AA B
-2.548921	SIL AA CH
-1.382467	SIL AA D
-2.055108	SIL AA F
-1.613459	SIL AA G
-2.548921	SIL AA HH
-2.808436	SIL AA IY
-2.808436	SIL AA JH
-1.185187	SIL AA K
-0.8841568	SIL AA L
-1.321769	SIL AA M
-1.042519	SIL AA N
-1.923829	SIL AA NG
-1.206376	SIL AA P
-0.4814179	SIL AA R
-1.181754	SIL AA S
-2.416818	SIL AA SH
-2.416818	SIL AA SIL
-1.577987	SIL AA T
-2.808436	SIL AA TH
-2.808436	SIL AA UW
-1.741489	SIL AA V
-2.607239	SIL AA Y
-1.887617	SIL AA Z
-1.98324	T AA B
-2.175125	T AA CH
-1.749156	T AA D
-1.66697	T AA F
-1.624218	T AA G
-2.451049	T AA IH
-2.652246	T AA IY
-2.175125	T AA JH
-0.9014809	T AA K
-0.9503906	T AA L
-1.076289	T AA M
-0.8240162	T AA N
-1.874095	T AA NG
-1.184885	T AA P
-0.61615	T AA R
-1.731428	T AA S
-2.015424	T AA SH
-1.714394	T AA SIL
-1.624218	T AA T
-1.652246	T AA V
-2.260628	T AA W
-2.652246	T AA Y
-2.129368	T AA Z
-2.226056	T AA ZH
-1.187643	TH AA D
-1.245961	TH AA G
-1.245961	TH AA K
-0.544068	TH AA L
-0.8828866	TH AA M
-0.9700368	TH AA N
-0.845098	TH AA R
-1.245961	TH AA S
-1.05554	TH AA T
-0.882018	UW AA D
-1.107011	UW AA K
-1.048693	UW AA L
-0.3381718	UW AA N
-0.7439371	UW AA R
-1.308209	UW AA T
-1.869248	V AA CH
-1.436957	V AA D
-1.624044	V AA G
-2.260866	V AA JH
-1.219473	V AA K
-0.564801	V AA L
-1.869248	V AA M
-0.7086036	V AA N
-2.001351	V AA NG
-2.059669	V AA P
-0.6810825	V AA R
-1.193919	V AA S
-1.869248	V AA SH
-1.869248	V AA SIL
-1.561896	V AA T
-2.059669	V AA Y
-1.624044	V AA Z
-1.651686	W AA B
-1.30719	W AA CH
-1.249198	W AA D
-2.252121	W AA DH
-1.675167	W AA F
-2.02735	W AA G
-2.193803	W AA HH
-1.453318	W AA K
-0.8890469	W AA L
-1.339375	W AA M
-0.7103315	W AA N
-1.675167	W AA NG
-1.588017	W AA P
-1.043949	W AA R
-1.483282	W AA S
-1.258342	W AA SH
-1.167012	W AA SIL
-1.12426	W AA T
-2.252121	W AA TH
-2.027128	W AA V
-2.252121	W AA W
-2.252121	W AA Y
-1.5325	W AA Z
-1.665287	Y AA CH
-2.056905	Y AA D
-1.855707	Y AA F
-1.665287	Y AA G
-1.688928	Y AA HH
-1.153815	Y AA K
-1.579784	Y AA L
-0.8905734	Y AA M
-0.8097503	Y AA N
-1.630936	Y AA NG
-0.5340261	Y AA R
-1.153815	Y AA S
-1.630714	Y AA SH
-1.387898	Y AA SIL
-1.420083	Y AA T
-1.855707	Y AA W
-1.534026	Y AA Z
-1.619811	Z AA B
-1.810232	Z AA CH
-1.374607	Z AA D
-1.643453	Z AA G
-1.073577	Z AA K
-0.845098	Z AA L
-1.233278	Z AA M
-0.696159	Z AA N
-1.810232	Z AA NG
-1.585461	Z AA P
-0.6372924	Z AA R
-1.643453	Z AA S
-1.810232	Z AA SIL
-1.488551	Z AA T
-1.488551	Z AA V
-1.643453	Z AA W
-2.01143	Z AA Z
-1.135663	ZH AA K
-0.9344652	ZH AA L
-0.7096938	ZH AA N
-0.9344652	ZH AA NG
-0.7440444	ZH AA R
-0.7440444	ZH AA SIL
-0.9344652	ZH AA ZH
-0.9128498	AY AE D
-1	AY AE G
-1	AY AE K
-1.275924	AY AE L
-1.109144	AY AE M
-0.5392691	AY AE N
-1.217606	AY AE NG
-1.085503	AY AE S
-1.275924	AY AE T
-1.275924	AY AE Z
-1.525405	B AE B
-1.759488	B AE CH
-1.634549	B AE D
-2.403389	B AE DH
-2.236609	B AE F
-1.349313	B AE G
-2.403389	B AE HH
-2.040315	B AE JH
-0.6734673	B AE K
-1.028629	B AE L
-1.739285	B AE M
-0.8830502	B AE N
-0.8436612	B AE NG
-1.935579	B AE P
-1.282367	B AE R
-1.113224	B AE S
-1.759488	B AE SH
-1.06887	B AE T
-1.851258	B AE TH
-2.236609	B AE Z
-1.376909	CH AE D
-1.418301	CH AE F
-0.9559033	CH AE K
-1.096082	CH AE L
-1.003328	CH AE M
-0.6259096	CH AE N
-1.573203	CH AE NG
-1.020361	CH AE P
-1.549562	CH AE R
-1.418301	CH AE S
-0.8385177	CH AE T
-1.549562	CH AE V
-1.549562	CH AE Z
-1.596597	D AE B
-1.280327	D AE D
-1.512276	D AE F
-1.441695	D AE G
-1.174523	D AE K
-1.002362	D AE L
-0.8184459	D AE M
-0.5724634	D AE N
-1.463971	D AE NG
-1.487453	D AE P
-1.596597	D AE R
-1.538605	D AE S
-1.400302	D AE SH
-1.174523	D AE T
-1.538605	D AE V
-2.006089	D AE Z
-0.04151475	DH AE T
-1.523435	ER AE B
-1.78295	ER AE CH
-1.260071	ER AE D
-1.581753	ER AE F
-0.7160034	ER AE K
-1.055951	ER AE L
-1.029622	ER AE M
-0.5525012	ER AE N
-1.356981	ER AE NG
-1.78295	ER AE P
-1.029622	ER AE S
-1.218679	ER AE T
-1.161368	F AE B
-1.763428	F AE CH
-1.411245	F AE D
-1.797778	F AE DH
-1.552575	F AE G
-1.988199	F AE HH
-0.7474399	F AE K
-0.9589478	F AE L
-1.344299	F AE M
-0.7370991	F AE N
-1.666518	F AE NG
-1.387764	F AE R
-0.90309	F AE S
-1.490427	F AE SH
-1.30479	F AE T
-1.763206	F AE TH
-1.988199	F AE V
-2.189397	F AE Z
-1.505903	G AE B
-1.916078	G AE CH
-1.505903	G AE D
-1.916078	G AE DH
-1.806933	G AE F
-1.615048	G AE G
-1.892436	G AE HH
-1.892436	G AE JH
-2.082857	G AE K
-0.6783904	G AE L
-1.098418	G AE M
-0.7399865	G AE N
-1.399448	G AE NG
-1.858086	G AE P
-1.089078	G AE R
-0.8746851	G AE S
-2.284055	G AE SH
-1.298778	G AE T
-2.024539	G AE TH
-1.719783	G AE V
-1.857864	G AE Z
-1.435004	HH AE B
-1.848008	HH AE CH
-1.680517	HH AE D
-1.487392	HH AE F
-1.455208	HH AE G
-2.233359	HH AE JH
-1.425244	HH AE K
-1.087231	HH AE L
-0.7480431	HH AE M
-0.506748	HH AE N
-1.388261	HH AE NG
-1.559943	HH AE P
-1.534389	HH AE R
-1.322582	HH AE S
-1.736034	HH AE SH
-1.546978	HH AE T
-2.233359	HH AE TH
-1.587095	HH AE V
-2.400138	HH AE W
-1.756238	HH AE Z
-0.02065134	IH AE P
-1.462398	IY AE D
-1.825472	IY AE JH
-0.4867573	IY AE K
-1.072427	IY AE L
-2.02667	IY AE M
-0.4703669	IY AE N
-1.635051	IY AE NG
-1.635051	IY AE P
-1.462398	IY AE S
-1.088817	IY AE T
-1.549548	IY AE Z
-1.50515	JH AE B
-1.40824	JH AE F
-1.40824	JH AE G
-0.4039186	JH AE K
-1.129486	JH AE M
-0.6922366	JH AE N
-1.262112	JH AE NG
-1.931119	JH AE P
-1.563142	JH AE R
-1.294297	JH AE S
-1.504928	JH AE V
-1.453997	JH AE Z
-2.600892	K AE AH
-1.645742	K AE B
-1.898999	K AE CH
-1.58024	K AE D
-2.375899	K AE DH
-1.688146	K AE F
-2.237818	K AE G
-2.802089	K AE HH
-1.956991	K AE K
-0.8543289	K AE L
-0.954928	K AE M
-0.7028692	K AE N
-2.133082	K AE NG
-1.056494	K AE P
-1.279211	K AE R
-0.8971935	K AE S
-1.625998	K AE SH
-1.064367	K AE T
-1.616453	K AE TH
-1.722908	K AE V
-1.956991	K AE Z
-2.279211	K AE ZH
-1.450499	L AE B
-1.828369	L AE CH
-1.416641	L AE D
-2.416641	L AE DH
-1.717671	L AE F
-1.595455	L AE G
-2.474633	L AE HH
-2.583094	L AE JH
-0.9893167	L AE K
-2.115611	L AE L
-1.054913	L AE M
-0.5540619	L AE N
-1.189397	L AE NG
-1.405917	L AE P
-1.763428	L AE R
-0.91833	L AE S
-1.462398	L AE SH
-1.155378	L AE T
-2.240549	L AE TH
-1.828369	L AE V
-2.842609	L AE W
-1.958003	L AE Z
-2.211703	M AE B
-1.684894	M AE CH
-1.378034	M AE D
-2.253096	M AE DH
-2.516459	M AE F
-1.173914	M AE G
-2.173914	M AE HH
-1.580998	M AE JH
-0.8347943	M AE K
-1.113217	M AE L
-1.910673	M AE M
-0.5558662	M AE N
-1.684894	M AE NG
-2.173914	M AE P
-1.761734	M AE R
-0.9434654	M AE S
-1.997823	M AE SH
-0.9835826	M AE T
-1.619627	M AE TH
-2.298853	M AE V
-2.139152	M AE Z
-1.600342	N AE B
-1.1889	N AE CH
-1.578066	N AE D
-1.703005	N AE F
-1.498885	N AE G
-1.975784	N AE JH
-0.9445974	N AE K
-1.053021	N AE L
-1.288031	N AE M
-0.7787253	N AE N
-1.837703	N AE NG
-1.072916	N AE P
-1.879096	N AE R
-1.266312	N AE S
-0.8878698	N AE SH
-1.310894	N AE T
-1.975784	N AE TH
-1.481156	N AE V
-1.924853	N AE Z
-0.90309	OW AE G
-0.3802112	OW AE K
-0.7018926	OW AE L
-0.6435747	OW AE N
-2.290631	P AE B
-1.491828	P AE CH
-1.389166	P AE D
-2.290631	P AE DH
-2.491828	P AE F
-1.792858	P AE G
-1.927557	P AE JH
-0.8825899	P AE K
-1.055136	P AE L
-1.626527	P AE M
-0.6550825	P AE N
-1.506552	P AE NG
-1.66792	P AE P
-1.607222	P AE R
-0.8197306	P AE S
-1.713677	P AE SH
-0.9733145	P AE T
-1.389166	P AE TH
-1.792858	P AE V
-2.014707	P AE Z
-1.593411	R AE B
-2.046729	R AE CH
-1.292381	R AE D
-2.57593	R AE DH
-1.079181	R AE F
-1.530855	R AE G
-2.490427	R AE HH
-1.926155	R AE JH
-0.9463587	R AE K
-1.982271	R AE L
-1.005337	R AE M
-0.5632846	R AE N
-1.280316	R AE NG
-1.411245	R AE P
-2.57593	R AE R
-1.277352	R AE S
-1.704306	R AE SH
-1.194249	R AE T
-2.013305	R AE TH
-1.471541	R AE V
-2.766351	R AE W
-1.900601	R AE Z
-1.676962	S AE B
-1.761283	S AE CH
-1.375932	S AE D
-1.564989	S AE F
-1.953169	S AE G
-2.229093	S AE HH
-2.229093	S AE JH
-0.9729129	S AE K
-0.9161853	S AE L
-0.9779924	S AE M
-0.5419234	S AE N
-1.351109	S AE NG
-1.703291	S AE P
-1.866019	S AE R
-1.327628	S AE S
-2.038672	S AE SH
-1.101231	S AE T
-2.229093	S AE TH
-1.5272	S AE V
-1.559395	SH AE B
-0.8483512	SH AE D
-1.127105	SH AE F
-1.559395	SH AE G
-1.749816	SH AE HH
-0.9809768	SH AE K
-1.149381	SH AE L
-0.8966559	SH AE M
-0.8718323	SH AE N
-1.085712	SH AE NG
-1.252043	SH AE P
-1.524823	SH AE R
-1.559395	SH AE S
-1.105916	SH AE T
-1.215986	SIL AE B
-2.507256	SIL AE CH
-1.08675	SIL AE D
-1.465863	SIL AE F
-1.507256	SIL AE G
-2.78318	SIL AE HH
-2.206226	SIL AE JH
-1.019019	SIL AE K
-0.7775514	SIL AE L
-1.033364	SIL AE M
-0.6712134	SIL AE N
-1.563871	SIL AE NG
-1.40842	SIL AE P
-1.905196	SIL AE R
-1.312279	SIL AE S
-1.721136	SIL AE SH
-1.512109	SIL AE T
-2.119076	SIL AE TH
-1.771302	SIL AE V
-1.970137	SIL AE Z
-1.324511	T AE B
-1.500602	T AE CH
-1.658965	T AE D
-1.413452	T AE F
-1.316542	T AE G
-0.9170257	T AE K
-0.988719	T AE L
-1.132626	T AE M
-0.5572178	T AE N
-1.224396	T AE NG
-1.625541	T AE P
-2.102662	T AE R
-1.433656	T AE S
-1.714482	T AE SH
-1.16481	T AE T
-2.320268	T AE TH
-2.015512	T AE V
-2.153593	T AE Z
-0.8782664	TH AE CH
-0.9637695	TH AE D
-1.355388	TH AE G
-0.8325089	TH AE K
-0.7533277	TH AE L
-1.095872	TH AE M
-0.7911162	TH AE N
-0.8325089	TH AE NG
-0.8401953	UW AE D
-0.8401953	UW AE K
-0.3424227	UW AE L
-0.6152021	UW AE N
-2.38501	V AE CH
-1.907889	V AE D
-2.38501	V AE G
-1.137856	V AE K
-0.6526164	V AE L
-1.716003	V AE M
-0.2721818	V AE N
-1.68604	V AE NG
-1.716003	V AE P
-2.38501	V AE R
-1.282348	V AE S
-2.183813	V AE SH
-1.907889	V AE T
-2.38501	V AE TH
-1.993392	V AE Z
-0.4593925	W AE G
-0.4259687	W AE K
-1.681241	W AE L
-1.313264	W AE M
-1.313264	W AE N
-0.9279135	W AE NG
-1.480044	W AE R
-1.684247	Y AE B
-1.292629	Y AE G
-0.8391487	Y AE K
-1.483049	Y AE L
-1.684247	Y AE M
-0.5485842	Y AE N
-0.7996402	Y AE NG
-1.292629	Y AE P
-1.684247	Y AE R
-1.119975	Y AE S
-1.483049	Y AE T
-1.292629	Y AE V
-1.292629	Y AE Z
-1.679616	Z AE B
-1.880814	Z AE D
-1.880814	Z AE F
-1.278754	Z AE G
-1.403692	Z AE JH
-0.6766936	Z AE K
-1.489195	Z AE L
-0.8394209	Z AE M
-0.5450215	Z AE N
-1.621298	Z AE NG
-1.278754	Z AE P
-1.621298	Z AE R
-1.153815	Z AE S
-1.880814	Z AE Z
-0.217606	AA AH N
-0.02065134	AE AH V
-0.2428162	AO AH L
-0.4094915	AO AH N
-1.267685	AW AH B
-1.5272	AW AH D
-1.326003	AW AH K
-0.4728425	AW AH L
-0.4858074	AW AH N
-1.326003	AW AH S
-1.135582	AW AH SIL
-1.101009	AW AH T
-1.224015	AY AH B
-2.101999	AY AH CH
-1.701136	AY AH D
-1.911578	AY AH F
-1.576197	AY AH G
-2.303196	AY AH JH
-1.458098	AY AH K
-0.8358346	AY AH L
-1.288956	AY AH M
-0.5524306	AY AH N
-1.911578	AY AH P
-1.032129	AY AH S
-1.224015	AY AH SIL
-0.8407981	AY AH T
-1.911578	AY AH TH
-2.101999	AY AH V
-1.877005	AY AH W
-1.877227	AY AH Z
-1.857935	B AH B
-2.158965	B AH CH
-1.647082	B AH D
-1.836746	B AH F
-1.787897	B AH G
-2.346052	B AH HH
-2.204723	B AH JH
-1.310776	B AH K
-0.30103	B AH L
-1.836746	B AH M
-0.9672348	B AH N
-1.903693	B AH NG
-2.591256	B AH P
-2.229546	B AH R
-1.264096	B AH S
-2.283904	B AH SH
-1.313867	B AH SIL
-1.107813	B AH T
-2.313867	B AH TH
-2.079784	B AH V
-2.591256	B AH W
-2.556905	B AH Y
-1.743992	B AH Z
-1.451221	CH AH B
-2.252853	CH AH D
-1.884876	CH AH F
-1.826884	CH AH G
-1.315001	CH AH K
-0.7432026	CH AH L
-1.198495	CH AH M
-0.5716118	CH AH N
-1.993338	CH AH NG
-1.775732	CH AH P
-1.198495	CH AH S
-1.031004	CH AH SIL
-1.451221	CH AH T
-1.775732	CH AH V
-1.474702	CH AH W
-2.051656	CH AH Y
-1.039778	CH AH Z
-1.338819	D AH B
-2.442359	D AH CH
-1.439031	D AH D
-1.669812	D AH F
-1.976519	D AH G
-2.477121	D AH HH
-2.30103	D AH JH
-1.089435	D AH K
-0.6941711	D AH L
-1.156629	D AH M
-0.6113266	D AH N
-2.124939	D AH NG
-1.866106	D AH P
-2.819666	D AH R
-1.328416	D AH S
-2.442359	D AH SH
-0.875967	D AH SIL
-1.569531	D AH T
-2.653213	D AH TH
-1.800428	D AH V
-2.352183	D AH W
-1.69897	D AH Z
-0.965134	DH AH L
-0.5295093	DH AH M
-0.965134	DH AH N
-0.9068162	DH AH S
-0.60206	DH AH SIL
-0.965134	DH AH Z
-1.048463	ER AH B
-2.002484	ER AH CH
-1.951553	ER AH D
-2.227477	ER AH DH
-2.428675	ER AH F
-1.791852	ER AH G
-1.905796	ER AH JH
-1.905796	ER AH K
-0.6091307	ER AH L
-1.791852	ER AH M
-0.6602832	ER AH N
-2.428675	ER AH NG
-1.374317	ER AH P
-0.937313	ER AH S
-1.349493	ER AH SIL
-0.9280723	ER AH T
-2.428675	ER AH V
-1.525585	ER AH Z
-1.164684	EY AH B
-1.079181	EY AH L
-1.130112	EY AH M
-0.5019448	EY AH N
-1.079181	EY AH S
-0.6910011	EY AH SIL
-1.355105	EY AH T
-1.556303	EY AH V
-1.355105	EY AH W
-1.296787	EY AH Z
-1.866656	F AH B
-2.593655	F AH CH
-1.565627	F AH D
-2.593655	F AH DH
-2.202037	F AH F
-2.225678	F AH G
-2.392458	F AH HH
-2.167686	F AH JH
-1.070776	F AH K
-0.4622504	F AH L
-1.490993	F AH M
-0.6251723	F AH N
-1.514474	F AH NG
-2.33414	F AH R
-0.9635665	F AH S
-1.608378	F AH SIL
-1.417564	F AH T
-2.202037	F AH TH
-2.202037	F AH V
-1.924648	F AH Z
-1.868812	G AH B
-2.412658	G AH CH
-1.71391	G AH D
-1.973548	G AH F
-2.412658	G AH G
-2.412658	G AH HH
-2.361728	G AH JH
-2.274578	G AH K
-0.5091123	G AH L
-1.311649	G AH M
-0.5356531	G AH N
-2.838849	G AH NG
-2.236789	G AH P
-2.41288	G AH R
-1.122846	G AH S
-2.361728	G AH SH
-1.12845	G AH SIL
-1.244088	G AH T
-2.41288	G AH TH
-1.583577	G AH V
-2.447231	G AH W
-1.53064	G AH Z
-1.274271	HH AH B
-1.773111	HH AH CH
-1.381904	HH AH D
-1.274271	HH AH F
-1.424656	HH AH G
-2.409933	HH AH JH
-1.36854	HH AH K
-0.8263565	HH AH L
-0.7901444	HH AH M
-0.7471753	HH AH N
-1.525326	HH AH NG
-2.041956	HH AH P
-2.150418	HH AH R
-1.162778	HH AH S
-1.983964	HH AH SH
-1.409933	HH AH SIL
-1.409933	HH AH T
-1.506843	HH AH V
-2.018315	HH AH W
-2.409933	HH AH Y
-1.887054	HH AH Z
-1.892095	IY AH B
-2.554834	IY AH CH
-2.043362	IY AH D
-2.247482	IY AH F
-2.247482	IY AH G
-2.520483	IY AH JH
-2.344392	IY AH K
-0.9874108	IY AH L
-1.173154	IY AH M
-0.5161622	IY AH N
-2.745255	IY AH NG
-1.99221	IY AH P
-1.00197	IY AH S
-2.469331	IY AH SH
-0.5602506	IY AH SIL
-1.402384	IY AH T
-2.946452	IY AH V
-2.686937	IY AH W
-1.330152	IY AH Z
-2.745255	IY AH ZH
-1.399123	JH AH B
-1.812127	JH AH D
-1.662364	JH AH G
-2.305939	JH AH HH
-1.627602	JH AH JH
-1.379818	JH AH K
-0.9387718	JH AH L
-1.343606	JH AH M
-0.4627919	JH AH N
-1.379818	JH AH NG
-2.001183	JH AH P
-2.173836	JH AH R
-0.9026964	JH AH S
-1.565454	JH AH SIL
-1.279148	JH AH T
-2.305939	JH AH V
-1.787303	JH AH W
-1.203726	JH AH Z
-1.621661	K AH B
-2.156322	K AH CH
-1.818863	K AH D
-2.167317	K AH F
-2.327018	K AH G
-2.253232	K AH HH
-2.612254	K AH JH
-2.068186	K AH K
-0.603958	K AH L
-0.9028628	K AH M
-0.5863631	K AH N
-2.804139	K AH NG
-1.565257	K AH P
-2.457352	K AH R
-1.3335	K AH S
-2.26702	K AH SH
-1.025988	K AH SIL
-1.239868	K AH T
-2.527933	K AH TH
-1.517833	K AH V
-2.554262	K AH W
-2.889642	K AH Y
-1.713059	K AH Z
-1.488043	L AH B
-2.534343	L AH CH
-1.48561	L AH D
-1.583127	L AH F
-1.601743	L AH G
-2.15868	L AH HH
-1.264247	L AH JH
-1.198134	L AH K
-2.194395	L AH L
-1.100974	L AH M
-0.6377484	L AH N
-2.115214	L AH NG
-1.62452	L AH P
-3.261342	L AH R
-0.9841151	L AH S
-2.247102	L AH SH
-0.8474838	L AH SIL
-1.030893	L AH T
-2.697071	L AH TH
-1.548132	L AH V
-2.170262	L AH W
-1.583127	L AH Z
-2.477184	M AH B
-2.259128	M AH CH
-1.813606	M AH D
-2.320398	M AH DH
-2.27071	M AH F
-1.506474	M AH G
-2.376514	M AH HH
-2.195459	M AH JH
-0.8177227	M AH K
-1.116278	M AH L
-2.106518	M AH M
-0.2959622	M AH N
-2.440972	M AH NG
-2.692784	M AH P
-2.797519	M AH R
-1.38103	M AH S
-2.294844	M AH SH
-1.298583	M AH SIL
-1.28261	M AH T
-2.259128	M AH TH
-2.993814	M AH V
-2.970173	M AH W
-1.756127	M AH Z
-1.521885	N AH B
-2.71377	N AH CH
-1.733515	N AH D
-3.190892	N AH DH
-1.581653	N AH F
-1.676787	N AH G
-2.005255	N AH HH
-2.136534	N AH JH
-1.362662	N AH K
-0.7360469	N AH L
-1.210131	N AH M
-0.990406	N AH N
-2.822915	N AH NG
-1.861833	N AH P
-2.764923	N AH R
-0.8118885	N AH S
-2.764923	N AH SH
-0.7714868	N AH SIL
-1.093982	N AH T
-2.205615	N AH TH
-1.659413	N AH V
-2.220855	N AH W
-2.931376	N AH Y
-1.450529	N AH Z
-0.7853298	NG AH L
-0.8310874	NG AH M
-0.4051186	NG AH N
-1.107011	NG AH P
-1.107011	NG AH SIL
-0.882018	NG AH T
-1.379234	OW AH B
-1.569655	OW AH F
-1.569655	OW AH G
-0.9055506	OW AH L
-1.402875	OW AH M
-0.4845453	OW AH N
-1.770852	OW AH P
-1.293731	OW AH S
-0.7039052	OW AH SIL
-1.402875	OW AH T
-1.379234	OW AH W
-1.206581	OW AH Z
-1.102213	OY AH B
-0.9701096	OY AH JH
-0.4964264	OY AH L
-0.7249057	OY AH N
-0.6627578	OY AH SIL
-1.102213	OY AH Z
-1.343474	P AH B
-2.315445	P AH CH
-1.486142	P AH D
-2.042444	P AH F
-1.713386	P AH G
-2.481899	P AH HH
-1.988087	P AH JH
-1.510965	P AH K
-0.5016978	P AH L
-1.820596	P AH M
-0.8119953	P AH N
-1.803562	P AH NG
-1.687057	P AH P
-2.373437	P AH R
-1.173213	P AH S
-2.741414	P AH SH
-1.326441	P AH SIL
-0.9262794	P AH T
-1.616475	P AH TH
-2.042444	P AH V
-1.294256	P AH Z
-3.098165	R AH AO
-1.45842	R AH B
-2.208282	R AH CH
-1.369943	R AH D
-2.49773	R AH DH
-1.326234	R AH F
-1.566968	R AH G
-2.232415	R AH HH
-3.299362	R AH IY
-2.005631	R AH JH
-1.211817	R AH K
-1.035332	R AH L
-1.058813	R AH M
-0.7532308	R AH N
-2.068913	R AH NG
-1.424301	R AH P
-2.66254	R AH R
-0.9940106	R AH S
-1.776483	R AH SH
-0.9635699	R AH SIL
-1.158435	R AH T
-2.454264	R AH TH
-1.659212	R AH V
-2.329325	R AH W
-2.776483	R AH Y
-1.561639	R AH Z
-3.299362	R AH ZH
-1.111165	S AH B
-2.618571	S AH CH
-1.607847	S AH D
-2.493632	S AH DH
-1.561032	S AH F
-2.250594	S AH G
-2.852654	S AH HH
-2.299812	S AH JH
-1.40995	S AH K
-0.8090113	S AH L
-1.196693	S AH M
-0.4199139	S AH N
-2.697752	S AH NG
-1.401087	S AH P
-2.794662	S AH R
-1.447332	S AH S
-1.341726	S AH SIL
-1.469866	S AH T
-2.74351	S AH TH
-1.973476	S AH V
-2.794441	S AH W
-1.375533	S AH Z
-2.180724	SH AH B
-2.639362	SH AH D
-2.220233	SH AH F
-2.639362	SH AH G
-2.639362	SH AH HH
-1.998384	SH AH K
-1.103119	SH AH L
-1.908983	SH AH M
-0.1156155	SH AH N
-2.864133	SH AH NG
-2.037302	SH AH P
-2.673712	SH AH R
-1.493234	SH AH S
-2.673712	SH AH SH
-1.560181	SH AH SIL
-1.870354	SH AH T
-2.338332	SH AH V
-2.463271	SH AH W
-1.7716	SH AH Z
-1.09972	SIL AH B
-2.376837	SIL AH CH
-1.277453	SIL AH D
-2.522966	SIL AH DH
-1.510128	SIL AH F
-1.677868	SIL AH G
-2.346874	SIL AH HH
-1.966663	SIL AH JH
-1.209098	SIL AH K
-1.054618	SIL AH L
-1.253453	SIL AH M
-0.4687357	SIL AH N
-2.481573	SIL AH NG
-1.021906	SIL AH P
-2.318846	SIL AH R
-1.165031	SIL AH S
-2.200746	SIL AH SH
-3.045844	SIL AH SIL
-1.477643	SIL AH T
-2.346874	SIL AH TH
-1.815395	SIL AH V
-2.200746	SIL AH W
-2.654226	SIL AH Y
-2.142754	SIL AH Z
-1.316784	T AH B
-2.364707	T AH CH
-1.05561	T AH D
-1.530075	T AH F
-1.655013	T AH G
-2.899821	T AH HH
-2.20085	T AH JH
-1.418583	T AH K
-0.8009297	T AH L
-1.193469	T AH M
-0.5104012	T AH N
-2.443889	T AH NG
-1.81042	T AH P
-2.329945	T AH R
-1.326617	T AH S
-2.744919	T AH SH
-0.9959557	T AH SIL
-1.617814	T AH T
-3.008282	T AH TH
-2.11145	T AH V
-2.422699	T AH W
-1.688014	T AH Z
-1.89339	TH AH B
-1.292955	TH AH D
-1.726611	TH AH G
-1.835072	TH AH JH
-1.492528	TH AH K
-0.7793171	TH AH L
-0.7723683	TH AH M
-0.5423251	TH AH N
-1.702969	TH AH P
-1.080347	TH AH S
-1.053195	TH AH SIL
-1.726611	TH AH T
-1.668397	TH AH W
-1.835072	TH AH Z
-1.685102	UW AH B
-1.66146	UW AH D
-1.66146	UW AH JH
-0.3541085	UW AH L
-1.851881	UW AH M
-0.7308592	UW AH N
-1.851881	UW AH P
-0.9174159	UW AH S
-1.038838	UW AH SIL
-1.251446	UW AH T
-2.053078	UW AH Z
-1.62591	V AH B
-2.214181	V AH CH
-1.612121	V AH D
-1.838518	V AH G
-2.117271	V AH HH
-2.214181	V AH JH
-1.353843	V AH K
-0.5658213	V AH L
-2.213959	V AH M
-0.5228788	V AH N
-2.64015	V AH NG
-2.248532	V AH R
-1.148788	V AH S
-0.9869375	V AH SIL
-1.049085	V AH T
-2.64015	V AH TH
-2.64015	V AH V
-2.438953	V AH W
-1.816241	V AH Z
-1.803628	W AH B
-1.665325	W AH D
-2.028399	W AH DH
-1.970081	W AH F
-1.970081	W AH HH
-1.837978	W AH JH
-1.803628	W AH K
-0.6536393	W AH L
-1.970081	W AH M
-0.5731789	W AH N
-2.028399	W AH NG
-1.215356	W AH S
-0.792904	W AH SIL
-0.9585298	W AH T
-1.229596	W AH Z
-1.752433	Y AH B
-2.375144	Y AH EY
-1.974281	Y AH F
-2.576341	Y AH G
-2.184723	Y AH HH
-1.774709	Y AH K
-0.5044593	Y AH L
-1.3131	Y AH M
-0.628581	Y AH N
-1.521984	Y AH NG
-1.655523	Y AH P
-2.150373	Y AH R
-1.576341	Y AH S
-0.8030426	Y AH SIL
-1.297588	Y AH T
-2.053463	Y AH V
-1.774709	Y AH W
-1.606305	Y AH Z
-1.397085	Z AH B
-1.860195	Z AH D
-2.141022	Z AH F
-2.006323	Z AH G
-2.705293	Z AH HH
-2.337317	Z AH JH
-1.59135	Z AH K
-0.743082	Z AH L
-0.6297464	Z AH M
-0.5792703	Z AH N
-2.705293	Z AH NG
-2.103233	Z AH P
-2.279103	Z AH R
-2.068471	Z AH S
-1.000571	Z AH SIL
-1.458139	Z AH T
-2.036287	Z AH V
-1.301601	Z AH Z
-1.710847	ZH AH K
-1.65253	ZH AH L
-0.1104125	ZH AH N
-1.008955	ZH AH SIL
-1.389166	ZH AH W
-1.389166	ZH AH Z
-0.1249387	AH AO R
-0.1627273	AY AO R
-0.5258013	AY AO T
-1.833784	B AO B
-2.356663	B AO CH
-1.879542	B AO D
-2.356663	B AO ER
-1.833784	B AO F
-1.988686	B AO G
-1.833784	B AO K
-0.7582374	B AO L
-1.719841	B AO M
-1.657693	B AO N
-2.356663	B AO NG
-0.2872417	B AO R
-1.472057	B AO S
-1.988686	B AO SH
-0.9416898	B AO SIL
-1.719841	B AO T
-2.356663	B AO Z
-0.8822398	CH AO F
-0.9402318	CH AO K
-1.107011	CH AO L
-1.308209	CH AO M
-0.7439371	CH AO N
-1.107011	CH AO NG
-0.8310874	CH AO R
-1.308209	CH AO S
-0.9165904	CH AO SIL
-1.308209	CH AO V
-1.85142	D AO B
-1.85142	D AO D
-1.257761	D AO F
-1.18868	D AO G
-1.85142	D AO K
-1.243038	D AO L
-2.041841	D AO M
-1.273001	D AO N
-1.606216	D AO NG
-0.224615	D AO R
-1.516039	D AO S
-2.243038	D AO SH
-1.983523	D AO SIL
-1.358431	D AO T
-2.243038	D AO Z
-0.02065134	DH AO L
-1.230166	ER AO B
-1.039746	ER AO D
-0.6297314	ER AO F
-1.431364	ER AO G
-0.762357	ER AO L
-0.8293038	ER AO N
-1.230166	ER AO NG
-1.230166	ER AO P
-1.039746	ER AO R
-1.431364	ER AO V
-0.4973246	EY AO F
-0.8653014	EY AO N
-0.4391108	EY AO R
-0.8653014	EY AO T
-2.076588	F AO B
-2.243368	F AO G
-1.807743	F AO K
-1.052455	F AO L
-1.620656	F AO N
-2.018375	F AO NG
-0.0879021	F AO R
-1.745595	F AO S
-2.444565	F AO SIL
-2.444565	F AO T
-2.243368	F AO Z
-2.010017	G AO AH
-1.583827	G AO D
-1.311047	G AO F
-1.583827	G AO G
-1.80882	G AO IY
-1.618399	G AO K
-0.9556594	G AO L
-1.125411	G AO N
-1.80882	G AO NG
-0.2722945	G AO R
-1.34101	G AO S
-2.010017	G AO SH
-1.583827	G AO SIL
-1.64204	G AO T
-2.010017	G AO Z
-1.870833	HH AO B
-0.8000531	HH AO F
-1.69818	HH AO G
-1.076815	HH AO K
-0.8000531	HH AO L
-2.061254	HH AO M
-1.69818	HH AO N
-1.836482	HH AO NG
-2.002936	HH AO P
-0.3593611	HH AO R
-1.78533	HH AO S
-1.870833	HH AO SIL
-1.739572	HH AO T
-2.002936	HH AO TH
-2.061254	HH AO V
-2.061254	HH AO Z
-1.142011	IY AO F
-1.367004	IY AO K
-1.200225	IY AO L
-1.045323	IY AO N
-1.367004	IY AO NG
-0.3129292	IY AO R
-1.142011	IY AO S
-1.200225	IY AO T
-1.176584	IY AO TH
-1.326003	JH AO B
-1.326003	JH AO D
-1.101231	JH AO N
-1.135582	JH AO NG
-0.1847774	JH AO R
-1.004321	JH AO S
-2.44911	K AO B
-2.44911	K AO CH
-2.258689	K AO D
-0.8969799	K AO F
-2.224339	K AO G
-2.44911	K AO IY
-1.785006	K AO K
-1.086036	K AO L
-2.173186	K AO M
-1.747218	K AO N
-1.826399	K AO NG
-1.872156	K AO P
-0.2298017	K AO R
-1.403153	K AO S
-1.981301	K AO SH
-2.282331	K AO SIL
-1.785006	K AO T
-2.224339	K AO TH
-2.086036	K AO V
-1.608915	K AO Z
-2.116797	L AO B
-2.283577	L AO CH
-1.382112	L AO D
-2.283577	L AO ER
-1.116797	L AO F
-1.338646	L AO G
-2.283577	L AO HH
-2.093156	L AO IH
-2.058583	L AO JH
-1.815767	L AO K
-1.920503	L AO L
-1.731447	L AO M
-1.135821	L AO N
-0.9887676	L AO NG
-2.093156	L AO P
-0.4291411	L AO R
-1.198467	L AO S
-2.484774	L AO SH
-1.349112	L AO SIL
-1.600168	L AO T
-2.116797	L AO TH
-2.058583	L AO V
-2.116797	L AO Y
-1.484774	L AO Z
-2.177201	M AO CH
-2.010421	M AO D
-2.177201	M AO DH
-2.378398	M AO F
-2.378398	M AO G
-1.952207	M AO JH
-2.010421	M AO K
-1.042606	M AO L
-1.5333	M AO N
-2.010421	M AO NG
-0.1231254	M AO R
-1.457579	M AO S
-2.378398	M AO SIL
-1.98678	M AO T
-1.952207	M AO TH
-2.378398	M AO Z
-2.050846	N AO B
-2.050846	N AO CH
-1.884067	N AO D
-0.9162514	N AO F
-1.525045	N AO G
-1.992528	N AO K
-1.314191	N AO L
-1.825853	N AO M
-1.687772	N AO N
-2.252043	N AO NG
-1.992528	N AO P
-0.2593428	N AO R
-1.687772	N AO S
-2.050846	N AO SH
-1.649984	N AO SIL
-1.172862	N AO T
-2.050846	N AO TH
-1.825853	N AO V
-1.826075	N AO Z
-0.09017663	OW AO R
-1.896841	P AO D
-1.741939	P AO F
-2.264818	P AO K
-0.9290257	P AO L
-1.399516	P AO N
-2.005303	P AO NG
-1.896841	P AO P
-0.1690675	P AO R
-1.380211	P AO S
-1.700546	P AO SIL
-2.005303	P AO T
-1.565848	P AO Z
-1.928558	R AO AH
-1.601421	R AO B
-1.92878	R AO CH
-0.9626381	R AO D
-2.153551	R AO ER
-1.107594	R AO F
-1.928558	R AO G
-1.928558	R AO IH
-1.96313	R AO JH
-1.752689	R AO K
-0.9930207	R AO L
-1.717926	R AO M
-0.9806114	R AO N
-1.300391	R AO NG
-1.986772	R AO P
-1.1243	R AO R
-0.7711719	R AO S
-1.877627	R AO SH
-1.576597	R AO SIL
-1.655779	R AO T
-1.107594	R AO TH
-1.92878	R AO V
-1.655779	R AO Z
-2.172214	S AO B
-1.327116	S AO D
-0.9680936	S AO F
-1.971016	S AO G
-1.912698	S AO IH
-1.971016	S AO IY
-1.746245	S AO K
-0.7980765	S AO L
-1.780595	S AO M
-1.348305	S AO N
-1.234362	S AO NG
-0.4479377	S AO R
-1.370581	S AO S
-1.370581	S AO SIL
-1.649335	S AO T
-2.172214	S AO V
-2.172214	S AO W
-2.172214	S AO Y
-1.649335	S AO Z
-1.576954	SH AO B
-1.518636	SH AO F
-1.778151	SH AO K
-1.176091	SH AO L
-1.576954	SH AO M
-1.109144	SH AO N
-1.778151	SH AO NG
-0.2914847	SH AO R
-1.576954	SH AO S
-0.7639108	SH AO SIL
-1.576954	SH AO T
-2.004321	SIL AO B
-1.37878	SIL AO D
-1.13902	SIL AO F
-1.67981	SIL AO G
-2.280245	SIL AO JH
-1.596836	SIL AO K
-0.8446205	SIL AO L
-2.481443	SIL AO M
-1.560624	SIL AO N
-2.481443	SIL AO NG
-1.917171	SIL AO P
-0.3597734	SIL AO R
-1.234288	SIL AO S
-2.221927	SIL AO SH
-2.280245	SIL AO SIL
-1.04475	SIL AO T
-1.543591	SIL AO TH
-2.004321	SIL AO Z
-1.991599	T AO B
-2.383217	T AO D
-1.237089	T AO F
-1.341824	T AO K
-1.170142	T AO L
-1.428974	T AO N
-2.01524	T AO NG
-1.957248	T AO P
-0.15533	T AO R
-1.957248	T AO S
-1.957026	T AO SH
-1.957026	T AO SIL
-1.957026	T AO T
-2.182019	T AO V
-2.182019	T AO Z
-0.7718111	TH AO L
-1.656418	TH AO N
-1.45522	TH AO NG
-0.1697511	TH AO R
-1.092146	TH AO T
-0.8016323	UW AO L
-0.600435	UW AO N
-0.4100142	UW AO NG
-0.8016323	UW AO R
-1.556303	V AO K
-0.6910011	V AO L
-0.8872957	V AO N
-0.2775489	V AO R
-1.130112	V AO S
-1.556303	V AO T
-2.454337	W AO B
-2.194821	W AO CH
-1.977215	W AO D
-2.253139	W AO G
-1.132117	W AO K
-0.5716224	W AO L
-2.028146	W AO M
-1.500094	W AO N
-1.755367	W AO NG
-2.454337	W AO P
-0.4025412	W AO R
-1.652704	W AO S
-1.890065	W AO SH
-0.8861349	W AO T
-2.253139	W AO TH
-2.454337	W AO Z
-1.351065	Y AO F
-1.351065	Y AO L
-0.7989349	Y AO N
-0.9502025	Y AO NG
-1.351065	Y AO P
-0.2890211	Y AO R
-1.126072	Y AO S
-1.087914	Z AO F
-1.514105	Z AO G
-1.088136	Z AO L
-1.036984	Z AO N
-1.312907	Z AO NG
-0.2752227	Z AO R
-1.088136	Z AO S
-1.312907	Z AO T
-0.02065134	ZH AO R
-0.03435055	AY AW T
-1.664764	B AW AH
-1.498089	B AW CH
-1.498089	B AW D
-0.8962505	B AW ER
-1.532661	B AW K
-1.498089	B AW L
-0.5380777	B AW M
-0.7201593	B AW N
-1.924279	B AW R
-1.556303	B AW S
-1.021189	B AW SIL
-1.079181	B AW T
-1.556303	B AW Z
-0.8401953	CH AW AH
-1.041393	CH AW CH
-0.8401953	CH AW D
-0.6497745	CH AW S
-0.615424	CH AW SIL
-0.8401953	CH AW Z
-1.473892	D AW AH
-1.583037	D AW B
-1.252043	D AW D
-1.559395	D AW ER
-1.749816	D AW F
-1.524823	D AW G
-1.691498	D AW IH
-1.691498	D AW L
-1.951014	D AW M
-0.341775	D AW N
-1.691498	D AW R
-1.348954	D AW S
-1.224015	D AW SIL
-0.9657368	D AW T
-1.749816	D AW TH
-1.749816	D AW W
-1.524823	D AW Z
-0.2218488	DH AW SIL
-0.9014649	ER AW D
-0.7110441	ER AW IY
-0.5383909	ER AW N
-0.7110441	ER AW S
-0.7346855	ER AW Z
-0.03435055	EY AW T
-1.280723	F AW AH
-1.222405	F AW B
-1.48192	F AW CH
-1.48192	F AW K
-0.7549214	F AW L
-0.4405274	F AW N
-1.05573	F AW S
-1.280723	F AW SIL
-1.090302	F AW T
-1.280723	F AW V
-0.8718323	G AW AH
-1.089438	G AW B
-1.147756	G AW CH
-1.089438	G AW D
-1.348954	G AW ER
-1.348954	G AW IH
-1.089438	G AW JH
-1.147756	G AW K
-0.9573354	G AW N
-0.9227629	G AW S
-1.348954	G AW SIL
-0.9809768	G AW T
-1.489201	HH AW AH
-1.734405	HH AW B
-1.924826	HH AW CH
-1.700054	HH AW D
-1.188171	HH AW ER
-1.866508	HH AW G
-1.866508	HH AW IH
-1.734405	HH AW IY
-1.700054	HH AW K
-1.603144	HH AW L
-2.126023	HH AW M
-1.523963	HH AW N
-1.866508	HH AW P
-2.126023	HH AW R
-0.287174	HH AW S
-1.734405	HH AW SH
-1.603144	HH AW SIL
-1.427053	HH AW T
-0.9798951	HH AW Z
-0.363074	IY AW G
-0.3047562	IY AW SIL
-0.4259687	JH AW L
-0.2247713	JH AW S
-1.871889	K AW AA
-1.432435	K AW AH
-1.763428	K AW B
-1.739787	K AW CH
-1.763428	K AW D
-1.529345	K AW ER
-1.930207	K AW F
-2.131405	K AW G
-2.131405	K AW IH
-1.654284	K AW IY
-1.329772	K AW L
-0.2967722	K AW N
-1.930207	K AW P
-1.608526	K AW R
-1.228315	K AW S
-1.228315	K AW SIL
-1.006466	K AW T
-1.871889	K AW Z
-1.810232	L AW AA
-1.488551	L AW AH
-1.342423	L AW B
-1.619811	L AW CH
-0.9322482	L AW D
-0.9322482	L AW ER
-1.619811	L AW F
-1.619811	L AW IH
-1.619811	L AW IY
-1.643453	L AW K
-1.585461	L AW M
-1.187521	L AW N
-1.209797	L AW R
-1.041393	L AW S
-1.585239	L AW SH
-0.9700368	L AW SIL
-1.011429	L AW T
-1.619811	L AW TH
-2.01143	L AW V
-1.342423	L AW Z
-1.408041	M AW CH
-1.21762	M AW DH
-1.609239	M AW ER
-1.609239	M AW IH
-1.408041	M AW IY
-1.349723	M AW L
-0.4051186	M AW N
-1.609239	M AW R
-0.9402318	M AW S
-1.408041	M AW SIL
-1.408041	M AW T
-0.9724165	M AW TH
-1.349723	M AW Z
-1.265492	N AW AH
-1.069197	N AW ER
-1.432271	N AW IH
-1.207278	N AW L
-1.432271	N AW M
-0.5791108	N AW N
-0.9344984	N AW R
-1.031408	N AW S
-0.8095597	N AW SIL
-1.156347	N AW T
-1.633469	N AW Z
-0.02065134	NG AW T
-0.1249387	OW AW T
-1.55721	P AW AH
-1.332217	P AW CH
-1.332438	P AW D
-0.5920758	P AW ER
-1.059437	P AW L
-0.6792259	P AW N
-1.281286	P AW R
-1.281286	P AW S
-1.332217	P AW SIL
-0.9567748	P AW T
-1.758407	P AW W
-1.332438	P AW Z
-1.859961	R AW AH
-1.693285	R AW B
-1.642355	R AW CH
-1.040295	R AW D
-1.751499	R AW ER
-1.918278	R AW G
-1.727858	R AW K
-1.317843	R AW L
-2.119476	R AW M
-0.5174158	R AW N
-0.9838132	R AW S
-1.751499	R AW SH
-1.016814	R AW SIL
-0.8642033	R AW T
-1.727858	R AW TH
-1.918278	R AW W
-1.234869	R AW Z
-1.211807	S AW D
-0.9429615	S AW ER
-1.188165	S AW L
-0.695177	S AW N
-1.211807	S AW R
-1.211807	S AW S
-1.153593	S AW SIL
-0.444121	S AW TH
-0.9014649	SH AW AH
-0.7346855	SH AW ER
-1.102662	SH AW F
-0.9014649	SH AW G
-0.8431471	SH AW SIL
-0.6764717	SH AW T
-0.9014649	SH AW W
-1.706448	SIL AW AH
-1.896869	SIL AW B
-1.838551	SIL AW CH
-1.706448	SIL AW D
-1.533795	SIL AW ER
-1.73009	SIL AW G
-1.706448	SIL AW IH
-1.896869	SIL AW K
-2.098067	SIL AW L
-1.896869	SIL AW M
-1.671876	SIL AW N
-1.461244	SIL AW R
-1.344739	SIL AW S
-2.098067	SIL AW SH
-1.896869	SIL AW SIL
-0.1703541	SIL AW T
-1.896869	SIL AW UW
-2.098067	SIL AW Y
-1.896869	SIL AW Z
-1.742987	T AW AH
-1.37501	T AW B
-1.742987	T AW D
-1.265866	T AW ER
-1.541789	T AW K
-1.483472	T AW L
-0.2516252	T AW N
-1.541789	T AW R
-1.541789	T AW SH
-1.317018	T AW SIL
-0.9648356	T AW T
-1.541789	T AW Z
-0.3617095	TH AW T
-0.2762064	TH AW Z
-0.02065134	UW AW T
-0.7440444	V AW AH
-0.8761473	V AW CH
-1.135663	V AW D
-0.7440444	V AW ER
-0.9344652	V AW IH
-0.7440444	V AW SIL
-0.9344652	V AW T
-0.600435	W AW D
-0.8016323	W AW N
-0.600435	W AW SIL
-0.8016323	W AW T
-0.8016323	W AW Z
-0.7366547	Y AW B
-0.9378521	Y AW N
-0.7366547	Y AW R
-0.7366547	Y AW S
-0.9378521	Y AW SIL
-0.7366547	Y AW T
-0.30103	Z AW N
-0.2247713	ZH AW P
-0.4259687	ZH AW SIL
-0.1249387	AY AY SIL
-1.314966	B AY AA
-2.199572	B AY AE
-1.278754	B AY AH
-1.998375	B AY AW
-1.56275	B AY B
-1.26172	B AY D
-2.199572	B AY EH
-1.500602	B AY ER
-1.773382	B AY F
-1.722451	B AY G
-1.998375	B AY IH
-1.722451	B AY JH
-1.530566	B AY K
-1.24533	B AY L
-2.199572	B AY M
-0.9132656	B AY N
-0.8843019	B AY OW
-1.635301	B AY P
-1.296482	B AY R
-1.229536	B AY S
-1.214296	B AY SIL
-1.085629	B AY T
-1.940057	B AY UW
-1.807954	B AY V
-1.940057	B AY W
-1.998375	B AY Y
-1.56275	B AY Z
-1.227151	CH AY D
-1.060476	CH AY K
-0.4586379	CH AY L
-1.227151	CH AY M
-0.9637879	CH AY N
-1.227151	CH AY R
-1.486667	CH AY SIL
-1.285469	CH AY V
-0.7333389	CH AY Z
-2.03715	D AY AA
-1.311388	D AY AE
-0.7737864	D AY AH
-1.928688	D AY B
-1.905047	D AY CH
-1.928688	D AY D
-2.296665	D AY EH
-1.627658	D AY ER
-1.928688	D AY G
-2.296665	D AY HH
-1.819544	D AY IH
-1.627658	D AY JH
-1.326628	D AY K
-1.375846	D AY L
-1.543337	D AY M
-0.7651863	D AY N
-2.095468	D AY OW
-1.905047	D AY P
-1.358813	D AY R
-1.326628	D AY S
-1.569667	D AY SIL
-1.282425	D AY T
-2.095468	D AY UW
-1.025598	D AY V
-1.150537	D AY Z
-0.4356247	DH AY SIL
-0.2452039	DH AY Z
-1.613937	ER AY AA
-1.178313	ER AY AH
-1.292256	ER AY D
-1.613937	ER AY K
-1.423517	ER AY N
-1.613937	ER AY S
-1.815135	ER AY SIL
-1.116165	ER AY T
-1.338014	ER AY V
-0.1988344	ER AY Z
-0.02065134	EY AY SIL
-1.677607	F AY AH
-1.598426	F AY B
-0.8536982	F AY D
-2.117062	F AY EH
-0.9844665	F AY ER
-1.853698	F AY F
-2.0086	F AY G
-1.146128	F AY IH
-2.117062	F AY K
-1.273915	F AY L
-0.7567882	F AY N
-1.210245	F AY R
-1.70757	F AY S
-0.8805704	F AY SIL
-1.146128	F AY T
-2.17538	F AY TH
-1.739755	F AY V
-1.210245	F AY Z
-1.307352	G AY AH
-1.497773	G AY B
-0.7289332	G AY D
-1.69897	G AY EH
-1.272779	G AY ER
-1.272779	G AY G
-1.307352	G AY K
-1.062148	G AY L
-1.69897	G AY M
-1.221849	G AY N
-1.497773	G AY R
-0.8750613	G AY S
-1.221849	G AY SIL
-1.439455	G AY T
-1.69897	G AY V
-0.9719713	G AY Z
-2.150985	HH AY AE
-1.467576	HH AY AH
-1.528274	HH AY B
-0.7723989	HH AY D
-2.150985	HH AY EH
-1.829304	HH AY ER
-1.528274	HH AY F
-1.926214	HH AY G
-2.352183	HH AY IH
-2.150985	HH AY IY
-1.875061	HH AY JH
-1.366906	HH AY K
-1.273001	HH AY L
-0.8293038	HH AY M
-0.9659809	HH AY N
-2.150985	HH AY NG
-1.984206	HH AY OW
-1.043974	HH AY P
-1.449093	HH AY R
-1.297825	HH AY S
-1.71536	HH AY SIL
-1.21652	HH AY T
-1.960564	HH AY V
-1.926214	HH AY W
-1.653213	HH AY Z
-0.8653014	IY AY EY
-0.8653014	IY AY P
-0.4391108	IY AY SIL
-0.8653014	IY AY T
-0.664104	IY AY Z
-0.8808136	JH AY AH
-1.144177	JH AY B
-1.202495	JH AY G
-1.403692	JH AY L
-0.9775017	JH AY N
-0.7346855	JH AY R
-1.403692	JH AY SIL
-1.202495	JH AY T
-1.202495	JH AY V
-0.6255411	JH AY Z
-1.64538	K AY AE
-1.205926	K AY AH
-1.478705	K AY B
-1.478927	K AY D
-1.703698	K AY ER
-1.703698	K AY F
-1.703698	K AY G
-1.513278	K AY HH
-1.478705	K AY K
-0.984077	K AY L
-1.904896	K AY M
-0.919619	K AY N
-1.478705	K AY OW
-1.64538	K AY P
-1.103263	K AY R
-1.268074	K AY S
-1.103263	K AY SIL
-1.268074	K AY T
-1.478927	K AY V
-1.64538	K AY W
-1.904896	K AY Y
-1.020289	K AY Z
-2.518134	L AY AA
-1.309962	L AY AH
-1.765089	L AY B
-2.518134	L AY CH
-1.363944	L AY D
-2.327713	L AY DH
-2.719331	L AY EH
-1.834725	L AY ER
-1.488882	L AY F
-2.459816	L AY G
-1.895423	L AY IH
-2.050324	L AY JH
-1.106547	L AY K
-1.834725	L AY L
-1.472177	L AY M
-0.6714078	L AY N
-2.518134	L AY NG
-2.293363	L AY P
-2.518134	L AY R
-1.418301	L AY S
-2.050324	L AY SH
-1.404061	L AY SIL
-0.9609241	L AY T
-1.749295	L AY V
-2.719331	L AY W
-0.6212647	L AY Z
-2.383815	M AY AA
-1.957625	M AY AE
-1.518514	M AY AH
-2.1243	M AY AO
-1.781755	M AY D
-2.015839	M AY EH
-0.8040318	M AY ER
-2.015839	M AY F
-1.819544	M AY G
-1.992197	M AY HH
-2.182618	M AY IH
-0.6936193	M AY K
-1.269872	M AY L
-2.182618	M AY M
-0.8315529	M AY N
-2.015839	M AY OW
-2.182618	M AY P
-1.068545	M AY R
-1.292735	M AY S
-2.383815	M AY SH
-1.860937	M AY SIL
-1.342423	M AY T
-1.022088	M AY Z
-1.872412	N AY AE
-1.36094	N AY AH
-1.872412	N AY B
-2.004515	N AY CH
-1.097699	N AY D
-2.004515	N AY ER
-1.786909	N AY F
-1.872412	N AY G
-1.872412	N AY HH
-2.062833	N AY IH
-2.062833	N AY IY
-1.83784	N AY JH
-1.699759	N AY K
-1.537032	N AY L
-1.872412	N AY M
-1.24979	N AY N
-2.26403	N AY OW
-1.786909	N AY P
-2.004515	N AY R
-1.440122	N AY S
-1.595024	N AY SIL
-0.5888633	N AY T
-1.699759	N AY V
-0.5767987	N AY Z
-0.2218488	OW AY Z
-1.188114	P AY AH
-1.387686	P AY D
-1.051894	P AY ER
-1.989746	P AY F
-1.989746	P AY G
-1.989746	P AY IH
-1.124445	P AY K
-0.8648076	P AY L
-0.8648076	P AY N
-1.068928	P AY P
-0.8436183	P AY R
-1.387686	P AY S
-1.387686	P AY SIL
-1.563556	P AY T
-1.788549	P AY TH
-1.236419	P AY Z
-2.284914	R AY AA
-2.016069	R AY AE
-1.226922	R AY AH
-2.284914	R AY AO
-2.451693	R AY AW
-1.14324	R AY B
-2.393375	R AY CH
-1.05813	R AY D
-2.451693	R AY DH
-2.652891	R AY EH
-1.527952	R AY ER
-1.698648	R AY F
-2.016069	R AY G
-2.652891	R AY HH
-1.874739	R AY IH
-2.652891	R AY IY
-2.451693	R AY JH
-1.226922	R AY K
-1.698648	R AY L
-1.374137	R AY M
-1.043652	R AY N
-2.261272	R AY NG
-2.393375	R AY OW
-1.715039	R AY P
-2.284914	R AY R
-1.180622	R AY S
-2.226922	R AY SH
-1.598533	R AY SIL
-0.708408	R AY T
-1.272679	R AY V
-2.451693	R AY W
-1.147741	R AY Z
-1.935003	S AY AE
-1.343939	S AY AH
-1.503639	S AY B
-0.5906109	S AY D
-2.457882	S AY DH
-2.066264	S AY ER
-1.573275	S AY F
-2.031913	S AY G
-2.089905	S AY IH
-2.256685	S AY IY
-0.9712153	S AY K
-1.443641	S AY L
-1.59258	S AY M
-1.142612	S AY N
-1.788875	S AY P
-1.788875	S AY R
-1.704554	S AY S
-1.730883	S AY SIL
-0.8522178	S AY T
-2.256685	S AY TH
-2.256685	S AY V
-0.8857851	S AY Z
-1.342545	SH AY B
-0.9330532	SH AY D
-1.60206	SH AY EH
-0.9652379	SH AY ER
-1.079181	SH AY L
-1.175869	SH AY M
-0.6167833	SH AY N
-1.400863	SH AY P
-0.90309	SH AY R
-1.400863	SH AY S
-1.400863	SH AY T
-1.60206	SH AY V
-1.400863	SH AY Z
-1.533603	SIL AY AA
-2.110556	SIL AY AE
-1.326477	SIL AY AH
-1.612784	SIL AY B
-0.8697971	SIL AY D
-2.052239	SIL AY EH
-1.446452	SIL AY ER
-1.747482	SIL AY F
-1.709694	SIL AY G
-2.110556	SIL AY HH
-2.311754	SIL AY IY
-2.311754	SIL AY JH
-1.056481	SIL AY K
-1.155407	SIL AY L
-1.674932	SIL AY M
-1.709694	SIL AY N
-1.674932	SIL AY OW
-1.885785	SIL AY P
-1.135663	SIL AY R
-0.8493559	SIL AY S
-1.885563	SIL AY SH
-1.885563	SIL AY SIL
-1.390935	SIL AY T
-1.357511	SIL AY V
-1.834633	SIL AY W
-1.072872	SIL AY Z
-2.196344	T AY AH
-2.196344	T AY B
-1.518008	T AY D
-2.254662	T AY DH
-1.501617	T AY ER
-1.786853	T AY F
-1.535041	T AY G
-2.45586	T AY IH
-1.535041	T AY K
-1.140589	T AY L
-0.8915882	T AY M
-0.561913	T AY N
-2.45586	T AY NG
-1.208705	T AY P
-1.260883	T AY R
-1.610762	T AY S
-1.571253	T AY SIL
-1.094132	T AY T
-2.196344	T AY V
-2.196344	T AY W
-1.003562	T AY Z
-0.845098	TH AY AH
-0.8214567	TH AY L
-0.9535596	TH AY M
-1.011877	TH AY OW
-1.011877	TH AY R
-0.9535596	TH AY S
-1.011877	TH AY T
-0.7359536	TH AY Z
-0.5642715	UW AY N
-0.5642715	UW AY SIL
-0.363074	UW AY T
-1.679035	V AY AE
-0.9457147	V AY AH
-1.547775	V AY B
-1.167563	V AY D
-1.869456	V AY ER
-1.644463	V AY G
-1.869456	V AY IH
-1.593532	V AY K
-1.644463	V AY L
-1.100617	V AY N
-2.070653	V AY OW
-1.869456	V AY P
-0.8945622	V AY R
-1.269021	V AY S
-1.811138	V AY SIL
-0.9679911	V AY T
-1.100617	V AY V
-0.7348614	V AY Z
-1.41553	W AY AH
-2.41553	W AY AY
-2.047553	W AY B
-1.136776	W AY D
-2.41553	W AY EH
-1.259183	W AY ER
-1.746523	W AY F
-1.530923	W AY G
-2.214332	W AY HH
-2.214332	W AY IY
-1.530923	W AY K
-0.943261	W AY L
-1.892651	W AY M
-0.7922805	W AY N
-2.41553	W AY NG
-2.214332	W AY OW
-1.71656	W AY P
-1.220553	W AY R
-1.229893	W AY S
-2.023912	W AY SH
-1.851258	W AY SIL
-0.7434319	W AY T
-1.989339	W AY V
-1.1145	W AY Z
-0.02065134	Y AY SIL
-1.184691	Z AY AH
-1.70757	Z AY B
-0.7697181	Z AY D
-1.448055	Z AY ER
-1.230449	Z AY G
-1.230449	Z AY IH
-1.448055	Z AY K
-0.9542425	Z AY L
-1.143299	Z AY M
-0.7867514	Z AY N
-1.315952	Z AY R
-1.339593	Z AY S
-1.506373	Z AY SIL
-1.281601	Z AY T
-1.506373	Z AY Z
-0.1249387	ZH AY R
-1.294399	AA B AA
-2.134595	AA B AE
-0.8635234	AA B AH
-1.858671	AA B AO
-2.134595	AA B CH
-1.858671	AA B D
-1.557641	AA B EH
-1.09691	AA B ER
-1.858671	AA B EY
-2.134595	AA B F
-1.131672	AA B IH
-1.006733	AA B IY
-1.944174	AA B JH
-2.076277	AA B K
-1.105343	AA B L
-1.909601	AA B N
-1.608793	AA B OW
-2.134595	AA B OY
-1.131672	AA B R
-1.189664	AA B S
-1.113943	AA B SIL
-1.858671	AA B UW
-1.909601	AA B V
-1.909601	AA B W
-1.944174	AA B Y
-1.221849	AA B Z
-2.078277	AE B AA
-0.7618347	AE B AH
-2.136595	AE B AO
-2.136595	AE B AW
-2.136595	AE B AY
-1.258611	AE B D
-1.946174	AE B EH
-0.9824043	AE B ER
-2.337792	AE B EY
-1.946174	AE B HH
-0.9575807	AE B IH
-1.367755	AE B IY
-1.668785	AE B K
-1.246711	AE B L
-1.70097	AE B N
-1.969815	AE B OW
-1.09891	AE B R
-1.133672	AE B S
-2.337792	AE B SH
-1.051485	AE B SIL
-1.946174	AE B T
-2.136595	AE B UH
-1.911601	AE B UW
-1.70097	AE B Y
-1.296399	AE B Z
-1.498035	AH B AA
-1.534247	AH B AE
-0.4849165	AH B AH
-1.534247	AH B AO
-1.992885	AH B AW
-1.816793	AH B AY
-2.694777	AH B CH
-2.030673	AH B D
-1.448817	AH B EH
-1.674126	AH B ER
-1.719883	AH B EY
-2.895975	AH B F
-2.694777	AH B G
-2.469784	AH B HH
-1.074243	AH B IH
-1.547021	AH B IY
-1.958123	AH B JH
-1.881734	AH B K
-0.9874897	AH B L
-1.895975	AH B M
-2.694777	AH B N
-2.142647	AH B OW
-2.63646	AH B OY
-2.63646	AH B P
-1.327773	AH B R
-1.239557	AH B S
-1.624908	AH B SIL
-2.030673	AH B T
-2.694777	AH B TH
-2.470006	AH B UH
-2.072066	AH B UW
-2.418854	AH B V
-2.63646	AH B W
-1.975156	AH B Y
-1.547021	AH B Z
-1.108984	AO B AE
-0.8985423	AO B AH
-1.500602	AO B D
-1.108984	AO B EH
-1.074412	AO B ER
-1.299405	AO B EY
-1.132626	AO B IH
-1.299405	AO B K
-1.299405	AO B OW
-1.074634	AO B R
-0.7472747	AO B SIL
-1.500602	AO B UH
-1.108984	AO B Y
-1.355388	AW B AA
-0.929197	AW B AH
-1.095872	AW B EH
-0.5772364	AW B ER
-1.095872	AW B IH
-1.15419	AW B IY
-0.9637695	AW B OY
-1.15419	AW B R
-0.7911162	AW B SIL
-1.708968	AY B AA
-1.708968	AY B AE
-0.8328204	AY B AH
-1.542514	AY B AO
-1.576865	AY B AY
-1.331661	AY B D
-1.542292	AY B EH
-0.6195294	AY B ER
-1.968483	AY B EY
-1.166851	AY B IH
-1.708968	AY B IY
-1.767286	AY B L
-1.600506	AY B OW
-0.8893017	AY B R
-1.030631	AY B SIL
-1.767286	AY B Y
-1.215155	AY B Z
-0.7223251	CH B AA
-0.7223251	CH B AE
-0.8544281	CH B AO
-0.6877527	CH B ER
-1.113943	CH B L
-0.7223251	CH B UH
-1.290035	D B AA
-0.9890046	D B AE
-1.421295	D B AH
-1.113943	D B AO
-1.421295	D B AW
-1.210853	D B AY
-0.8750613	D B EH
-0.8129134	D B ER
-1.553398	D B EY
-1.386723	D B IH
-1.143907	D B IY
-1.143907	D B L
-1.553398	D B OW
-1.290035	D B R
-1.290035	D B UH
-1.606932	EH B AA
-0.69752	EH B AH
-1.99855	EH B AO
-1.99855	EH B AW
-1.99855	EH B D
-1.434278	EH B EH
-0.7513953	EH B ER
-1.606932	EH B HH
-1.174641	EH B IH
-1.245222	EH B IY
-1.329543	EH B L
-1.99855	EH B M
-1.572581	EH B N
-1.572581	EH B OW
-0.9705212	EH B R
-1.521429	EH B S
-1.220399	EH B SIL
-1.572581	EH B Y
-1.329543	EH B Z
-1.296352	ER B AA
-1.12026	ER B AE
-0.8922514	ER B AH
-1.296352	ER B AO
-2.266388	ER B AW
-1.513061	ER B AY
-1.840198	ER B D
-1.224996	ER B EH
-0.8922514	ER B ER
-1.328536	ER B EY
-1.027506	ER B IH
-1.071412	ER B IY
-1.84042	ER B L
-1.224996	ER B OW
-2.266388	ER B OY
-1.464756	ER B R
-2.006873	ER B S
-1.488237	ER B SIL
-1.597382	ER B UH
-2.065191	ER B UW
-2.065191	ER B Y
-1.488237	ER B Z
-2.10834	EY B AA
-1.682371	EY B AE
-0.481657	EY B AH
-1.848824	EY B AO
-1.848824	EY B EH
-0.6716469	EY B ER
-1.682371	EY B IH
-0.8073095	EY B IY
-1.355012	EY B L
-1.740363	EY B OW
-1.716721	EY B OY
-1.205249	EY B R
-1.471517	EY B SIL
-1.907142	EY B UH
-1.682149	EY B Y
-1.907142	EY B Z
-0.7688394	F B AE
-0.5784186	F B AO
-0.5784186	F B AW
-0.9700368	F B IY
-0.7688394	F B OW
-0.9344652	G B AO
-0.9344652	G B EH
-0.6127838	G B ER
-0.4988405	G B IY
-0.9344652	G B OW
-1.135663	G B UH
-1.317524	IH B AA
-1.729705	IH B AE
-0.6658711	IH B AH
-1.662758	IH B AO
-2.072249	IH B D
-1.377522	IH B EH
-0.9396542	IH B ER
-1.940146	IH B EY
-1.092883	IH B IH
-1.127645	IH B IY
-2.130567	IH B K
-1.277407	IH B L
-2.072249	IH B M
-2.072249	IH B N
-1.507856	IH B OW
-1.155673	IH B R
-2.072249	IH B S
-1.317524	IH B SIL
-1.905796	IH B UH
-1.963788	IH B UW
-2.331765	IH B W
-1.11869	IH B Y
-1.604766	IH B Z
-1.340444	IY B AA
-1.562293	IY B AE
-0.7069756	IY B AH
-1.437354	IY B AO
-1.738162	IY B AW
-1.772735	IY B AY
-1.226501	IY B EH
-0.8932861	IY B ER
-1.738384	IY B EY
-1.299051	IY B IH
-1.018225	IY B IY
-1.963155	IY B K
-1.738384	IY B L
-1.772735	IY B M
-1.963155	IY B N
-1.226501	IY B OW
-1.261263	IY B R
-1.12296	IY B SIL
-1.904838	IY B UH
-1.738384	IY B UW
-1.904838	IY B Y
-1.796376	IY B Z
-1.291623	K B AA
-1.182478	K B AE
-1.182478	K B AH
-1.233631	K B AO
-1.136721	K B AY
-1.233409	K B EH
-0.7942979	K B ER
-1.400084	K B EY
-1.267981	K B IH
-1.400084	K B IY
-1.458402	K B L
-1.267981	K B OW
-0.7387806	K B R
-1.233631	K B UH
-1.266793	L B AA
-1.377943	L B AE
-1.124686	L B AH
-1.457125	L B AO
-1.612027	L B AW
-1.913057	L B AY
-1.281033	L B EH
-0.5004761	L B ER
-1.855065	L B EY
-1.502882	L B IH
-1.042151	L B IY
-1.716762	L B L
-1.281033	L B OW
-2.021518	L B OY
-0.9800034	L B R
-1.554035	L B SIL
-1.913057	L B UH
-2.079836	L B UW
-1.889415	L B Y
-2.281033	L B Z
-1.216686	M B AA
-1.33726	M B AE
-0.7551962	M B AH
-1.63829	M B AO
-2.559108	M B AW
-1.7352	M B AY
-1.328659	M B EH
-0.6898766	M B ER
-2.03623	M B EY
-1.517716	M B IH
-1.13314	M B IY
-2.357911	M B K
-1.053958	M B L
-1.166998	M B OW
-2.13314	M B OY
-0.9290196	M B R
-1.957048	M B UH
-2.299593	M B UW
-2.191132	M B Y
-1.037789	N B AA
-1.459392	N B AE
-1.380211	N B AH
-1.535113	N B AO
-1.255273	N B AW
-1.857332	N B AY
-1.037789	N B EH
-0.4024876	N B ER
-1.90309	N B EY
-1.556303	N B IH
-1.313264	N B IY
-1.578579	N B L
-1.51491	N B OW
-2.380211	N B OY
-1.167136	N B R
-1.778151	N B UH
-1.988593	N B UW
-1.255273	NG B AE
-1.054075	NG B AH
-1.054075	NG B AO
-1.054075	NG B AY
-0.5862657	NG B ER
-1.054075	NG B IH
-1.054075	NG B IY
-1.255273	NG B L
-1.054075	NG B OW
-1.054075	NG B Y
-1.215702	OW B AA
-1.637776	OW B AE
-0.6440245	OW B AH
-1.637776	OW B AO
-1.829661	OW B AY
-2.306782	OW B D
-1.553455	OW B EH
-0.90309	OW B ER
-1.422176	OW B EY
-1.121146	OW B IH
-0.8596243	OW B IY
-1.50515	OW B L
-1.278754	OW B OW
-2.105585	OW B OY
-1.306782	OW B R
-1.385964	OW B SIL
-2.105585	OW B T
-1.783904	OW B UW
-2.105585	OW B Y
-1.579784	OW B Z
-0.455932	OY B AH
-0.3977181	OY B ER
-0.6227114	OY B IY
-1.020651	P B AA
-1.020651	P B AE
-1.020651	P B AH
-0.7956581	P B AO
-0.8302306	P B ER
-0.8302306	P B IH
-1.020651	P B OW
-1.221849	P B R
-1.020651	P B UH
-1.259718	R B AA
-1.6119	R B AE
-0.6616977	R B AH
-1.412328	R B AO
-1.78777	R B AW
-1.649689	R B AY
-1.954445	R B D
-1.100017	R B EH
-0.8522324	R B ER
-1.78777	R B EY
-0.9129303	R B IH
-1.348659	R B IY
-1.954445	R B L
-1.19972	R B OW
-2.21396	R B OY
-1.577138	R B R
-1.31087	R B SIL
-1.78777	R B UH
-2.21396	R B UW
-1.822342	R B Y
-1.787992	R B Z
-1.085596	S B AA
-1.190332	S B AE
-1.302305	S B AH
-1.356663	S B AO
-1.687656	S B AW
-1.134814	S B EH
-0.4796759	S B ER
-1.231724	S B IH
-0.8893017	S B IY
-1.664015	S B L
-1.687656	S B OW
-1.796118	S B OY
-1.190332	S B R
-1.664015	S B UH
-0.9945371	SH B AA
-1.420506	SH B AE
-1.028888	SH B AH
-0.9945371	SH B AO
-1.028888	SH B AW
-1.219308	SH B AY
-1.219308	SH B EH
-0.7836837	SH B ER
-1.028888	SH B EY
-1.219308	SH B IY
-1.219308	SH B OW
-1.219308	SH B R
-1.002082	SIL B AA
-1.069181	SIL B AE
-1.140385	SIL B AH
-1.473792	SIL B AO
-1.933776	SIL B AW
-1.494444	SIL B AY
-1.020625	SIL B EH
-1.136657	SIL B ER
-1.514647	SIL B EY
-1.151125	SIL B IH
-1.433991	SIL B IY
-1.147938	SIL B L
-1.305387	SIL B OW
-2.005271	SIL B OY
-0.7805061	SIL B R
-1.664931	SIL B UH
-1.63469	SIL B UW
-2.585054	SIL B W
-1.812733	SIL B Y
-1.430681	T B AA
-0.9631974	T B AE
-1.298578	T B AH
-0.7871061	T B AO
-1.430681	T B AW
-1.021189	T B EH
-0.9912261	T B ER
-1.322219	T B IH
-1.264227	T B IY
-1.430681	T B L
-1.488999	T B OY
-0.845098	T B R
-1.264227	T B UH
-1.488999	T B Y
-0.6226223	TH B AO
-0.6226223	TH B AW
-0.5882717	TH B ER
-0.8130431	TH B IH
-1.01424	TH B R
-0.5642715	UH B AH
-0.3047562	UH B ER
-1.383393	UW B AA
-1.877205	UW B AE
-0.6743225	UW B AH
-1.71053	UW B AO
-2.136721	UW B AW
-1.935523	UW B AY
-1.182478	UW B EH
-0.8214501	UW B ER
-2.136721	UW B EY
-0.941744	UW B IH
-1.011782	UW B IY
-1.572449	UW B L
-1.534661	UW B OW
-2.136721	UW B OY
-1.136721	UW B R
-1.215902	UW B SIL
-1.935523	UW B UW
-1.935523	UW B W
-1.745102	UW B Y
-1.710752	UW B Z
-0.02065134	V B AE
-1.170262	Z B AA
-1.267172	Z B AE
-1.170262	Z B AH
-1.609716	Z B AO
-1.668034	Z B AY
-0.9149892	Z B EH
-0.4771213	Z B ER
-1.23241	Z B IH
-0.802285	Z B IY
-1.142233	Z B R
-1.668034	Z B W
-1.714378	AA CH AA
-0.9013352	AA CH AH
-1.714378	AA CH D
-0.9613332	AA CH EH
-1.489607	AA CH ER
-1.915576	AA CH EY
-1.714378	AA CH F
-1.050274	AA CH IH
-0.6292689	AA CH IY
-1.489385	AA CH K
-1.523957	AA CH M
-1.278754	AA CH OW
-0.8486289	AA CH SIL
-1.489385	AA CH T
-1.523957	AA CH UW
-1.714378	AA CH W
-0.7344981	AE CH AH
-2.042707	AE CH AO
-1.783191	AE CH B
-1.783191	AE CH EH
-0.7639531	AE CH ER
-1.651089	AE CH F
-0.9400444	AE CH IH
-1.241074	AE CH IY
-1.67473	AE CH L
-1.616738	AE CH M
-2.042707	AE CH OW
-1.3737	AE CH R
-0.8038247	AE CH SIL
-1.241074	AE CH T
-1.651089	AE CH UH
-1.315708	AE CH UW
-1.651089	AE CH W
-1.562293	AH CH AA
-1.787064	AH CH AE
-1.085172	AH CH AH
-1.562293	AH CH AO
-1.787064	AH CH AW
-0.9740211	AH CH EH
-0.8855993	AH CH ER
-1.787064	AH CH EY
-1.787064	AH CH F
-0.9090803	AH CH IH
-0.8743182	AH CH IY
-1.620285	AH CH K
-1.988262	AH CH L
-1.988262	AH CH M
-1.787064	AH CH N
-1.728746	AH CH OW
-0.8743182	AH CH SIL
-1.562071	AH CH T
-1.465383	AH CH UH
-1.562293	AH CH UW
-1.041393	AO CH AH
-1.041393	AO CH EH
-0.6734159	AO CH ER
-1.041393	AO CH IY
-0.3424227	AO CH SIL
-1.069869	AW CH AH
-1.271067	AW CH AY
-1.271067	AW CH EH
-0.8448762	AW CH ER
-0.7939455	AW CH IH
-1.271067	AW CH IY
-1.271067	AW CH OW
-0.4694344	AW CH SIL
-1.271067	AW CH T
-0.6947272	AY CH AH
-0.7530451	AY CH ER
-0.7530451	AY CH IH
-0.7530451	AY CH R
-0.5862657	AY CH SIL
-0.4977726	B CH AE
-0.4977726	B CH EH
-0.4977726	B CH IH
-0.5769538	D CH AH
-0.3865331	D CH AY
-0.518636	D CH IH
-0.7072954	EH CH AH
-1.520338	EH CH B
-1.329918	EH CH EH
-0.9682082	EH CH ER
-1.721536	EH CH EY
-0.8562344	EH CH IH
-1.022566	EH CH IY
-1.520338	EH CH K
-1.462021	EH CH M
-1.353559	EH CH N
-0.9682082	EH CH SIL
-1.295567	EH CH T
-1.198657	EH CH UW
-1.520338	EH CH W
-1.18491	ER CH AA
-1.453755	ER CH AE
-0.7547851	ER CH AH
-1.620534	ER CH B
-1.430114	ER CH EH
-1.0201	ER CH ER
-1.395763	ER CH EY
-1.620534	ER CH F
-1.821732	ER CH G
-1.821732	ER CH HH
-0.7425506	ER CH IH
-1.821732	ER CH IY
-1.620534	ER CH K
-1.620534	ER CH L
-1.620534	ER CH M
-0.9978231	ER CH SIL
-1.430114	ER CH T
-1.395763	ER CH UW
-1.620534	ER CH Y
-0.820964	EY CH AH
-1.045957	EY CH B
-0.9876394	EY CH EH
-0.6103325	EY CH ER
-0.820964	EY CH IH
-0.6103325	EY CH SIL
-2.031261	IH CH AA
-2.089579	IH CH AE
-0.9970456	IH CH AH
-2.089579	IH CH AY
-1.864808	IH CH B
-1.369958	IH CH EH
-1.051894	IH CH ER
-1.688716	IH CH F
-1.9228	IH CH HH
-1.012023	IH CH IH
-1.425475	IH CH IY
-1.864586	IH CH K
-1.767898	IH CH L
-1.688716	IH CH M
-1.9228	IH CH N
-1.899158	IH CH OW
-0.4024096	IH CH SIL
-1.512625	IH CH T
-1.276536	IH CH UW
-2.290776	IH CH W
-1.511661	IY CH AA
-1	IY CH AH
-1.546234	IY CH AW
-1.736655	IY CH B
-1.373581	IY CH EH
-1	IY CH ER
-1.736655	IY CH F
-1.736655	IY CH HH
-0.9098234	IY CH IH
-0.6906975	IY CH IY
-1.678337	IY CH K
-1.937852	IY CH L
-1.546234	IY CH M
-1.736655	IY CH N
-1.736655	IY CH R
-0.7917241	IY CH SIL
-1.373581	IY CH T
-1.937852	IY CH UW
-1.224682	K CH AH
-0.2360892	K CH ER
-1.19011	K CH OW
-0.5371192	K CH UW
-1.422052	L CH AA
-1.363734	L CH AE
-1.197281	L CH AH
-1.623249	L CH AY
-1.146128	L CH EH
-0.4875867	L CH ER
-1.623249	L CH EY
-0.9542425	L CH IH
-1.363734	L CH IY
-0.8699216	L CH SIL
-1.231631	L CH T
-1.623249	L CH UW
-1.422052	L CH Y
-0.4391108	M CH AE
-0.664104	M CH EH
-0.6057862	M CH IH
-0.8653014	M CH IY
-1.848931	N CH AA
-1.337459	N CH AE
-0.9252788	N CH AH
-2.039352	N CH AO
-2.039352	N CH AW
-1.438917	N CH AY
-2.240549	N CH B
-1.149469	N CH EH
-0.8915957	N CH ER
-2.240549	N CH EY
-2.240549	N CH F
-0.8725725	N CH IH
-0.9542425	N CH IY
-1.848931	N CH K
-1.872572	N CH L
-1.717671	N CH M
-1.541579	N CH OW
-2.039352	N CH P
-2.240549	N CH R
-0.8981265	N CH SIL
-1.319731	N CH T
-1.513551	N CH UW
-2.039352	N CH Y
-0.02065134	NG CH UH
-1.121994	OW CH AA
-1.071063	OW CH AH
-1.346987	OW CH AY
-0.9839132	OW CH EH
-1.180208	OW CH ER
-0.7700334	OW CH IH
-0.7465523	OW CH IY
-1.548185	OW CH M
-1.548185	OW CH OW
-0.794857	OW CH SIL
-1.288669	OW CH T
-0.7688394	OY CH EH
-0.5784186	OY CH IH
-0.5784186	OY CH M
-0.5438461	OY CH SIL
-0.845098	P CH AH
-0.3099848	P CH ER
-1.011877	P CH IH
-0.7868842	P CH UW
-1.011877	P CH W
-1.50141	R CH AE
-0.8066823	R CH AH
-1.559727	R CH AY
-1.369307	R CH B
-1.760925	R CH D
-0.9592925	R CH EH
-0.8956234	R CH ER
-1.124103	R CH IH
-1.124103	R CH IY
-1.559727	R CH L
-1.50141	R CH M
-1.760925	R CH OW
-1.559727	R CH R
-0.9827736	R CH SIL
-1.334734	R CH T
-1.091918	R CH UW
-1	S CH AA
-1.361709	S CH AE
-0.5061731	S CH AH
-1.55213	S CH AO
-1.753328	S CH AY
-1	S CH EH
-0.8154756	S CH ER
-1.230449	S CH EY
-1.385351	S CH IH
-1.230449	S CH IY
-1.753328	S CH OW
-1.55213	S CH UH
-1.385351	S CH UW
-0.9938494	SIL CH AA
-0.8269015	SIL CH AE
-1.255961	SIL CH AH
-1.556991	SIL CH AO
-1.954931	SIL CH AW
-1.447847	SIL CH AY
-0.7355714	SIL CH EH
-1.181981	SIL CH ER
-1.237736	SIL CH EY
-0.8245975	SIL CH IH
-1.051841	SIL CH IY
-1.758637	SIL CH OW
-2.101059	SIL CH OY
-2.23232	SIL CH R
-2.23232	SIL CH UH
-1.488276	SIL CH UW
-2.422741	SIL CH Y
-1.054358	T CH AE
-0.8531603	T CH AH
-0.8531603	T CH EH
-0.7948424	T CH ER
-1.054358	T CH EY
-0.8531603	T CH IH
-1.054358	T CH IY
-0.8531603	T CH SIL
-0.1249387	TH CH AY
-0.2340832	UH CH ER
-0.4008626	UH CH SIL
-1.572101	UW CH AA
-1.405322	UW CH AH
-1.296178	UW CH EH
-1.019971	UW CH ER
-1.296178	UW CH IH
-0.2169963	UW CH IY
-1.572101	UW CH M
-1.773299	UW CH OW
-1.405322	UW CH SIL
-1.34733	UW CH UW
-0.4259687	V CH IH
-0.2247713	V CH UH
-1.386881	AA D AA
-2.027637	AA D AE
-0.6732705	AA D AH
-1.851768	AA D AO
-1.976707	AA D B
-1.754858	AA D EH
-1.240753	AA D ER
-1.976707	AA D EY
-2.027637	AA D F
-2.027637	AA D HH
-1.104874	AA D IH
-0.930949	AA D IY
-2.027859	AA D K
-1.499585	AA D L
-1.851768	AA D M
-1.851768	AA D N
-1.038854	AA D OW
-1.297481	AA D R
-1.930949	AA D S
-2.25263	AA D SH
-0.9964506	AA D SIL
-2.25263	AA D T
-1.976707	AA D UW
-2.25263	AA D V
-2.027859	AA D W
-2.06221	AA D Y
-1.362747	AA D Z
-2.497391	AE D AE
-0.7096938	AE D AH
-2.296193	AE D AO
-2.296193	AE D AY
-1.860568	AE D B
-2.296193	AE D CH
-2.296193	AE D EH
-1.430444	AE D ER
-1.89533	AE D F
-1.974512	AE D HH
-1.093698	AE D IH
-1.372452	AE D IY
-2.296193	AE D JH
-1.744063	AE D K
-1.242118	AE D L
-1.218637	AE D M
-1.543148	AE D N
-1.49739	AE D OW
-2.296193	AE D P
-1.443033	AE D R
-1.527354	AE D S
-2.296193	AE D SH
-0.8474069	AE D SIL
-2.497391	AE D T
-2.296193	AE D UW
-1.076885	AE D V
-1.673482	AE D W
-2.237875	AE D Y
-1.341043	AE D Z
-1.415187	AH D AA
-1.727498	AH D AE
-1.142929	AH D AH
-1.462184	AH D AO
-2.570646	AH D AW
-1.591279	AH D AY
-2.307282	AH D B
-1.258064	AH D EH
-1.663829	AH D ER
-1.409655	AH D EY
-2.830161	AH D G
-2.161154	AH D HH
-1.196692	AH D IH
-1.217377	AH D IY
-2.307282	AH D K
-1.574888	AH D L
-1.802132	AH D M
-1.875918	AH D N
-1.626041	AH D OW
-2.628963	AH D OY
-1.684033	AH D R
-2.006252	AH D S
-0.4541925	AH D SIL
-2.830161	AH D T
-2.830161	AH D TH
-2.438543	AH D UH
-1.635184	AH D UW
-1.705222	AH D V
-2.161154	AH D W
-2.628963	AH D Y
-1.566919	AH D Z
-0.7886167	AO D AH
-1.723082	AO D AW
-1.664764	AO D B
-1.255273	AO D ER
-1.723082	AO D F
-1.723082	AO D HH
-0.9700368	AO D IH
-0.7679321	AO D IY
-1.287457	AO D K
-1.498089	AO D L
-1.924279	AO D N
-1.723082	AO D OW
-1.498311	AO D R
-1.498311	AO D S
-0.8216169	AO D SIL
-1.723082	AO D T
-1.723082	AO D UW
-1.532661	AO D W
-1.556303	AO D Z
-0.8750613	AW D AH
-0.79588	AW D ER
-1.69897	AW D F
-0.8750613	AW D IH
-0.8750613	AW D IY
-1.69897	AW D L
-1.497773	AW D N
-1.497773	AW D R
-1.497773	AW D S
-0.5963076	AW D SIL
-1.330993	AW D Z
-2.056057	AY D AA
-2.533179	AY D AE
-0.876761	AY D AH
-2.141561	AY D AW
-2.331981	AY D AY
-2.0103	AY D B
-1.50515	AY D EH
-0.9689073	AY D ER
-1.968907	AY D EY
-2.331981	AY D G
-2.331981	AY D HH
-1.112673	AY D IH
-1.376832	AY D IY
-1.667877	AY D L
-1.896357	AY D M
-2.141561	AY D N
-1.968907	AY D OW
-2.331981	AY D P
-1.20412	AY D R
-2.0103	AY D S
-2.331981	AY D SH
-0.491786	AY D SIL
-2.533179	AY D T
-2.165202	AY D W
-1.046512	AY D Z
-1.583577	B D AA
-1.382379	B D AE
-0.6627578	B D AH
-1.382379	B D EH
-1.106455	B D IH
-1.382379	B D OW
-1.382379	B D R
-0.3617278	B D SIL
-1.157386	B D UW
-0.3216814	CH D AO
-0.3216814	CH D AY
-0.4336556	DH D R
-0.2373609	DH D SIL
-2.454581	EH D AA
-2.454581	EH D AE
-0.8045202	EH D AH
-2.229588	EH D AO
-2.454581	EH D AW
-2.287802	EH D AY
-1.685742	EH D B
-2.454581	EH D CH
-1.877627	EH D EH
-1.159772	EH D ER
-2.454581	EH D EY
-1.685742	EH D F
-2.178657	EH D G
-1.956809	EH D HH
-0.845098	EH D IH
-1.294051	EH D IY
-1.717926	EH D K
-1.281641	EH D L
-1.50965	EH D M
-1.83187	EH D N
-1.877627	EH D OW
-2.22981	EH D P
-1.300391	EH D R
-1.717926	EH D S
-2.26416	EH D SH
-0.7807173	EH D SIL
-2.229588	EH D T
-2.26416	EH D UW
-2.229588	EH D V
-1.541835	EH D W
-2.26416	EH D Y
-1.294051	EH D Z
-1.957248	ER D AA
-2.082187	ER D AE
-1.368976	ER D AH
-2.424731	ER D AO
-2.684247	ER D AW
-2.01524	ER D AY
-2.684247	ER D B
-2.119975	ER D EH
-1.79964	ER D ER
-2.161368	ER D EY
-2.258278	ER D F
-2.483049	ER D HH
-1.421005	ER D IH
-1.548584	ER D IY
-2.292629	ER D K
-1.670006	ER D L
-2.31627	ER D M
-2.258056	ER D N
-2.082187	ER D OW
-2.082187	ER D R
-2.161368	ER D S
-2.424731	ER D SH
-0.1942883	ER D SIL
-2.119975	ER D UW
-2.292629	ER D W
-1.006032	ER D Z
-1.748188	EY D AA
-2.215997	EY D AE
-0.7513013	EY D AH
-1.940074	EY D AO
-2.049218	EY D EH
-1.161922	EY D ER
-2.049218	EY D EY
-1.036984	EY D IH
-0.8489931	EY D IY
-1.815135	EY D L
-2.025577	EY D M
-1.260848	EY D OW
-1.496376	EY D R
-0.6110148	EY D SIL
-2.025577	EY D UW
-2.417195	EY D W
-1.013502	EY D Z
-0.552842	F D AH
-0.7196214	F D AO
-0.49485	F D IH
-0.9208187	F D IY
-1.271964	G D AA
-1.105288	G D AE
-0.6106601	G D AH
-1.531479	G D AO
-1.330281	G D EY
-1.531479	G D IH
-0.2925968	G D SIL
-1.97702	IH D AA
-2.3506	IH D AE
-1.13914	IH D AH
-2.3506	IH D AO
-2.914872	IH D AW
-2.312812	IH D AY
-2.437751	IH D B
-1.636118	IH D EH
-1.738781	IH D ER
-1.789933	IH D EY
-2.713674	IH D G
-2.914872	IH D HH
-1.428205	IH D IH
-1.323807	IH D IY
-2.914872	IH D JH
-2.437751	IH D K
-1.553144	IH D L
-2.161544	IH D M
-1.847925	IH D N
-1.860514	IH D OW
-2.488681	IH D P
-2.11324	IH D R
-2.069774	IH D S
-2.655357	IH D SH
-0.2133038	IH D SIL
-2.523254	IH D T
-2.523254	IH D TH
-1.994053	IH D UW
-1.994053	IH D W
-2.523254	IH D Y
-1.659599	IH D Z
-2.185502	IY D AA
-2.16186	IY D AE
-0.7976036	IY D AH
-2.185502	IY D AO
-2.352281	IY D AW
-2.352281	IY D AY
-2.12751	IY D B
-1.70838	IY D EH
-1.086117	IY D ER
-1.854509	IY D EY
-2.553478	IY D HH
-0.8875849	IY D IH
-0.8131158	IY D IY
-1.650388	IY D L
-1.751846	IY D M
-1.474297	IY D OW
-1.439535	IY D R
-2.185502	IY D S
-0.6632438	IY D SIL
-2.553478	IY D T
-2.12751	IY D UW
-2.352281	IY D W
-2.553478	IY D Y
-1.290237	IY D Z
-1.480044	JH D AH
-0.01534769	JH D SIL
-0.899195	K D AA
-1.142011	K D AE
-0.9661418	K D AH
-1.568202	K D AO
-0.899195	K D AW
-1.367004	K D EH
-1.142233	K D ER
-0.8692317	K D EY
-1.308686	K D IH
-1.142011	K D OW
-1.367004	K D R
-1.568202	K D SIL
-1.00393	K D UW
-2.087406	L D AA
-2.581218	L D AE
-1.116457	L D AH
-2.171726	L D AO
-2.581218	L D AW
-2.840733	L D AY
-2.087406	L D B
-2.087406	L D EH
-1.050683	L D ER
-2.141763	L D EY
-2.039101	L D F
-2.113734	L D HH
-1.242308	L D IH
-1.539703	L D IY
-2.087406	L D K
-2.276462	L D L
-1.937643	L D M
-2.238673	L D N
-1.674402	L D OW
-2.639536	L D P
-1.466596	L D R
-1.870696	L D S
-2.840733	L D SH
-0.2974932	L D SIL
-2.639536	L D T
-2.276462	L D UW
-2.639536	L D V
-1.995635	L D W
-1.231495	L D Z
-1.817345	M D AA
-1.391376	M D AH
-1.817345	M D EH
-1.616148	M D ER
-1.449368	M D EY
-1.425727	M D IH
-1.616148	M D IY
-0.0930691	M D SIL
